{"learner":{"attributes":{"scikit_learn":"{\"_estimator_type\": \"regressor\"}"},"feature_names":["mfcc_1","mfcc_2","mfcc_3","mfcc_4","mfcc_5","mfcc_6","mfcc_7","mfcc_8","mfcc_9","mfcc_10","mfcc_11","mfcc_12","mfcc_13","mfcc_14","mfcc_15","mfcc_16","mfcc_17","mfcc_18","mfcc_19","mfcc_20","pitch","jitter","shimmer","mfcc_1_entropy","mfcc_1_kurtosis","mfcc_1_skewness","mfcc_2_entropy","mfcc_2_kurtosis","mfcc_2_skewness","mfcc_3_entropy","mfcc_3_kurtosis","mfcc_3_skewness","mfcc_4_entropy","mfcc_4_kurtosis","mfcc_4_skewness","mfcc_5_entropy","mfcc_5_kurtosis","mfcc_5_skewness","mfcc_6_entropy","mfcc_6_kurtosis","mfcc_6_skewness","mfcc_7_entropy","mfcc_7_kurtosis","mfcc_7_skewness","mfcc_8_entropy","mfcc_8_kurtosis","mfcc_8_skewness","mfcc_9_entropy","mfcc_9_kurtosis","mfcc_9_skewness","mfcc_10_entropy","mfcc_10_kurtosis","mfcc_10_skewness","mfcc_11_entropy","mfcc_11_kurtosis","mfcc_11_skewness","mfcc_12_entropy","mfcc_12_kurtosis","mfcc_12_skewness","mfcc_13_entropy","mfcc_13_kurtosis","mfcc_13_skewness","mfcc_14_entropy","mfcc_14_kurtosis","mfcc_14_skewness","mfcc_15_entropy","mfcc_15_kurtosis","mfcc_15_skewness","mfcc_16_entropy","mfcc_16_kurtosis","mfcc_16_skewness","mfcc_17_entropy","mfcc_17_kurtosis","mfcc_17_skewness","mfcc_18_entropy","mfcc_18_kurtosis","mfcc_18_skewness","mfcc_19_entropy","mfcc_19_kurtosis","mfcc_19_skewness","mfcc_20_entropy","mfcc_20_kurtosis","mfcc_20_skewness","pitch_entropy","pitch_kurtosis","pitch_skewness","jitter_entropy","jitter_kurtosis","jitter_skewness","shimmer_entropy","shimmer_kurtosis","shimmer_skewness"],"feature_types":["float","float","float","float","float","float","float","float","float","float","float","float","float","float","float","float","float","float","float","float","float","float","float","float","float","float","float","float","float","float","float","float","float","float","float","float","float","float","float","float","float","float","float","float","float","float","float","float","float","float","float","float","float","float","float","float","float","float","float","float","float","float","float","float","float","float","float","float","float","float","float","float","float","float","float","float","float","float","float","float","float","float","float","float","float","float","float","float","float","float","float","float"],"gradient_booster":{"model":{"cats":{"enc":[],"feature_segments":[],"sorted_idx":[]},"gbtree_model_param":{"num_parallel_tree":"1","num_trees":"200"},"iteration_indptr":[0,1,2,3,4,5,6,7,8,9,10,11,12,13,14,15,16,17,18,19,20,21,22,23,24,25,26,27,28,29,30,31,32,33,34,35,36,37,38,39,40,41,42,43,44,45,46,47,48,49,50,51,52,53,54,55,56,57,58,59,60,61,62,63,64,65,66,67,68,69,70,71,72,73,74,75,76,77,78,79,80,81,82,83,84,85,86,87,88,89,90,91,92,93,94,95,96,97,98,99,100,101,102,103,104,105,106,107,108,109,110,111,112,113,114,115,116,117,118,119,120,121,122,123,124,125,126,127,128,129,130,131,132,133,134,135,136,137,138,139,140,141,142,143,144,145,146,147,148,149,150,151,152,153,154,155,156,157,158,159,160,161,162,163,164,165,166,167,168,169,170,171,172,173,174,175,176,177,178,179,180,181,182,183,184,185,186,187,188,189,190,191,192,193,194,195,196,197,198,199,200],"tree_info":[0,0,0,0,0,0,0,0,0,0,0,0,0,0,0,0,0,0,0,0,0,0,0,0,0,0,0,0,0,0,0,0,0,0,0,0,0,0,0,0,0,0,0,0,0,0,0,0,0,0,0,0,0,0,0,0,0,0,0,0,0,0,0,0,0,0,0,0,0,0,0,0,0,0,0,0,0,0,0,0,0,0,0,0,0,0,0,0,0,0,0,0,0,0,0,0,0,0,0,0,0,0,0,0,0,0,0,0,0,0,0,0,0,0,0,0,0,0,0,0,0,0,0,0,0,0,0,0,0,0,0,0,0,0,0,0,0,0,0,0,0,0,0,0,0,0,0,0,0,0,0,0,0,0,0,0,0,0,0,0,0,0,0,0,0,0,0,0,0,0,0,0,0,0,0,0,0,0,0,0,0,0,0,0,0,0,0,0,0,0,0,0,0,0,0,0,0,0,0,0],"trees":[{"base_weights":[-2.2345113E-2,-2.7320702E0,9.898613E-2,-1.8339964E0,-8.982018E0,2.853911E-1,-1.4805106E0,-2.924144E0,1.8943903E-1,-4.6263084E0,-1.3830616E1,-2.1006792E0,4.622781E-1,2.053004E0,-2.3999007E0,-4.0281305E0,-1.1319292E0,-1.4968562E0,2.25114E0,-3.8283472E0,-2.5187447E1,-1.955756E1,-1.5722927E0,6.00183E0,-3.1356356E0,5.4683286E-1,-6.0348587E0,6.9116526E0,6.5351574E-4,-2.9892614E0,4.2758703E0,-1.7954916E0,-5.093416E0,-6.4774376E-1,-5.7093062E0,3.3775604E0,-2.2395244E0,5.162522E-1,4.4060693E0,-1.7658483E0,-1.101872E1,-3.289647E1,-1.1139198E1,-2.224764E1,-5.571443E0,2.5576174E0,-1.7323288E1,1.9219967E1,2.6033008E0,-4.97787E0,1.6715549E-1,6.8835276E-1,-2.6360266E0,1.1925561E0,-1.0895871E1,6.3097906E-1,1.2788319E1,-3.2778254E-1,3.0845827E-1,-4.0762672E0,-3.367448E-1,-4.078033E-2,9.457006E0,1.0496037E-2,-2.7939629E-2,-3.5096314E-2,-6.877016E-2,1.823261E-2,-1.8180484E-2,-6.822805E-2,8.9726344E-2,1.2979655E-1,1.3931398E-2,-4.8410363E-2,-1.1928077E-2,1.6920796E-2,-3.2932833E-2,-4.6814702E-2,5.4524764E-2,-2.3151673E-2,3.3590794E-1,-1.5827174E-1,3.6677297E-2,-3.4784335E-1,-1.1611055E-2,-1.4443676E-1,1.3498895E-1,-8.065526E-2,-2.5885767E-1,-1.884534E-1,-8.23092E-4,-3.094261E-1,4.0017523E-2,-3.2061583E-1,-1.1924588E-1,7.8877054E-2,3.0657965E-1,-5.48226E-2,5.30762E-2,-6.1456715E-3,-6.996616E-2,7.542104E-3,-1.9640762E-1,7.827856E-3,-3.9820444E-2,-4.2624302E-2,2.7120613E-2,7.207138E-2,-1.4540077E-2,4.8628617E-3,-1.4475606E-1,1.5475658E-1,-9.954089E-3,6.838671E-2,1.9274995E-1,4.5942854E-2,-1.4989131E-2,-1.3120235E-2,-5.9708826E-2,2.9737808E-2,-2.7766261E-2,8.689227E-3,-2.9696536E-1,1.5027773E-1,-6.630081E-3],"categories":[],"categories_nodes":[],"categories_segments":[],"categories_sizes":[],"default_left":[0,0,0,0,0,0,0,0,0,0,0,0,0,0,0,0,0,0,0,0,0,0,0,0,0,0,0,0,0,0,0,0,0,0,0,0,0,0,0,0,0,0,0,0,0,0,0,0,0,0,0,0,0,0,0,0,0,0,0,0,0,0,0,0,0,0,0,0,0,0,0,0,0,0,0,0,0,0,0,0,0,0,0,0,0,0,0,0,0,0,0,0,0,0,0,0,0,0,0,0,0,0,0,0,0,0,0,0,0,0,0,0,0,0,0,0,0,0,0,0,0,0,0,0,0],"id":0,"left_children":[1,3,5,7,9,11,13,15,17,19,21,23,25,27,29,31,33,35,37,39,41,43,45,47,49,51,53,55,57,59,61,63,65,67,69,71,73,75,77,79,81,83,85,87,89,91,93,95,97,99,101,103,105,107,109,111,113,-1,115,117,119,121,123,-1,-1,-1,-1,-1,-1,-1,-1,-1,-1,-1,-1,-1,-1,-1,-1,-1,-1,-1,-1,-1,-1,-1,-1,-1,-1,-1,-1,-1,-1,-1,-1,-1,-1,-1,-1,-1,-1,-1,-1,-1,-1,-1,-1,-1,-1,-1,-1,-1,-1,-1,-1,-1,-1,-1,-1,-1,-1,-1,-1,-1,-1],"loss_changes":[1.7104119E5,1.2512897E5,1.466078E5,4.3005695E4,5.909039E4,1.8798103E5,1.70762E5,2.5064016E4,2.3738377E4,2.413641E4,9.298764E4,2.577882E5,2.2779373E5,1.0822224E5,1.6411808E5,1.8637422E4,1.0703179E4,1.3604551E4,1.1482532E4,2.10837E4,5.5895234E3,3.3850062E4,2.7560684E4,1.5636897E5,1.658526E5,1.8437412E5,1.8716422E5,1.1895084E5,7.70028E4,1.1050684E5,7.568417E4,7.201401E3,1.4967172E4,1.2640606E4,7.614127E3,9.451906E3,8.871296E3,7.6339E3,1.3053229E4,2.1577693E4,2.2444434E4,2.0561719E3,1.90472E3,3.884928E4,1.0709003E4,1.6378849E4,6.6191934E3,9.204606E4,6.061962E4,1.5412503E5,1.1351881E5,1.728436E5,1.5157681E5,3.4122758E4,1.29780375E5,3.765481E4,6.412603E4,0E0,5.857504E4,1.4237003E5,9.0005414E4,4.985433E4,8.671678E4,0E0,0E0,0E0,0E0,0E0,0E0,0E0,0E0,0E0,0E0,0E0,0E0,0E0,0E0,0E0,0E0,0E0,0E0,0E0,0E0,0E0,0E0,0E0,0E0,0E0,0E0,0E0,0E0,0E0,0E0,0E0,0E0,0E0,0E0,0E0,0E0,0E0,0E0,0E0,0E0,0E0,0E0,0E0,0E0,0E0,0E0,0E0,0E0,0E0,0E0,0E0,0E0,0E0,0E0,0E0,0E0,0E0,0E0,0E0,0E0,0E0,0E0],"parents":[2147483647,0,0,1,1,2,2,3,3,4,4,5,5,6,6,7,7,8,8,9,9,10,10,11,11,12,12,13,13,14,14,15,15,16,16,17,17,18,18,19,19,20,20,21,21,22,22,23,23,24,24,25,25,26,26,27,27,28,28,29,29,30,30,31,31,32,32,33,33,34,34,35,35,36,36,37,37,38,38,39,39,40,40,41,41,42,42,43,43,44,44,45,45,46,46,47,47,48,48,49,49,50,50,51,51,52,52,53,53,54,54,55,55,56,56,58,58,59,59,60,60,61,61,62,62],"right_children":[2,4,6,8,10,12,14,16,18,20,22,24,26,28,30,32,34,36,38,40,42,44,46,48,50,52,54,56,58,60,62,64,66,68,70,72,74,76,78,80,82,84,86,88,90,92,94,96,98,100,102,104,106,108,110,112,114,-1,116,118,120,122,124,-1,-1,-1,-1,-1,-1,-1,-1,-1,-1,-1,-1,-1,-1,-1,-1,-1,-1,-1,-1,-1,-1,-1,-1,-1,-1,-1,-1,-1,-1,-1,-1,-1,-1,-1,-1,-1,-1,-1,-1,-1,-1,-1,-1,-1,-1,-1,-1,-1,-1,-1,-1,-1,-1,-1,-1,-1,-1,-1,-1,-1,-1],"split_conditions":[-1.0718167E0,-5.548781E-1,1.1206261E0,3.3039907E-1,1.7347099E-1,-1.112206E0,-1.2535815E0,3.5629952E-1,2.902846E-1,1.1952286E0,8.4261495E-1,-1.3733405E0,1.6439899E0,-7.416198E-1,1.5430335E0,-1.6920206E-1,1.0540925E0,-2.7097554E0,2.220446E-8,2.236068E-1,6.855655E-1,-3.1149408E-1,1.1000223E0,-1.4688331E0,6.543281E-1,1.2573609E0,-1.4537215E0,-4.5825756E-1,-7.28011E-1,1E0,4.2426407E-1,-1.0526154E0,4.73889E-1,-8.149158E-2,2.13193E0,-9.2195445E-1,-4.358899E-1,3.7416574E-1,-1.0721126E0,2E-1,7.0710677E-1,1.2627836E0,-5.429934E-1,-9.6953595E-1,-5.971328E-1,-1.9092098E0,7.6750404E-1,1.024695E0,-1.4093767E0,-7.28011E-1,2.4253561E0,1.3972751E0,1.1547005E0,-1.796053E0,-9E-1,-2.0483115E0,1.0736326E-2,-3.2778254E-1,-1.4743134E0,-4.5825756E-1,-6E-1,3.335284E-1,1.6222142E0,1.0496037E-2,-2.7939629E-2,-3.5096314E-2,-6.877016E-2,1.823261E-2,-1.8180484E-2,-6.822805E-2,8.9726344E-2,1.2979655E-1,1.3931398E-2,-4.8410363E-2,-1.1928077E-2,1.6920796E-2,-3.2932833E-2,-4.6814702E-2,5.4524764E-2,-2.3151673E-2,3.3590794E-1,-1.5827174E-1,3.6677297E-2,-3.4784335E-1,-1.1611055E-2,-1.4443676E-1,1.3498895E-1,-8.065526E-2,-2.5885767E-1,-1.884534E-1,-8.23092E-4,-3.094261E-1,4.0017523E-2,-3.2061583E-1,-1.1924588E-1,7.8877054E-2,3.0657965E-1,-5.48226E-2,5.30762E-2,-6.1456715E-3,-6.996616E-2,7.542104E-3,-1.9640762E-1,7.827856E-3,-3.9820444E-2,-4.2624302E-2,2.7120613E-2,7.207138E-2,-1.4540077E-2,4.8628617E-3,-1.4475606E-1,1.5475658E-1,-9.954089E-3,6.838671E-2,1.9274995E-1,4.5942854E-2,-1.4989131E-2,-1.3120235E-2,-5.9708826E-2,2.9737808E-2,-2.7766261E-2,8.689227E-3,-2.9696536E-1,1.5027773E-1,-6.630081E-3],"split_indices":[22,21,81,8,85,83,57,6,14,65,56,34,42,83,79,12,24,20,68,74,31,21,26,88,31,72,81,46,83,67,31,1,7,55,60,38,88,38,63,74,39,38,21,61,27,44,85,58,76,47,91,60,24,57,37,41,40,0,53,35,66,31,41,0,0,0,0,0,0,0,0,0,0,0,0,0,0,0,0,0,0,0,0,0,0,0,0,0,0,0,0,0,0,0,0,0,0,0,0,0,0,0,0,0,0,0,0,0,0,0,0,0,0,0,0,0,0,0,0,0,0,0,0,0,0],"split_type":[0,0,0,0,0,0,0,0,0,0,0,0,0,0,0,0,0,0,0,0,0,0,0,0,0,0,0,0,0,0,0,0,0,0,0,0,0,0,0,0,0,0,0,0,0,0,0,0,0,0,0,0,0,0,0,0,0,0,0,0,0,0,0,0,0,0,0,0,0,0,0,0,0,0,0,0,0,0,0,0,0,0,0,0,0,0,0,0,0,0,0,0,0,0,0,0,0,0,0,0,0,0,0,0,0,0,0,0,0,0,0,0,0,0,0,0,0,0,0,0,0,0,0,0,0],"sum_hessian":[5.20237E5,2.2295E4,4.97942E5,1.9495E4,2.8E3,4.45381E5,5.2561E4,1.2669E4,6.826E3,1.476E3,1.324E3,3.0738E4,4.14643E5,1.0852E4,4.1709E4,7.839E3,4.83E3,3.755E3,3.071E3,1.422E3,5.4E1,9.02E2,4.22E2,3.481E3,2.7257E4,4.09317E5,5.326E3,3.222E3,7.63E3,3.8326E4,3.383E3,2.533E3,5.306E3,4.369E3,4.61E2,4.96E2,3.259E3,1.702E3,1.369E3,1.106E3,3.16E2,3.4E1,2E1,7.56E2,1.46E2,3.35E2,8.7E1,7.11E2,2.77E3,1.7497E4,9.76E3,3.91893E5,1.7424E4,2.142E3,3.184E3,1.558E3,1.664E3,7E1,7.56E3,2.7185E4,1.1141E4,1.846E3,1.537E3,6.58E2,1.875E3,2.812E3,2.494E3,1.404E3,2.965E3,4.29E2,3.2E1,8.4E1,4.12E2,9.34E2,2.325E3,1.301E3,4.01E2,1.41E2,1.228E3,1.09E3,1.6E1,2.38E2,7.8E1,3.2E1,2E0,1.8E1,2E0,1.55E2,6.01E2,4.2E1,1.04E2,1.3E1,3.22E2,2.2E1,6.5E1,3.58E2,3.53E2,6.94E2,2.076E3,5.535E3,1.1962E4,9.48E3,2.8E2,3.84127E5,7.766E3,1.3361E4,4.063E3,6.54E2,1.488E3,7.62E2,2.422E3,1.53E2,1.405E3,8.69E2,7.95E2,2.242E3,5.318E3,1.1056E4,1.6129E4,4.727E3,6.414E3,1.792E3,5.4E1,9.91E2,5.46E2],"tree_param":{"num_deleted":"0","num_feature":"92","num_nodes":"125","size_leaf_vector":"1"}},{"base_weights":[-5.440677E-3,1.919869E-1,-1.6740214E0,-5.4292536E-1,7.7151436E-1,-2.5432868E0,1.7870096E0,5.4229933E-1,-1.4399947E0,8.8526064E-1,-8.031095E0,1.4198625E0,-3.350508E0,-2.9038638E-1,4.256442E0,-2.5714746E-1,2.695962E0,-4.6275067E0,-1.0318847E0,-1.0657515E1,9.518013E-1,-1.0203219E1,7.426449E0,3.8186032E-1,1.731611E1,4.96995E0,-3.6857283E0,-3.5971656E0,3.6664941E0,9.742827E-1,7.9876437E0,5.748976E-1,-3.5489328E0,-7.7952957E0,3.8013754E0,-3.8978572E0,-2.3703402E1,5.462833E-1,-1.8695294E0,-1.7369379E1,-2.599384E0,1.0051751E0,-1.2219323E1,-3.5524036E1,-8.364215E0,-9.487628E0,2.2661766E1,7.2085037E0,-2.6094303E0,4.282881E0,4.4228474E1,1.0480231E1,-9.417382E-1,-1.9102225E0,-4.871075E0,4.719982E0,-6.463675E0,4.577131E-1,8.813533E0,-4.0412664E0,4.004558E0,2.7517745E0,1.2085087E1,3.4774795E-2,-5.5522355E-3,-2.4216485E-1,-3.0456742E-2,-6.0457934E-2,-2.8822967E-1,8.976106E-3,6.558357E-2,1.8021245E-1,-4.4532336E-2,-3.026213E-1,-5.55677E-2,-7.1657263E-3,4.4166125E-2,1.0047807E-2,-2.6198797E-2,-3.0118868E-1,-8.3376825E-2,8.0700025E-2,-5.105068E-2,-1.4453726E-1,1.0566388E-2,6.938838E-2,-1.8192257E-1,-3.2795247E-2,-3.617527E-1,5.1615342E-2,-1.11798696E-1,2.454728E-2,-1.575796E-1,4.1904175E-1,1.7062312E-1,1.277223E-1,1.2603996E-2,1.8889202E-2,-6.576433E-2,-1.2924919E-1,7.188836E-2,5.807532E-1,3.683897E-2,-3.117966E-3,1.7175335E-1,6.296372E-2,-5.991776E-2,-1.6559032E-1,-1.3531823E-2,-6.289028E-2,-1.4154639E-2,3.024079E-1,2.2515727E-2,3.155415E-2,-8.84421E-2,1.3442115E-1,-1.5292772E-2,-2.8680122E-2,1.5851776E-1,-5.4443453E-2,1.21872164E-1,-3.7182484E-2,6.743896E-2,1.5524448E-1,-1.5038429E-2,7.7604055E-2,1.9154204E-1],"categories":[],"categories_nodes":[],"categories_segments":[],"categories_sizes":[],"default_left":[0,0,0,0,0,0,0,0,0,0,0,0,0,0,0,0,0,0,0,0,0,0,0,0,0,0,0,0,0,0,0,0,0,0,0,0,0,0,0,0,0,0,0,0,0,0,0,0,0,0,0,0,0,0,0,0,0,0,0,0,0,0,0,0,0,0,0,0,0,0,0,0,0,0,0,0,0,0,0,0,0,0,0,0,0,0,0,0,0,0,0,0,0,0,0,0,0,0,0,0,0,0,0,0,0,0,0,0,0,0,0,0,0,0,0,0,0,0,0,0,0,0,0,0,0,0,0],"id":1,"left_children":[1,3,5,7,9,11,13,15,17,19,21,23,25,27,29,31,33,35,37,39,41,43,45,47,49,51,53,55,57,59,61,63,65,67,69,71,73,75,77,79,81,83,85,87,89,91,93,95,97,99,101,103,105,107,109,111,113,115,117,119,121,123,125,-1,-1,-1,-1,-1,-1,-1,-1,-1,-1,-1,-1,-1,-1,-1,-1,-1,-1,-1,-1,-1,-1,-1,-1,-1,-1,-1,-1,-1,-1,-1,-1,-1,-1,-1,-1,-1,-1,-1,-1,-1,-1,-1,-1,-1,-1,-1,-1,-1,-1,-1,-1,-1,-1,-1,-1,-1,-1,-1,-1,-1,-1,-1,-1],"loss_changes":[1.7163016E5,1.9841872E5,1.6584511E5,1.9996508E5,2.6081228E5,1.4095238E5,5.676973E4,1.6004322E5,1.4627634E5,1.9752066E5,1.1164789E5,1.2301974E5,1.0211097E5,7.86643E4,6.190993E4,1.8567577E5,2.9186097E5,1.7755184E5,1.3178298E5,7.967606E4,1.7975439E5,1.353931E5,1.0586858E5,1.4296219E5,1.6010514E5,4.6201414E4,7.404272E4,7.811039E4,4.5199395E4,4.0915336E4,5.0726E4,1.7751047E5,1.421925E5,8.807972E4,1.8225012E5,1.4973934E5,5.5770375E4,1.6895034E5,1.40456E5,9.232872E4,1.7979758E4,2.0260728E5,1.18218516E5,4.0177344E3,1.03569625E5,1.464091E4,2.2557781E4,7.0572445E4,8.688177E4,1.5544434E4,8.343619E4,5.303978E4,2.5076342E4,1.1493516E5,1.0337384E5,5.2848047E4,5.5808906E4,4.3545074E4,8.645626E4,2.3154908E4,3.5523836E4,5.6553332E4,4.0419688E4,0E0,0E0,0E0,0E0,0E0,0E0,0E0,0E0,0E0,0E0,0E0,0E0,0E0,0E0,0E0,0E0,0E0,0E0,0E0,0E0,0E0,0E0,0E0,0E0,0E0,0E0,0E0,0E0,0E0,0E0,0E0,0E0,0E0,0E0,0E0,0E0,0E0,0E0,0E0,0E0,0E0,0E0,0E0,0E0,0E0,0E0,0E0,0E0,0E0,0E0,0E0,0E0,0E0,0E0,0E0,0E0,0E0,0E0,0E0,0E0,0E0,0E0,0E0,0E0],"parents":[2147483647,0,0,1,1,2,2,3,3,4,4,5,5,6,6,7,7,8,8,9,9,10,10,11,11,12,12,13,13,14,14,15,15,16,16,17,17,18,18,19,19,20,20,21,21,22,22,23,23,24,24,25,25,26,26,27,27,28,28,29,29,30,30,31,31,32,32,33,33,34,34,35,35,36,36,37,37,38,38,39,39,40,40,41,41,42,42,43,43,44,44,45,45,46,46,47,47,48,48,49,49,50,50,51,51,52,52,53,53,54,54,55,55,56,56,57,57,58,58,59,59,60,60,61,61,62,62],"right_children":[2,4,6,8,10,12,14,16,18,20,22,24,26,28,30,32,34,36,38,40,42,44,46,48,50,52,54,56,58,60,62,64,66,68,70,72,74,76,78,80,82,84,86,88,90,92,94,96,98,100,102,104,106,108,110,112,114,116,118,120,122,124,126,-1,-1,-1,-1,-1,-1,-1,-1,-1,-1,-1,-1,-1,-1,-1,-1,-1,-1,-1,-1,-1,-1,-1,-1,-1,-1,-1,-1,-1,-1,-1,-1,-1,-1,-1,-1,-1,-1,-1,-1,-1,-1,-1,-1,-1,-1,-1,-1,-1,-1,-1,-1,-1,-1,-1,-1,-1,-1,-1,-1,-1,-1,-1,-1],"split_conditions":[1.1206261E0,0E0,1.2700013E0,-2.236068E-1,1.436099E0,-1.1668284E0,4.5825756E-1,-6.244998E-1,2.1205004E-1,-1.5004679E0,1.3999933E0,-1.1809981E0,-1.825333E0,4.7958314E-1,9.846174E-1,-6.78233E-1,-9.1104335E-1,1.4142135E0,-5.837659E-1,-1E-1,1.6222142E0,5.0038185E-2,-1.6517805E0,-1.1867816E0,-8.3066237E-1,-6.4420295E-1,-5.3851646E-1,1.3806585E0,9.949874E-1,-1.1952286E0,-1.3453654E0,-9.503089E-1,-1.796053E0,1.5423445E0,-1.7320508E-1,-1.3736056E0,9.1659564E-1,9.591663E-1,4.690416E-1,4.690416E-1,3.3166248E-1,-1.4907119E0,-6.480741E-1,-9.0507954E-1,-1.2905056E0,8.443666E-1,-1.5074567E0,1.262762E-1,-6.928203E-1,-1.1704115E0,-4.358899E-1,-6.480741E-1,-1.9004315E0,-1.8531404E0,9.380832E-1,1.2911347E0,-1.6465023E0,-1.8569534E0,-1.2803688E0,1.3816322E0,1.5778981E-1,-1.4048929E0,-7.81025E-1,3.4774795E-2,-5.5522355E-3,-2.4216485E-1,-3.0456742E-2,-6.0457934E-2,-2.8822967E-1,8.976106E-3,6.558357E-2,1.8021245E-1,-4.4532336E-2,-3.026213E-1,-5.55677E-2,-7.1657263E-3,4.4166125E-2,1.0047807E-2,-2.6198797E-2,-3.0118868E-1,-8.3376825E-2,8.0700025E-2,-5.105068E-2,-1.4453726E-1,1.0566388E-2,6.938838E-2,-1.8192257E-1,-3.2795247E-2,-3.617527E-1,5.1615342E-2,-1.11798696E-1,2.454728E-2,-1.575796E-1,4.1904175E-1,1.7062312E-1,1.277223E-1,1.2603996E-2,1.8889202E-2,-6.576433E-2,-1.2924919E-1,7.188836E-2,5.807532E-1,3.683897E-2,-3.117966E-3,1.7175335E-1,6.296372E-2,-5.991776E-2,-1.6559032E-1,-1.3531823E-2,-6.289028E-2,-1.4154639E-2,3.024079E-1,2.2515727E-2,3.155415E-2,-8.84421E-2,1.3442115E-1,-1.5292772E-2,-2.8680122E-2,1.5851776E-1,-5.4443453E-2,1.21872164E-1,-3.7182484E-2,6.743896E-2,1.5524448E-1,-1.5038429E-2,7.7604055E-2,1.9154204E-1],"split_indices":[81,81,89,52,42,83,60,52,52,56,64,83,35,79,77,81,34,43,60,34,70,81,41,75,55,60,51,89,52,34,42,60,44,76,41,90,26,33,52,81,79,60,61,21,60,35,28,64,79,58,23,73,38,79,47,81,73,76,55,91,78,83,52,0,0,0,0,0,0,0,0,0,0,0,0,0,0,0,0,0,0,0,0,0,0,0,0,0,0,0,0,0,0,0,0,0,0,0,0,0,0,0,0,0,0,0,0,0,0,0,0,0,0,0,0,0,0,0,0,0,0,0,0,0,0,0,0],"split_type":[0,0,0,0,0,0,0,0,0,0,0,0,0,0,0,0,0,0,0,0,0,0,0,0,0,0,0,0,0,0,0,0,0,0,0,0,0,0,0,0,0,0,0,0,0,0,0,0,0,0,0,0,0,0,0,0,0,0,0,0,0,0,0,0,0,0,0,0,0,0,0,0,0,0,0,0,0,0,0,0,0,0,0,0,0,0,0,0,0,0,0,0,0,0,0,0,0,0,0,0,0,0,0,0,0,0,0,0,0,0,0,0,0,0,0,0,0,0,0,0,0,0,0,0,0,0,0],"sum_hessian":[5.20999E5,4.65877E5,5.5122E4,2.05402E5,2.60475E5,4.4057E4,1.1065E4,9.2953E4,1.12449E5,2.57153E5,3.322E3,7.455E3,3.6602E4,6.01E3,5.055E3,6.779E4,2.5163E4,1.2762E4,9.9687E4,1.473E3,2.5568E5,2.913E3,4.09E2,6.999E3,4.56E2,1.417E3,3.5185E4,3.274E3,2.736E3,2.69E3,2.365E3,5.4113E4,1.3677E4,2.398E3,2.2765E4,1.2293E4,4.69E2,3.4565E4,6.5122E4,8.03E2,6.7E2,2.54649E5,1.031E3,1.96E2,2.717E3,1.94E2,2.15E2,2.132E3,4.867E3,3.08E2,1.48E2,7.33E2,6.84E2,1.4087E4,2.1098E4,8.39E2,2.435E3,1.686E3,1.05E3,1.013E3,1.677E3,1.039E3,1.326E3,1.5164E4,3.8949E4,3.24E2,1.3353E4,2.215E3,1.83E2,1.1088E4,1.1677E4,3.03E2,1.199E4,3.44E2,1.25E2,2.6062E4,8.503E3,1.3481E4,5.1641E4,3.32E2,4.71E2,1.27E2,5.43E2,8.44E2,2.53805E5,2.45E2,7.86E2,4E0,1.92E2,4.68E2,2.249E3,6.7E1,1.27E2,4.7E1,1.68E2,1.101E3,1.031E3,2.281E3,2.586E3,4.4E1,2.64E2,1.1E2,3.8E1,2.81E2,4.52E2,2.81E2,4.03E2,5.15E2,1.3572E4,1.4959E4,6.139E3,7.3E1,7.66E2,4.83E2,1.952E3,2.23E2,1.463E3,3.95E2,6.55E2,9.33E2,8E1,4.39E2,1.238E3,2.59E2,7.8E2,8.24E2,5.02E2],"tree_param":{"num_deleted":"0","num_feature":"92","num_nodes":"127","size_leaf_vector":"1"}},{"base_weights":[4.1292515E-3,2.1549197E-1,-1.7806607E0,-5.2526224E-1,7.994776E-1,1.613672E0,-2.7282846E0,4.9202275E-1,-1.3665658E0,9.0777516E-1,-7.3936615E0,6.233592E0,-3.186311E-1,-3.6319077E0,1.188867E0,-2.9354566E-1,2.5971744E0,-4.4056506E0,-9.7197175E-1,9.6126807E-1,-1.2526459E1,-9.435428E0,9.134388E0,2.5371212E-1,1.1484387E1,2.8765018E0,-3.1464145E0,-1.4197133E0,-5.129132E0,-1.7535782E0,3.6011033E0,-1.2851173E0,2.417861E0,3.8332446E0,-6.6595087E0,-3.6681745E0,-2.3184917E1,2.0484658E-1,-1.865297E0,1.0336975E0,-7.5489297E0,-2.7717896E1,-5.995303E0,-1.3556703E1,-1.6089735E0,-2.2409733E1,1.7360285E1,3.5416296E0,-8.289719E0,1.7028141E1,6.377887E0,1.8600051E0,2.5602991E1,-2.7050444E1,-2.2904088E0,6.656937E0,-2.290435E0,-1.7388342E1,-4.8001647E0,5.2645073E0,-5.316956E0,-5.286069E-1,8.342661E0,-8.662298E-3,-8.119729E-2,6.872907E-2,1.0615822E-3,-1.4423259E-4,5.9986867E-2,1.9138625E-2,-1.02076024E-1,1.7718294E-1,-4.2027555E-2,-3.022161E-1,-5.60335E-2,-3.6586474E-3,5.1964257E-2,9.664208E-3,-2.5657233E-2,1.0805541E-2,-1.13806054E-1,-1.3720351E-1,2.8608242E-2,-3.3974108E-1,-2.9480483E-2,5.646112E-2,-1.4308217E-1,-8.420031E-3,-1.7731996E-1,1.8909644E-2,-1.4331761E-1,-5.700451E-2,-2.5663736E-1,3.3774525E-1,1.0651388E-1,-8.618879E-3,9.755955E-2,-1.437717E-1,1.1376075E-1,2.4005443E-1,1.047299E-2,8.4643565E-2,-8.784698E-2,6.5611556E-2,-1.5731815E-2,4.0134376E-1,1.6969132E-1,-3.1255168E-1,-2.6217503E-2,3.1420343E-2,-4.549071E-2,-5.4042914E-4,1.7519422E-1,-1.5882758E-2,-1.21717095E-1,-2.4427536E-1,-1.4992694E-2,-1.8737894E-2,-6.651394E-2,8.956378E-3,1.1771759E-1,-4.1995007E-3,-9.1728054E-2,-4.270353E-2,8.301379E-2,4.237926E-2,1.6617645E-1],"categories":[],"categories_nodes":[],"categories_segments":[],"categories_sizes":[],"default_left":[0,0,0,0,0,0,0,0,0,0,0,0,0,0,0,0,0,0,0,0,0,0,0,0,0,0,0,0,0,0,0,0,0,0,0,0,0,0,0,0,0,0,0,0,0,0,0,0,0,0,0,0,0,0,0,0,0,0,0,0,0,0,0,0,0,0,0,0,0,0,0,0,0,0,0,0,0,0,0,0,0,0,0,0,0,0,0,0,0,0,0,0,0,0,0,0,0,0,0,0,0,0,0,0,0,0,0,0,0,0,0,0,0,0,0,0,0,0,0,0,0,0,0,0,0,0,0],"id":2,"left_children":[1,3,5,7,9,11,13,15,17,19,21,23,25,27,29,31,33,35,37,39,41,43,45,47,49,51,53,55,57,59,61,63,65,67,69,71,73,75,77,79,81,83,85,87,89,91,93,95,97,99,101,103,105,107,109,111,113,115,117,119,121,123,125,-1,-1,-1,-1,-1,-1,-1,-1,-1,-1,-1,-1,-1,-1,-1,-1,-1,-1,-1,-1,-1,-1,-1,-1,-1,-1,-1,-1,-1,-1,-1,-1,-1,-1,-1,-1,-1,-1,-1,-1,-1,-1,-1,-1,-1,-1,-1,-1,-1,-1,-1,-1,-1,-1,-1,-1,-1,-1,-1,-1,-1,-1,-1,-1],"loss_changes":[1.9698953E5,2.0197531E5,1.7785394E5,1.7615336E5,2.3165777E5,1.07734125E5,1.5300478E5,1.540765E5,1.3509331E5,1.851828E5,1.15026484E5,1.1174645E5,7.6898125E4,1.1632541E5,5.75204E4,1.8242147E5,2.897232E5,1.792072E5,1.0482472E5,1.5820339E5,1.0123389E5,9.777509E4,9.7693484E4,4.6799324E4,5.3537047E4,9.22653E4,9.2323625E4,9.972222E4,8.4388875E4,9.133254E4,8.719983E4,1.4222911E5,1.8711703E5,1.8610988E5,9.075986E4,1.4250408E5,6.032747E4,1.2258086E5,1.1242816E5,1.4804356E5,1.3918964E5,4.747389E4,6.937111E4,1.0541691E5,4.6649055E4,4.094414E3,3.2455992E4,3.292846E4,5.559142E4,1.0121947E5,3.1330996E4,6.1761734E4,2.0772375E4,1.5941406E4,5.3511742E4,1.0060027E5,8.87829E4,6.114303E4,1.1050216E5,3.495741E4,4.572854E4,7.8702625E4,7.034217E4,0E0,0E0,0E0,0E0,0E0,0E0,0E0,0E0,0E0,0E0,0E0,0E0,0E0,0E0,0E0,0E0,0E0,0E0,0E0,0E0,0E0,0E0,0E0,0E0,0E0,0E0,0E0,0E0,0E0,0E0,0E0,0E0,0E0,0E0,0E0,0E0,0E0,0E0,0E0,0E0,0E0,0E0,0E0,0E0,0E0,0E0,0E0,0E0,0E0,0E0,0E0,0E0,0E0,0E0,0E0,0E0,0E0,0E0,0E0,0E0,0E0,0E0,0E0,0E0],"parents":[2147483647,0,0,1,1,2,2,3,3,4,4,5,5,6,6,7,7,8,8,9,9,10,10,11,11,12,12,13,13,14,14,15,15,16,16,17,17,18,18,19,19,20,20,21,21,22,22,23,23,24,24,25,25,26,26,27,27,28,28,29,29,30,30,31,31,32,32,33,33,34,34,35,35,36,36,37,37,38,38,39,39,40,40,41,41,42,42,43,43,44,44,45,45,46,46,47,47,48,48,49,49,50,50,51,51,52,52,53,53,54,54,55,55,56,56,57,57,58,58,59,59,60,60,61,61,62,62],"right_children":[2,4,6,8,10,12,14,16,18,20,22,24,26,28,30,32,34,36,38,40,42,44,46,48,50,52,54,56,58,60,62,64,66,68,70,72,74,76,78,80,82,84,86,88,90,92,94,96,98,100,102,104,106,108,110,112,114,116,118,120,122,124,126,-1,-1,-1,-1,-1,-1,-1,-1,-1,-1,-1,-1,-1,-1,-1,-1,-1,-1,-1,-1,-1,-1,-1,-1,-1,-1,-1,-1,-1,-1,-1,-1,-1,-1,-1,-1,-1,-1,-1,-1,-1,-1,-1,-1,-1,-1,-1,-1,-1,-1,-1,-1,-1,-1,-1,-1,-1,-1,-1,-1,-1,-1,-1,-1],"split_conditions":[1.1206261E0,0E0,-1.230915E0,-2.236068E-1,1.436099E0,-7.416198E-1,1.2598816E0,-6.244998E-1,2.1205004E-1,1.6911929E0,1.1181267E0,-4.5825756E-1,1.039862E-1,-5.1961523E-1,-1.3573822E0,9.575967E-1,6.324555E-1,1.4142135E0,-3.8729835E-1,1.4744196E0,-8.062258E-1,4E-1,-1.1043153E0,1.4799114E0,6.480741E-1,-1.7320508E-1,-2.6457512E-1,-1.2998632E0,-1.8531404E0,-1.4743134E0,4.9361542E-2,-3E-1,-6.928203E-1,-4.8695984E-1,-8.4390587E-1,-1.3736056E0,9.1659564E-1,1.1587952E0,4.690416E-1,1.4907119E0,5.393067E-1,-6.0827625E-1,2.4494897E-1,-9.5277625E-1,1.5046052E0,-1.1916053E0,-1.5074567E0,1.8585418E-1,1.6704943E0,1.3303897E0,1.8712918E0,-1.2700013E0,-1.1714563E0,2.8284273E-1,-1.409263E0,7.416198E-1,1.45624E0,8.3066237E-1,-5.710869E-1,-1.4894644E0,-8.348154E-1,7.416198E-1,3.4641016E-1,-8.662298E-3,-8.119729E-2,6.872907E-2,1.0615822E-3,-1.4423259E-4,5.9986867E-2,1.9138625E-2,-1.02076024E-1,1.7718294E-1,-4.2027555E-2,-3.022161E-1,-5.60335E-2,-3.6586474E-3,5.1964257E-2,9.664208E-3,-2.5657233E-2,1.0805541E-2,-1.13806054E-1,-1.3720351E-1,2.8608242E-2,-3.3974108E-1,-2.9480483E-2,5.646112E-2,-1.4308217E-1,-8.420031E-3,-1.7731996E-1,1.8909644E-2,-1.4331761E-1,-5.700451E-2,-2.5663736E-1,3.3774525E-1,1.0651388E-1,-8.618879E-3,9.755955E-2,-1.437717E-1,1.1376075E-1,2.4005443E-1,1.047299E-2,8.4643565E-2,-8.784698E-2,6.5611556E-2,-1.5731815E-2,4.0134376E-1,1.6969132E-1,-3.1255168E-1,-2.6217503E-2,3.1420343E-2,-4.549071E-2,-5.4042914E-4,1.7519422E-1,-1.5882758E-2,-1.21717095E-1,-2.4427536E-1,-1.4992694E-2,-1.8737894E-2,-6.651394E-2,8.956378E-3,1.1771759E-1,-4.1995007E-3,-9.1728054E-2,-4.270353E-2,8.301379E-2,4.237926E-2,1.6617645E-1],"split_indices":[81,81,57,52,42,83,36,52,52,72,74,46,41,48,56,56,61,43,37,51,58,82,40,45,54,41,83,41,79,53,62,81,83,61,24,90,26,71,52,46,38,36,74,62,82,23,28,86,35,67,39,53,23,23,51,86,54,41,51,91,39,91,52,0,0,0,0,0,0,0,0,0,0,0,0,0,0,0,0,0,0,0,0,0,0,0,0,0,0,0,0,0,0,0,0,0,0,0,0,0,0,0,0,0,0,0,0,0,0,0,0,0,0,0,0,0,0,0,0,0,0,0,0,0,0,0,0],"split_type":[0,0,0,0,0,0,0,0,0,0,0,0,0,0,0,0,0,0,0,0,0,0,0,0,0,0,0,0,0,0,0,0,0,0,0,0,0,0,0,0,0,0,0,0,0,0,0,0,0,0,0,0,0,0,0,0,0,0,0,0,0,0,0,0,0,0,0,0,0,0,0,0,0,0,0,0,0,0,0,0,0,0,0,0,0,0,0,0,0,0,0,0,0,0,0,0,0,0,0,0,0,0,0,0,0,0,0,0,0,0,0,0,0,0,0,0,0,0,0,0,0,0,0,0,0,0,0],"sum_hessian":[5.22187E5,4.66896E5,5.5291E4,2.05822E5,2.61074E5,1.2067E4,4.3224E4,9.3167E4,1.12655E5,2.57669E5,3.405E3,3.558E3,8.509E3,3.5122E4,8.102E3,6.7849E4,2.5318E4,1.2945E4,9.971E4,2.56648E5,1.021E3,3.031E3,3.74E2,1.664E3,1.894E3,3.995E3,4.514E3,1.4177E4,2.0945E4,3.65E3,4.452E3,4.9681E4,1.8168E4,2.2336E4,2.982E3,1.2457E4,4.88E2,4.3028E4,5.6682E4,2.54483E5,2.165E3,3.06E2,7.15E2,1.985E3,1.046E3,7.7E1,2.97E2,1.202E3,4.62E2,9.07E2,9.87E2,3.825E3,1.7E2,1.55E2,4.359E3,1.379E3,1.2798E4,5.46E2,2.0399E4,1.229E3,2.421E3,2.38E3,2.072E3,4.6813E4,2.868E3,6.206E3,1.1962E4,8.044E3,1.4292E4,8.73E2,2.109E3,3.03E2,1.2154E4,3.48E2,1.4E2,3.8614E4,4.414E3,1.124E4,4.5442E4,2.53527E5,9.56E2,1.359E3,8.06E2,2.44E2,6.2E1,2.98E2,4.17E2,4.91E2,1.494E3,8.21E2,2.25E2,1.3E1,6.4E1,8.5E1,2.12E2,7.04E2,4.98E2,3.53E2,1.09E2,6.31E2,2.76E2,8.68E2,1.19E2,1.614E3,2.211E3,6.2E1,1.08E2,1.32E2,2.3E1,1.28E3,3.079E3,8.53E2,5.26E2,1.195E4,8.48E2,3.78E2,1.68E2,7.905E3,1.2494E4,7.36E2,4.93E2,1.067E3,1.354E3,1.672E3,7.08E2,1.386E3,6.86E2],"tree_param":{"num_deleted":"0","num_feature":"92","num_nodes":"127","size_leaf_vector":"1"}},{"base_weights":[8.634412E-3,-6.470315E-1,4.4608825E-1,-1.3582706E0,6.79331E-1,8.243867E-1,-1.2460021E0,-3.6275536E-1,-2.5939212E0,-7.369426E-1,2.4792342E0,-4.8003473E0,9.5690775E-1,-2.388296E0,2.9049544E0,-5.1399004E-1,1.3255753E1,-1.9941025E0,-8.588045E0,4.0429E0,-1.7939517E0,5.90098E0,1.2546031E0,1.7406528E0,-7.9951553E0,2.2968614E0,5.0057864E-1,-1.3833277E-1,-4.3395767E0,5.9761057E0,1.4184122E-1,-1.8366402E0,1.0073093E0,8.517979E0,6.7682713E-1,3.2395792E-1,-3.4804506E0,-1.38787E1,-1.4972532E0,8.283313E0,7.550445E-1,-3.3898697E0,5.9802717E-1,1.0166658E1,1.1427782E0,3.7313492E0,-9.713426E-1,-4.5130944E0,1.0587542E1,-1.1499811E1,3.6824384E-1,3.3060143E0,-1.2397794E0,-1.6946561E0,8.1823826E-1,-2.7106233E0,2.7471147E0,-1.2063922E1,-3.653799E0,9.612248E0,1.7481018E0,-2.6988644E1,9.553474E-1,-4.0878914E-2,-3.6352954E-3,2.0005727E-2,-3.0376911E-2,7.1460595E-3,3.3701506E-1,-7.818702E-3,6.3536935E-2,7.690431E-3,-4.788183E-2,-1.0374908E-1,-2.4816193E-1,1.4424291E-3,-3.5666117E-1,1.1991315E-1,-6.812213E-3,-1.0669538E-2,9.850836E-2,-1.6854046E-2,-7.4376516E-2,-6.728104E-2,1.7076327E-2,1.4136992E-1,4.8552523E-3,1.5569697E-1,-1.350939E-2,1.0670015E-1,2.3155631E-2,3.026708E-2,-2.5610212E-2,2.7357318E-2,-1.0109991E-1,2.0488445E-1,4.85612E-2,-8.0884606E-2,-2.497905E-1,-2.905908E-1,2.5587356E-2,3.82578E-2,-4.260631E-2,-4.9350843E-2,3.2042585E-2,2.4004657E-2,-3.262702E-2,3.695205E-2,4.320682E-3,-5.019135E-2,1.6483862E-2,7.850361E-2,-6.459869E-3,-2.1913497E-1,-7.042493E-2,-1.8258219E-3,-4.9805302E-2,-1.0800713E-1,1.1034755E-1,1.04374215E-1,-1.3973969E-2,-1.3040501E-1,-3.436691E-1,3.7677184E-2,-4.215232E-2],"categories":[],"categories_nodes":[],"categories_segments":[],"categories_sizes":[],"default_left":[0,0,0,0,0,0,0,0,0,0,0,0,0,0,0,0,0,0,0,0,0,0,0,0,0,0,0,0,0,0,0,0,0,0,0,0,0,0,0,0,0,0,0,0,0,0,0,0,0,0,0,0,0,0,0,0,0,0,0,0,0,0,0,0,0,0,0,0,0,0,0,0,0,0,0,0,0,0,0,0,0,0,0,0,0,0,0,0,0,0,0,0,0,0,0,0,0,0,0,0,0,0,0,0,0,0,0,0,0,0,0,0,0,0,0,0,0,0,0,0,0,0,0,0,0],"id":3,"left_children":[1,3,5,7,9,11,13,15,17,19,21,23,25,27,29,31,33,35,37,39,41,43,45,47,49,51,53,55,57,59,61,63,65,67,-1,69,71,73,75,77,79,81,83,85,87,89,91,93,95,97,99,101,103,105,107,109,111,113,115,117,119,121,123,-1,-1,-1,-1,-1,-1,-1,-1,-1,-1,-1,-1,-1,-1,-1,-1,-1,-1,-1,-1,-1,-1,-1,-1,-1,-1,-1,-1,-1,-1,-1,-1,-1,-1,-1,-1,-1,-1,-1,-1,-1,-1,-1,-1,-1,-1,-1,-1,-1,-1,-1,-1,-1,-1,-1,-1,-1,-1,-1,-1,-1,-1],"loss_changes":[1.4951023E5,1.9678888E5,2.0013878E5,1.6703427E5,1.8561861E5,1.9047622E5,2.7089047E5,1.548941E5,2.178166E5,2.0589502E5,1.343569E5,1.2293155E5,1.5264978E5,1.9668961E5,1.04622234E5,1.4966133E5,2.1241725E5,1.8976594E5,2.0672384E5,1.0288459E5,1.273964E5,1.7151788E5,1.3019557E5,1.0688275E5,1.15840734E5,2.2635434E5,1.2986653E5,1.5445619E5,1.2705109E5,8.974967E4,1.4328719E5,1.3194578E5,1.3898812E5,1.495246E5,0E0,1.4349053E5,1.8649775E5,1.20688625E5,1.3214895E5,1.07142484E5,6.891912E4,1.380907E5,1.0858391E5,1.7126969E5,1.4378388E5,1.0978409E5,7.90589E4,4.5954023E4,4.529725E4,1.2785866E5,7.536373E4,1.9407262E5,2.3123864E5,1.51179E5,1.807456E5,1.10719516E5,1.6983884E5,9.658709E4,1.0149219E5,9.126809E4,7.383906E4,1.9001953E4,9.167151E4,0E0,0E0,0E0,0E0,0E0,0E0,0E0,0E0,0E0,0E0,0E0,0E0,0E0,0E0,0E0,0E0,0E0,0E0,0E0,0E0,0E0,0E0,0E0,0E0,0E0,0E0,0E0,0E0,0E0,0E0,0E0,0E0,0E0,0E0,0E0,0E0,0E0,0E0,0E0,0E0,0E0,0E0,0E0,0E0,0E0,0E0,0E0,0E0,0E0,0E0,0E0,0E0,0E0,0E0,0E0,0E0,0E0,0E0,0E0,0E0,0E0,0E0],"parents":[2147483647,0,0,1,1,2,2,3,3,4,4,5,5,6,6,7,7,8,8,9,9,10,10,11,11,12,12,13,13,14,14,15,15,16,16,17,17,18,18,19,19,20,20,21,21,22,22,23,23,24,24,25,25,26,26,27,27,28,28,29,29,30,30,31,31,32,32,33,33,35,35,36,36,37,37,38,38,39,39,40,40,41,41,42,42,43,43,44,44,45,45,46,46,47,47,48,48,49,49,50,50,51,51,52,52,53,53,54,54,55,55,56,56,57,57,58,58,59,59,60,60,61,61,62,62],"right_children":[2,4,6,8,10,12,14,16,18,20,22,24,26,28,30,32,34,36,38,40,42,44,46,48,50,52,54,56,58,60,62,64,66,68,-1,70,72,74,76,78,80,82,84,86,88,90,92,94,96,98,100,102,104,106,108,110,112,114,116,118,120,122,124,-1,-1,-1,-1,-1,-1,-1,-1,-1,-1,-1,-1,-1,-1,-1,-1,-1,-1,-1,-1,-1,-1,-1,-1,-1,-1,-1,-1,-1,-1,-1,-1,-1,-1,-1,-1,-1,-1,-1,-1,-1,-1,-1,-1,-1,-1,-1,-1,-1,-1,-1,-1,-1,-1,-1,-1,-1,-1,-1,-1,-1,-1],"split_conditions":[0E0,5.6568545E-1,7.549834E-1,4.440892E-8,5.91608E-1,-1.371287E0,1.063003E0,1.110223E-8,-2.2485818E-1,-1.0015116E0,7.95235E-1,-8.2677513E-1,-8.881784E-8,-2.3042715E-1,4.94174E-1,2E-1,-1.4142136E-1,-3.8729835E-1,1.0746122E-1,-2E-1,6.4031243E-1,4.9476725E-1,-4.5825756E-1,-4.5825756E-1,9.486833E-1,1.1250879E0,-4.8989794E-1,3.3166248E-1,1.7320508E-1,3.9350834E-2,6.164414E-1,-4.472136E-1,8.391315E-1,3.1622776E-1,6.7682713E-1,-5.3851646E-1,-8.660254E-1,2.948288E-1,1.6012815E0,1.0783278E0,1.3455131E0,-5.5677646E-1,-1.1251143E0,6.928203E-1,-6.8893737E-1,-1.1714563E0,-9.486833E-1,-6.244998E-1,-1.4433757E0,4E-1,-5.3005135E-1,1.0482849E0,1.0161744E0,-8.5509044E-1,-2.6457512E-1,7.416198E-1,-7.874008E-1,8.8615316E-1,-9.2195445E-1,-1.9092098E0,-8E-1,-1.3867505E0,1.1250879E0,-4.0878914E-2,-3.6352954E-3,2.0005727E-2,-3.0376911E-2,7.1460595E-3,3.3701506E-1,-7.818702E-3,6.3536935E-2,7.690431E-3,-4.788183E-2,-1.0374908E-1,-2.4816193E-1,1.4424291E-3,-3.5666117E-1,1.1991315E-1,-6.812213E-3,-1.0669538E-2,9.850836E-2,-1.6854046E-2,-7.4376516E-2,-6.728104E-2,1.7076327E-2,1.4136992E-1,4.8552523E-3,1.5569697E-1,-1.350939E-2,1.0670015E-1,2.3155631E-2,3.026708E-2,-2.5610212E-2,2.7357318E-2,-1.0109991E-1,2.0488445E-1,4.85612E-2,-8.0884606E-2,-2.497905E-1,-2.905908E-1,2.5587356E-2,3.82578E-2,-4.260631E-2,-4.9350843E-2,3.2042585E-2,2.4004657E-2,-3.262702E-2,3.695205E-2,4.320682E-3,-5.019135E-2,1.6483862E-2,7.850361E-2,-6.459869E-3,-2.1913497E-1,-7.042493E-2,-1.8258219E-3,-4.9805302E-2,-1.0800713E-1,1.1034755E-1,1.04374215E-1,-1.3973969E-2,-1.3040501E-1,-3.436691E-1,3.7677184E-2,-4.215232E-2],"split_indices":[45,30,41,83,63,83,55,83,45,48,63,71,71,35,83,41,45,46,60,64,49,40,76,31,79,45,68,88,35,48,83,48,70,40,0,46,39,44,83,73,66,49,34,37,84,23,39,70,64,79,71,47,83,24,58,48,80,41,48,44,36,24,91,0,0,0,0,0,0,0,0,0,0,0,0,0,0,0,0,0,0,0,0,0,0,0,0,0,0,0,0,0,0,0,0,0,0,0,0,0,0,0,0,0,0,0,0,0,0,0,0,0,0,0,0,0,0,0,0,0,0,0,0,0,0],"split_type":[0,0,0,0,0,0,0,0,0,0,0,0,0,0,0,0,0,0,0,0,0,0,0,0,0,0,0,0,0,0,0,0,0,0,0,0,0,0,0,0,0,0,0,0,0,0,0,0,0,0,0,0,0,0,0,0,0,0,0,0,0,0,0,0,0,0,0,0,0,0,0,0,0,0,0,0,0,0,0,0,0,0,0,0,0,0,0,0,0,0,0,0,0,0,0,0,0,0,0,0,0,0,0,0,0,0,0,0,0,0,0,0,0,0,0,0,0,0,0,0,0,0,0,0,0],"sum_hessian":[5.2126E5,2.08602E5,3.12658E5,1.35788E5,7.2814E4,2.5553E5,5.7128E4,7.5202E4,6.0586E4,4.075E4,3.2064E4,5.881E3,2.49649E5,4.48E4,1.2328E4,7.4377E4,8.25E2,5.5076E4,5.51E3,7.379E3,3.3371E4,8.45E3,2.3614E4,1.93E3,3.951E3,6.342E4,1.86229E5,2.0808E4,2.3992E4,5.838E3,6.49E3,3.9786E4,3.4591E4,7.6E2,6.5E1,2.1518E4,3.3558E4,3.155E3,2.355E3,3.222E3,4.157E3,2.0016E4,1.3355E4,4.455E3,3.995E3,1.1177E4,1.2437E4,1.131E3,7.99E2,2.784E3,1.167E3,4.9341E4,1.4079E4,2.3541E4,1.62688E5,1.1001E4,9.807E3,1.955E3,2.2037E4,3.138E3,2.7E3,1.88E2,6.302E3,1.5736E4,2.405E4,2.7772E4,6.819E3,5.81E2,1.79E2,1.8184E4,3.334E3,7.897E3,2.5661E4,2.391E3,7.64E2,2.248E3,1.07E2,2.279E3,9.43E2,3.464E3,6.93E2,1.4086E4,5.93E3,1.756E3,1.1599E4,3.159E3,1.296E3,5.88E2,3.407E3,1.893E3,9.284E3,3.538E3,8.899E3,4.93E2,6.38E2,2.92E2,5.07E2,2.223E3,5.61E2,8E1,1.087E3,4.617E4,3.171E3,7.687E3,6.392E3,6.518E3,1.7023E4,1.9252E4,1.43436E5,7.192E3,3.809E3,3.916E3,5.891E3,6.59E2,1.296E3,6.094E3,1.5943E4,2.04E2,2.934E3,7.17E2,1.983E3,6.6E1,1.22E2,4.082E3,2.22E3],"tree_param":{"num_deleted":"0","num_feature":"92","num_nodes":"125","size_leaf_vector":"1"}},{"base_weights":[2.297718E-2,2.1886441E-1,-1.6375002E0,-4.968324E-1,7.8350496E-1,8.268487E-1,-2.9226773E0,-2.6000834E-1,-3.7198741E0,8.905487E-1,-7.371148E0,4.1596174E0,-5.408029E-1,-4.6336544E-1,-4.6900215E0,2.8148215E0,-4.426064E-1,-3.4795883E1,-3.346139E0,-1.2834311E1,9.4044E-1,-9.666018E0,8.575269E0,9.283371E0,7.6271963E-1,3.4365711E0,-1.7056309E0,1.631049E0,-4.163031E0,2.2888563E0,-5.6702495E0,1.9780315E0,1.508036E1,-3.6869876E0,-1.871673E-1,-3.8202262E-1,-2.755177E-1,-1.3061584E0,-8.166336E0,-2.717427E1,2.3570042E0,9.727629E-1,-1.8785551E1,4.323938E0,-1.27458315E1,2.1112244E1,-1.150554E1,1.7135014E1,2.9424648E0,-5.217836E-1,2.249745E1,8.368895E0,-6.489615E-1,-3.86992E0,9.963321E-1,3.4950795E0,-3.8475337E0,4.9111614E0,-6.386151E0,1.2613641E1,-1.761589E-1,-3.4831016E0,-8.459795E0,1.6797628E-3,5.886761E-2,-1.42268E-1,2.677247E-1,-4.5246243E-2,8.581846E-2,2.9793067E-4,-4.5039907E-2,3.9990276E-2,-4.2692695E-2,-1.368844E-1,-1.6340405E-2,-1.15683556E-1,-3.1471434E-1,-6.5943025E-2,7.606908E-2,1.0238942E-2,-1.13922104E-1,7.382672E-2,-2.517483E-1,1.5285723E-2,3.015148E-1,-3.4985104E-1,-1.1005801E-1,4.125072E-1,1.5562113E-1,-1.5807079E-1,-4.609176E-3,2.3523042E-1,-3.452085E-2,9.0291224E-2,-3.363944E-2,7.9373285E-2,-2.9915899E-2,1.6658029E-2,3.231658E-1,1.1680458E-1,3.8052958E-2,4.265971E-2,-5.8500595E-2,-8.759285E-2,-1.5443049E-2,3.5048068E-2,-3.988659E-2,7.457297E-2,-6.551971E-3,9.278713E-3,-7.302885E-2,1.10418625E-1,-1.0184939E-1,-1.9186044E-1,-4.9792316E-2,3.6017485E-2,2.2803982E-1,1.7919728E-1,-1.5437318E-2,3.0063791E-2,-5.0192185E-2,-3.3767488E-2,-1.23614945E-1],"categories":[],"categories_nodes":[],"categories_segments":[],"categories_sizes":[],"default_left":[0,0,0,0,0,0,0,0,0,0,0,0,0,0,0,0,0,0,0,0,0,0,0,0,0,0,0,0,0,0,0,0,0,0,0,0,0,0,0,0,0,0,0,0,0,0,0,0,0,0,0,0,0,0,0,0,0,0,0,0,0,0,0,0,0,0,0,0,0,0,0,0,0,0,0,0,0,0,0,0,0,0,0,0,0,0,0,0,0,0,0,0,0,0,0,0,0,0,0,0,0,0,0,0,0,0,0,0,0,0,0,0,0,0,0,0,0,0,0,0,0,0,0],"id":4,"left_children":[1,3,5,7,9,11,13,15,17,19,21,23,25,27,29,31,33,35,37,39,41,43,45,47,49,51,53,55,57,59,61,63,65,67,69,-1,-1,71,73,75,77,79,81,83,85,87,89,91,93,95,97,99,101,103,105,107,109,111,113,115,117,119,121,-1,-1,-1,-1,-1,-1,-1,-1,-1,-1,-1,-1,-1,-1,-1,-1,-1,-1,-1,-1,-1,-1,-1,-1,-1,-1,-1,-1,-1,-1,-1,-1,-1,-1,-1,-1,-1,-1,-1,-1,-1,-1,-1,-1,-1,-1,-1,-1,-1,-1,-1,-1,-1,-1,-1,-1,-1,-1,-1,-1],"loss_changes":[1.6939611E5,1.8825044E5,1.740518E5,1.5680933E5,2.2730998E5,8.586258E4,1.5698722E5,1.0745194E5,1.6320203E5,1.760108E5,1.23554266E5,9.538888E4,6.1888242E4,1.17042164E5,1.4378112E5,1.1007875E5,1.4971231E5,3.0677344E3,1.3663011E5,2.02876E5,1.6330531E5,1.2716022E5,1.0723786E5,1.0873295E5,9.2058695E4,6.0982945E4,6.0423645E4,9.851055E4,1.1017606E5,6.589434E4,1.1240244E5,7.106042E4,2.351048E5,1.3553872E5,1.5684634E5,0E0,0E0,1.5352147E5,1.4902706E5,3.1757781E4,2.133823E4,1.6166064E5,7.02412E4,3.843482E4,9.318391E4,2.8641531E4,7.784008E3,1.2843616E5,4.6476215E4,6.508253E4,3.758279E4,2.0674844E4,4.235738E4,6.5220555E4,5.7485684E4,1.18354586E5,4.041706E4,9.9603375E4,7.8889125E4,4.57429E4,5.1774406E4,1.0300071E5,1.6056181E5,0E0,0E0,0E0,0E0,0E0,0E0,0E0,0E0,0E0,0E0,0E0,0E0,0E0,0E0,0E0,0E0,0E0,0E0,0E0,0E0,0E0,0E0,0E0,0E0,0E0,0E0,0E0,0E0,0E0,0E0,0E0,0E0,0E0,0E0,0E0,0E0,0E0,0E0,0E0,0E0,0E0,0E0,0E0,0E0,0E0,0E0,0E0,0E0,0E0,0E0,0E0,0E0,0E0,0E0,0E0,0E0,0E0,0E0,0E0,0E0],"parents":[2147483647,0,0,1,1,2,2,3,3,4,4,5,5,6,6,7,7,8,8,9,9,10,10,11,11,12,12,13,13,14,14,15,15,16,16,17,17,18,18,19,19,20,20,21,21,22,22,23,23,24,24,25,25,26,26,27,27,28,28,29,29,30,30,31,31,32,32,33,33,34,34,37,37,38,38,39,39,40,40,41,41,42,42,43,43,44,44,45,45,46,46,47,47,48,48,49,49,50,50,51,51,52,52,53,53,54,54,55,55,56,56,57,57,58,58,59,59,60,60,61,61,62,62],"right_children":[2,4,6,8,10,12,14,16,18,20,22,24,26,28,30,32,34,36,38,40,42,44,46,48,50,52,54,56,58,60,62,64,66,68,70,-1,-1,72,74,76,78,80,82,84,86,88,90,92,94,96,98,100,102,104,106,108,110,112,114,116,118,120,122,-1,-1,-1,-1,-1,-1,-1,-1,-1,-1,-1,-1,-1,-1,-1,-1,-1,-1,-1,-1,-1,-1,-1,-1,-1,-1,-1,-1,-1,-1,-1,-1,-1,-1,-1,-1,-1,-1,-1,-1,-1,-1,-1,-1,-1,-1,-1,-1,-1,-1,-1,-1,-1,-1,-1,-1,-1,-1,-1,-1],"split_conditions":[1.1206261E0,0E0,-1.0599979E0,-2.3442681E-1,1.436099E0,-1.1714563E0,-4.2546067E-1,-1.2909944E0,-2.0797286E0,-1.4907119E0,1.3999933E0,-5.3851646E-1,-1.3130643E0,-4.358899E-1,-1.3736056E0,-1.3130643E0,-1.2602268E0,-1.5074567E0,2E-1,-5.6672376E-1,1.8898224E0,-9.727739E-1,5.2915025E-1,-1.1875595E0,-1.1916053E0,8.1240386E-1,8.062258E-1,1.2331421E0,-1.3202727E0,-1.5617377E0,-1.1952286E0,1.3524894E0,-1.3018891E0,1.8257419E0,1.3483998E0,-3.8202262E-1,-2.755177E-1,-1E-1,-1.783914E-2,-5.2915025E-1,-6E-1,1.6222142E0,-5.1961523E-1,1.1219538E0,5.0038185E-2,-1.5074567E0,-6.6332495E-1,1.7149858E0,3.0027634E-1,-1.4002801E0,-1.3558887E0,1.3171864E0,-1.3798069E0,-7.28011E-1,1.1867816E0,4.358899E-1,3.2360107E-1,9.3391985E-1,-1.3414594E0,-1.7149858E0,-2E0,-1.1932144E0,-5.710869E-1,1.6797628E-3,5.886761E-2,-1.42268E-1,2.677247E-1,-4.5246243E-2,8.581846E-2,2.9793067E-4,-4.5039907E-2,3.9990276E-2,-4.2692695E-2,-1.368844E-1,-1.6340405E-2,-1.15683556E-1,-3.1471434E-1,-6.5943025E-2,7.606908E-2,1.0238942E-2,-1.13922104E-1,7.382672E-2,-2.517483E-1,1.5285723E-2,3.015148E-1,-3.4985104E-1,-1.1005801E-1,4.125072E-1,1.5562113E-1,-1.5807079E-1,-4.609176E-3,2.3523042E-1,-3.452085E-2,9.0291224E-2,-3.363944E-2,7.9373285E-2,-2.9915899E-2,1.6658029E-2,3.231658E-1,1.1680458E-1,3.8052958E-2,4.265971E-2,-5.8500595E-2,-8.759285E-2,-1.5443049E-2,3.5048068E-2,-3.988659E-2,7.457297E-2,-6.551971E-3,9.278713E-3,-7.302885E-2,1.10418625E-1,-1.0184939E-1,-1.9186044E-1,-4.9792316E-2,3.6017485E-2,2.2803982E-1,1.7919728E-1,-1.5437318E-2,3.0063791E-2,-5.0192185E-2,-3.3767488E-2,-1.23614945E-1],"split_indices":[81,81,59,81,42,23,35,87,26,60,64,48,68,60,90,87,55,28,30,36,72,60,88,74,23,35,75,28,28,25,80,79,67,58,69,0,0,80,33,89,34,70,70,34,81,28,24,41,69,41,24,64,26,87,58,77,68,53,41,80,75,63,51,0,0,0,0,0,0,0,0,0,0,0,0,0,0,0,0,0,0,0,0,0,0,0,0,0,0,0,0,0,0,0,0,0,0,0,0,0,0,0,0,0,0,0,0,0,0,0,0,0,0,0,0,0,0,0,0,0,0,0,0],"split_type":[0,0,0,0,0,0,0,0,0,0,0,0,0,0,0,0,0,0,0,0,0,0,0,0,0,0,0,0,0,0,0,0,0,0,0,0,0,0,0,0,0,0,0,0,0,0,0,0,0,0,0,0,0,0,0,0,0,0,0,0,0,0,0,0,0,0,0,0,0,0,0,0,0,0,0,0,0,0,0,0,0,0,0,0,0,0,0,0,0,0,0,0,0,0,0,0,0,0,0,0,0,0,0,0,0,0,0,0,0,0,0,0,0,0,0,0,0,0,0,0,0,0,0],"sum_hessian":[5.2079E5,4.65836E5,5.4954E4,2.05438E5,2.60398E5,1.8836E4,3.6118E4,1.91377E5,1.4061E4,2.57025E5,3.373E3,5.48E3,1.3356E4,1.5103E4,2.1015E4,1.0727E4,1.8065E5,1.66E2,1.3895E4,9.3E2,2.56095E5,2.949E3,4.24E2,2.184E3,3.296E3,3.025E3,1.0331E4,9.644E3,5.459E3,2.588E3,1.8427E4,1.0043E4,6.84E2,1.3184E4,1.67466E5,1.1E2,5.6E1,9.764E3,4.131E3,4.78E2,4.52E2,2.55677E5,4.18E2,5.32E2,2.417E3,2.61E2,1.63E2,9.75E2,1.209E3,3.113E3,1.83E2,1.37E3,1.655E3,5.736E3,4.595E3,7.196E3,2.448E3,1.074E3,4.385E3,4.98E2,2.09E3,1.033E4,8.097E3,6.865E3,3.178E3,1.95E2,4.89E2,1.2342E4,8.42E2,1.59453E5,8.013E3,3.499E3,6.265E3,2.238E3,1.893E3,1.04E2,3.74E2,1.67E2,2.85E2,2.54625E5,1.052E3,8.2E1,3.36E2,4.81E2,5.1E1,1.74E2,2.243E3,5.5E1,2.06E2,1.17E2,4.6E1,7.44E2,2.31E2,6.15E2,5.94E2,7.03E2,2.41E3,5.9E1,1.24E2,7.93E2,5.77E2,8.51E2,8.04E2,1.848E3,3.888E3,3.057E3,1.538E3,3.681E3,3.515E3,1.028E3,1.42E3,7.64E2,3.1E2,4.33E2,3.952E3,2.65E2,2.33E2,1.46E2,1.944E3,1.977E3,8.353E3,3.517E3,4.58E3],"tree_param":{"num_deleted":"0","num_feature":"92","num_nodes":"123","size_leaf_vector":"1"}},{"base_weights":[-3.561709E-3,-2.8146753E0,1.2264828E-1,-1.9849075E0,-8.783351E0,3.0762255E-1,-1.444913E0,-4.3124046E0,-9.709137E-1,-1.332113E1,-3.7115211E0,-4.4317558E-1,9.0553236E-1,1.3511665E0,-2.6511602E0,-8.991886E0,-3.6760633E0,-2.0926063E0,1.2073485E0,-1.83635E1,-1.8455174E0,-1.4582007E1,-1.9938444E0,-1.8845789E-1,-3.8763363E0,1.0115556E0,-7.0850806E0,4.9421716E0,-3.0466425E-1,-3.5765345E0,1.2154992E0,-9.407839E-1,-1.0685241E1,-6.3936877E0,-2.7946126E0,-2.9922023E0,-1.2821811E-1,-8.116746E-1,3.1425915E0,-2.0769806E1,-3.1647966E0,5.4302244E0,-7.796287E0,-1.934742E1,-1.470963E0,-2.3542757E1,-1.0454307E0,2.0124955E0,-5.1234514E-1,-2.0182896E0,-9.421141E0,-1.2436163E1,1.0649089E0,-9.236648E0,1.0321506E1,9.697587E0,1.5727384E0,-2.2022567E0,1.7269235E0,1.1470393E-1,-5.1666923E0,2.3826644E-1,1.18566065E1,5.0120395E-2,-7.684994E-2,-1.3498752E-1,-6.53764E-2,5.8584675E-2,-6.8123996E-2,-1.5208617E-2,-5.013369E-2,-1.984438E-2,-4.7071245E-2,-9.027107E-3,3.3274375E-2,-1.3914981E-2,4.591395E-2,-4.0396447E-3,4.2647503E-2,-2.3557039E-1,-6.901306E-2,-1.4224236E-1,4.3350037E-2,1.2783441E-1,5.858186E-4,-2.0000805E-1,3.1000162E-3,-3.062545E-1,-1.2727843E-1,4.9239404E-2,-4.8226006E-2,6.2098593E-2,-2.7232826E-1,2.0677575E-1,-2.0193066E-2,-3.7811622E-3,3.9105512E-2,-4.3694167E-3,-1.3316245E-1,-3.5511687E-2,7.851569E-2,-1.4938946E-1,-4.6457194E-2,-2.611676E-1,1.995367E-2,1.1192119E-2,-1.1669597E-1,-3.474036E-1,-7.6316595E-2,-8.764604E-2,2.2053422E-1,7.606516E-2,2.7029634E-1,-1.0581523E-2,1.337926E-1,-6.1755106E-2,4.923722E-3,4.563291E-2,-2.9029703E-2,-1.1457461E-2,9.134596E-2,-5.0541672E-5,-5.999969E-2,-4.5614388E-2,2.0054149E-2,1.8785961E-1,2.6162311E-2],"categories":[],"categories_nodes":[],"categories_segments":[],"categories_sizes":[],"default_left":[0,0,0,0,0,0,0,0,0,0,0,0,0,0,0,0,0,0,0,0,0,0,0,0,0,0,0,0,0,0,0,0,0,0,0,0,0,0,0,0,0,0,0,0,0,0,0,0,0,0,0,0,0,0,0,0,0,0,0,0,0,0,0,0,0,0,0,0,0,0,0,0,0,0,0,0,0,0,0,0,0,0,0,0,0,0,0,0,0,0,0,0,0,0,0,0,0,0,0,0,0,0,0,0,0,0,0,0,0,0,0,0,0,0,0,0,0,0,0,0,0,0,0,0,0,0,0],"id":5,"left_children":[1,3,5,7,9,11,13,15,17,19,21,23,25,27,29,31,33,35,37,39,41,43,45,47,49,51,53,55,57,59,61,63,65,67,69,71,73,75,77,79,81,83,85,87,89,91,93,95,97,99,101,103,105,107,109,111,113,115,117,119,121,123,125,-1,-1,-1,-1,-1,-1,-1,-1,-1,-1,-1,-1,-1,-1,-1,-1,-1,-1,-1,-1,-1,-1,-1,-1,-1,-1,-1,-1,-1,-1,-1,-1,-1,-1,-1,-1,-1,-1,-1,-1,-1,-1,-1,-1,-1,-1,-1,-1,-1,-1,-1,-1,-1,-1,-1,-1,-1,-1,-1,-1,-1,-1,-1,-1],"loss_changes":[1.8477852E5,1.1081206E5,1.4452502E5,4.6366375E4,6.280392E4,2.0013552E5,1.774379E5,1.7720148E4,3.3444543E4,8.334836E4,2.4076287E4,1.7283631E5,2.102646E5,9.428285E4,1.3151056E5,9.710422E3,1.2558164E4,1.5965832E4,1.8183238E4,3.6543344E4,1.9136012E4,1.096773E4,2.2783152E4,1.3116314E5,1.4062039E5,1.757477E5,1.2181247E5,8.016399E4,4.184348E4,1.74071E5,7.3808E4,5.0569307E3,6.7847812E3,6.6321367E3,1.1200793E4,1.070048E4,7.6012217E3,7.1429346E3,9.457771E3,3.323478E4,1.1507979E4,7.859395E3,2.4047197E4,9.240363E3,1.0525483E3,5.329416E3,2.2677967E4,1.0710047E5,1.5484584E5,1.547401E5,9.020497E4,1.9116644E5,1.687209E5,1.1815408E5,8.035558E4,7.49973E4,9.102497E4,6.008767E4,6.885163E4,1.0153681E5,8.914831E4,5.515773E4,3.8176453E4,0E0,0E0,0E0,0E0,0E0,0E0,0E0,0E0,0E0,0E0,0E0,0E0,0E0,0E0,0E0,0E0,0E0,0E0,0E0,0E0,0E0,0E0,0E0,0E0,0E0,0E0,0E0,0E0,0E0,0E0,0E0,0E0,0E0,0E0,0E0,0E0,0E0,0E0,0E0,0E0,0E0,0E0,0E0,0E0,0E0,0E0,0E0,0E0,0E0,0E0,0E0,0E0,0E0,0E0,0E0,0E0,0E0,0E0,0E0,0E0,0E0,0E0,0E0,0E0],"parents":[2147483647,0,0,1,1,2,2,3,3,4,4,5,5,6,6,7,7,8,8,9,9,10,10,11,11,12,12,13,13,14,14,15,15,16,16,17,17,18,18,19,19,20,20,21,21,22,22,23,23,24,24,25,25,26,26,27,27,28,28,29,29,30,30,31,31,32,32,33,33,34,34,35,35,36,36,37,37,38,38,39,39,40,40,41,41,42,42,43,43,44,44,45,45,46,46,47,47,48,48,49,49,50,50,51,51,52,52,53,53,54,54,55,55,56,56,57,57,58,58,59,59,60,60,61,61,62,62],"right_children":[2,4,6,8,10,12,14,16,18,20,22,24,26,28,30,32,34,36,38,40,42,44,46,48,50,52,54,56,58,60,62,64,66,68,70,72,74,76,78,80,82,84,86,88,90,92,94,96,98,100,102,104,106,108,110,112,114,116,118,120,122,124,126,-1,-1,-1,-1,-1,-1,-1,-1,-1,-1,-1,-1,-1,-1,-1,-1,-1,-1,-1,-1,-1,-1,-1,-1,-1,-1,-1,-1,-1,-1,-1,-1,-1,-1,-1,-1,-1,-1,-1,-1,-1,-1,-1,-1,-1,-1,-1,-1,-1,-1,-1,-1,-1,-1,-1,-1,-1,-1,-1,-1,-1,-1,-1,-1],"split_conditions":[-1.0718167E0,-5.548781E-1,1.1206261E0,-2.1094178E-1,0E0,0E0,-1.1470786E0,-9.9954766E-1,3.967521E-1,8.4261495E-1,-7.1414286E-1,-2.3442681E-1,1.436099E0,-1.1714563E0,1.2598816E0,-1.230915E0,-4.5825756E-1,5.3575945E-1,6.354938E-1,9.2195445E-1,-5.91608E-1,1.0540925E0,-1.1624764E0,-1.0660036E0,2.8284273E-1,-1.4907119E0,1.3999933E0,-5.3851646E-1,8.062258E-1,-6.480741E-1,1.8605666E0,1.3190746E0,8.2462114E-1,-1.6394212E0,4.440892E-8,6.0986674E-1,7.937254E-1,1.3051169E0,-7.0710677E-1,-3.2122615E-1,-5.9174795E-2,-1E-1,7.615773E-1,-8.944272E-1,-9.6953595E-1,-1.3867505E0,-1.0481981E0,-8.878015E-1,2.182179E0,9.720929E-1,-2E-1,-5.6672376E-1,1.6222142E0,5.0038185E-2,-1.6517805E0,-9.7128534E-1,-1.2959924E0,-3.6055514E-1,1.1867816E0,1.2046537E0,-1.294068E0,-1.3573822E0,5.2582496E-1,5.0120395E-2,-7.684994E-2,-1.3498752E-1,-6.53764E-2,5.8584675E-2,-6.8123996E-2,-1.5208617E-2,-5.013369E-2,-1.984438E-2,-4.7071245E-2,-9.027107E-3,3.3274375E-2,-1.3914981E-2,4.591395E-2,-4.0396447E-3,4.2647503E-2,-2.3557039E-1,-6.901306E-2,-1.4224236E-1,4.3350037E-2,1.2783441E-1,5.858186E-4,-2.0000805E-1,3.1000162E-3,-3.062545E-1,-1.2727843E-1,4.9239404E-2,-4.8226006E-2,6.2098593E-2,-2.7232826E-1,2.0677575E-1,-2.0193066E-2,-3.7811622E-3,3.9105512E-2,-4.3694167E-3,-1.3316245E-1,-3.5511687E-2,7.851569E-2,-1.4938946E-1,-4.6457194E-2,-2.611676E-1,1.995367E-2,1.1192119E-2,-1.1669597E-1,-3.474036E-1,-7.6316595E-2,-8.764604E-2,2.2053422E-1,7.606516E-2,2.7029634E-1,-1.0581523E-2,1.337926E-1,-6.1755106E-2,4.923722E-3,4.563291E-2,-2.9029703E-2,-1.1457461E-2,9.134596E-2,-5.0541672E-5,-5.999969E-2,-4.5614388E-2,2.0054149E-2,1.8785961E-1,2.6162311E-2],"split_indices":[22,21,81,11,84,81,59,87,8,56,57,81,42,23,30,53,53,6,4,89,46,66,34,84,30,60,64,48,75,83,79,45,30,75,23,7,40,2,42,21,54,66,46,46,79,31,34,31,33,50,33,36,70,81,41,48,23,87,58,46,28,56,64,0,0,0,0,0,0,0,0,0,0,0,0,0,0,0,0,0,0,0,0,0,0,0,0,0,0,0,0,0,0,0,0,0,0,0,0,0,0,0,0,0,0,0,0,0,0,0,0,0,0,0,0,0,0,0,0,0,0,0,0,0,0,0,0],"split_type":[0,0,0,0,0,0,0,0,0,0,0,0,0,0,0,0,0,0,0,0,0,0,0,0,0,0,0,0,0,0,0,0,0,0,0,0,0,0,0,0,0,0,0,0,0,0,0,0,0,0,0,0,0,0,0,0,0,0,0,0,0,0,0,0,0,0,0,0,0,0,0,0,0,0,0,0,0,0,0,0,0,0,0,0,0,0,0,0,0,0,0,0,0,0,0,0,0,0,0,0,0,0,0,0,0,0,0,0,0,0,0,0,0,0,0,0,0,0,0,0,0,0,0,0,0,0,0],"sum_hessian":[5.20808E5,2.2377E4,4.98431E5,1.9647E4,2.73E3,4.45824E5,5.2607E4,5.961E3,1.3686E4,1.44E3,1.29E3,1.97643E5,2.48181E5,1.5855E4,3.6752E4,7.12E2,5.249E3,9.034E3,4.652E3,1E3,4.4E2,1.75E2,1.115E3,1.83993E5,1.365E4,2.44932E5,3.249E3,5.003E3,1.0852E4,2.9655E4,7.097E3,1.24E2,5.88E2,1.284E3,3.965E3,6.196E3,2.838E3,2.277E3,2.375E3,8.63E2,1.37E2,1.98E2,2.42E2,1.28E2,4.7E1,4.6E1,1.069E3,2.3602E4,1.60391E5,1.0225E4,3.425E3,9.67E2,2.43965E5,2.892E3,3.57E2,2.074E3,2.929E3,5.611E3,5.241E3,8.929E3,2.0726E4,6.501E3,5.96E2,6.6E1,5.8E1,3.49E2,2.39E2,4.2E1,1.242E3,2.52E3,1.445E3,3.904E3,2.292E3,2.319E3,5.19E2,2.057E3,2.2E2,5.71E2,1.804E3,7.18E2,1.45E2,5.5E1,8.2E1,8.3E1,1.15E2,9.6E1,1.46E2,4.6E1,8.2E1,1.6E1,3.1E1,5E0,4.1E1,4.5E1,1.024E3,1.0446E4,1.3156E4,1.59453E5,9.38E2,8.851E3,1.374E3,1.588E3,1.837E3,4.96E2,4.71E2,2.4293E5,1.035E3,1.7E2,2.722E3,1.36E2,2.21E2,1.852E3,2.22E2,2.396E3,5.33E2,2.267E3,3.344E3,3.25E3,1.991E3,7.835E3,1.094E3,2.881E3,1.7845E4,1.749E3,4.752E3,3.4E2,2.56E2],"tree_param":{"num_deleted":"0","num_feature":"92","num_nodes":"127","size_leaf_vector":"1"}},{"base_weights":[1.3217829E-3,-2.8206286E0,1.2808053E-1,-4.4619155E0,-1.1433611E0,-5.6271297E-1,5.823407E-1,-7.1489305E0,-3.3605723E0,-4.907698E0,-8.925299E-3,-1.2884519E0,7.06987E-1,9.207547E-1,-1.0736054E0,-8.467419E0,-2.4261594E0,-7.965481E0,-2.777862E0,-2.655291E0,-7.4338565E0,-1.9060652E0,1.3921287E0,-2.698792E0,3.3415437E-1,1.7057391E0,-9.997943E-1,-9.654191E0,9.9339306E-1,-2.3268554E0,1.985458E0,-5.653403E0,-1.1090842E1,-9.8565435E-1,-1.6429348E1,-3.1274308E-2,-1.062191E1,-2.415362E0,-1.1376303E1,-4.052002E0,3.7545374E-1,-1.488527E1,-5.878074E0,1.6563104E0,-2.8470652E0,5.6009125E-2,3.345868E0,-1.302396E0,-4.6424828E0,-1.4619873E0,1.5972596E0,2.5822742E0,-1.5960909E0,2.8463807E0,-2.3778481E0,-1.6193832E1,4.2332606E0,2.2409678E0,5.8147645E-1,-3.2239807E0,2.3290179E0,5.7043986E0,-9.3450207E-1,-1.0880368E-1,-3.414488E-2,-1.0076586E-1,-2.1414377E-1,-2.8432585E-2,8.847595E-2,-8.546149E-2,-2.8531462E-1,5.5692017E-2,-1.1922404E-1,-1.3378145E-1,-5.1233128E-2,-2.2984818E-1,-2.312249E-2,-1.3627584E-1,1.7895591E-1,-3.0789282E-2,-8.744945E-2,3.749601E-2,-2.5328614E-2,-1.8525937E-1,-8.705749E-2,-1.09387815E-1,-3.7377648E-2,9.792495E-2,1.9629872E-3,-2.376239E-2,-8.570601E-2,-2.270781E-2,1.922891E-2,6.6403747E-3,4.7900476E-2,-2.9083334E-2,1.7848343E-2,-6.8564E-2,-1.43940635E-2,1.7586518E-2,-4.9720433E-2,-1.04440846E-1,1.985911E-2,1.8636178E-2,7.515942E-2,-4.328198E-2,4.5922305E-2,-2.843866E-1,3.257854E-2,-7.5301044E-3,-6.885072E-2,-2.4286373E-1,-6.3902594E-2,-1.5745829E-3,1.5615568E-1,5.8401022E-2,8.751663E-3,-1.8787637E-1,6.169758E-3,3.4959405E-3,-4.7812328E-2,7.241974E-2,-5.2377903E-3,1.0144767E-1,2.5581248E-2,-1.8331246E-2,1.0466353E-1],"categories":[],"categories_nodes":[],"categories_segments":[],"categories_sizes":[],"default_left":[0,0,0,0,0,0,0,0,0,0,0,0,0,0,0,0,0,0,0,0,0,0,0,0,0,0,0,0,0,0,0,0,0,0,0,0,0,0,0,0,0,0,0,0,0,0,0,0,0,0,0,0,0,0,0,0,0,0,0,0,0,0,0,0,0,0,0,0,0,0,0,0,0,0,0,0,0,0,0,0,0,0,0,0,0,0,0,0,0,0,0,0,0,0,0,0,0,0,0,0,0,0,0,0,0,0,0,0,0,0,0,0,0,0,0,0,0,0,0,0,0,0,0,0,0,0,0],"id":6,"left_children":[1,3,5,7,9,11,13,15,17,19,21,23,25,27,29,31,33,35,37,39,41,43,45,47,49,51,53,55,57,59,61,63,65,67,69,71,73,75,77,79,81,83,85,87,89,91,93,95,97,99,101,103,105,107,109,111,113,115,117,119,121,123,125,-1,-1,-1,-1,-1,-1,-1,-1,-1,-1,-1,-1,-1,-1,-1,-1,-1,-1,-1,-1,-1,-1,-1,-1,-1,-1,-1,-1,-1,-1,-1,-1,-1,-1,-1,-1,-1,-1,-1,-1,-1,-1,-1,-1,-1,-1,-1,-1,-1,-1,-1,-1,-1,-1,-1,-1,-1,-1,-1,-1,-1,-1,-1,-1],"loss_changes":[1.8625977E5,6.1615234E4,1.5637345E5,3.345472E4,4.728177E4,1.821683E5,1.6847262E5,2.0453453E4,2.1514148E4,1.4569148E4,2.2619541E4,2.878667E5,1.2256787E5,1.9175283E5,1.955768E5,1.8909797E4,1.4487057E4,1.8989625E4,2.2183668E4,5.74584E3,1.3916367E4,1.2122912E4,1.2777831E4,1.826516E5,1.3271088E5,1.3128077E5,1.4069094E5,1.5473336E5,1.27401875E5,1.5116123E5,1.6100327E5,1.4497496E4,1.3699469E4,1.19529795E4,6.1478223E3,1.5183751E4,1.0161195E4,1.4451965E4,1.9222824E4,4.2153086E3,4.2193228E3,4.5179453E3,1.0801277E4,8.978444E3,7.686627E3,1.2636257E4,7.696381E3,1.9417634E5,1.9950506E5,2.7303806E5,1.607466E5,1.2707483E5,1.609084E5,9.022883E4,1.4311072E5,9.171534E4,2.7289793E4,3.0249247E5,1.2816455E5,1.6885369E5,8.195347E4,9.10763E4,8.511464E4,0E0,0E0,0E0,0E0,0E0,0E0,0E0,0E0,0E0,0E0,0E0,0E0,0E0,0E0,0E0,0E0,0E0,0E0,0E0,0E0,0E0,0E0,0E0,0E0,0E0,0E0,0E0,0E0,0E0,0E0,0E0,0E0,0E0,0E0,0E0,0E0,0E0,0E0,0E0,0E0,0E0,0E0,0E0,0E0,0E0,0E0,0E0,0E0,0E0,0E0,0E0,0E0,0E0,0E0,0E0,0E0,0E0,0E0,0E0,0E0,0E0,0E0,0E0,0E0],"parents":[2147483647,0,0,1,1,2,2,3,3,4,4,5,5,6,6,7,7,8,8,9,9,10,10,11,11,12,12,13,13,14,14,15,15,16,16,17,17,18,18,19,19,20,20,21,21,22,22,23,23,24,24,25,25,26,26,27,27,28,28,29,29,30,30,31,31,32,32,33,33,34,34,35,35,36,36,37,37,38,38,39,39,40,40,41,41,42,42,43,43,44,44,45,45,46,46,47,47,48,48,49,49,50,50,51,51,52,52,53,53,54,54,55,55,56,56,57,57,58,58,59,59,60,60,61,61,62,62],"right_children":[2,4,6,8,10,12,14,16,18,20,22,24,26,28,30,32,34,36,38,40,42,44,46,48,50,52,54,56,58,60,62,64,66,68,70,72,74,76,78,80,82,84,86,88,90,92,94,96,98,100,102,104,106,108,110,112,114,116,118,120,122,124,126,-1,-1,-1,-1,-1,-1,-1,-1,-1,-1,-1,-1,-1,-1,-1,-1,-1,-1,-1,-1,-1,-1,-1,-1,-1,-1,-1,-1,-1,-1,-1,-1,-1,-1,-1,-1,-1,-1,-1,-1,-1,-1,-1,-1,-1,-1,-1,-1,-1,-1,-1,-1,-1,-1,-1,-1,-1,-1,-1,-1,-1,-1,-1,-1],"split_conditions":[-1.0718167E0,3.2322058E-1,-4.0594283E-2,-4.358899E-1,-4.6970764E-1,2.9482278E-1,1.1206251E0,9.177771E-1,-1.0259783E0,4.2993554E-1,1.2854333E-1,2.0252241E-1,7.28011E-1,-1.4768332E0,1.0261027E0,1E-1,1.5617377E0,-1.2789783E0,1.2238626E0,3.576719E-1,-9.5378643E-1,-2.5388374E0,3.5203698E-1,8.881784E-8,-9.165151E-1,-2.3003235E-1,-1.1060606E0,1.0124066E0,-2.6327157E-1,1.2906281E0,-5.0990194E-1,-7.874008E-1,1.3293868E0,1.0488088E0,-1.5430335E0,-8.7294134E-4,1.0301378E0,-1.4616017E0,1.8070517E0,1.0050378E0,0E0,-4.2639915E-2,-8.362658E-1,-1.028831E0,1.2713144E0,1.3758133E-1,-4.1231057E-1,4.7958314E-1,1.8129766E-1,-9.949874E-1,-1.4002801E0,-5.123182E-1,6.164414E-1,3.4656367E-1,9.925252E-1,-3.0491403E-1,1.036112E0,5.0990194E-1,-1.5914551E0,-1.0783278E0,-1.0744288E0,-2.6457512E-1,1.5811388E0,-1.0880368E-1,-3.414488E-2,-1.0076586E-1,-2.1414377E-1,-2.8432585E-2,8.847595E-2,-8.546149E-2,-2.8531462E-1,5.5692017E-2,-1.1922404E-1,-1.3378145E-1,-5.1233128E-2,-2.2984818E-1,-2.312249E-2,-1.3627584E-1,1.7895591E-1,-3.0789282E-2,-8.744945E-2,3.749601E-2,-2.5328614E-2,-1.8525937E-1,-8.705749E-2,-1.09387815E-1,-3.7377648E-2,9.792495E-2,1.9629872E-3,-2.376239E-2,-8.570601E-2,-2.270781E-2,1.922891E-2,6.6403747E-3,4.7900476E-2,-2.9083334E-2,1.7848343E-2,-6.8564E-2,-1.43940635E-2,1.7586518E-2,-4.9720433E-2,-1.04440846E-1,1.985911E-2,1.8636178E-2,7.515942E-2,-4.328198E-2,4.5922305E-2,-2.843866E-1,3.257854E-2,-7.5301044E-3,-6.885072E-2,-2.4286373E-1,-6.3902594E-2,-1.5745829E-3,1.5615568E-1,5.8401022E-2,8.751663E-3,-1.8787637E-1,6.169758E-3,3.4959405E-3,-4.7812328E-2,7.241974E-2,-5.2377903E-3,1.0144767E-1,2.5581248E-2,-1.8331246E-2,1.0466353E-1],"split_indices":[22,11,90,88,13,85,90,35,40,7,14,27,34,49,40,38,65,51,81,16,18,20,8,83,26,91,59,23,74,38,64,82,29,90,36,28,75,85,51,85,86,6,10,59,72,6,32,81,45,85,34,90,91,85,43,25,83,90,48,62,41,88,49,0,0,0,0,0,0,0,0,0,0,0,0,0,0,0,0,0,0,0,0,0,0,0,0,0,0,0,0,0,0,0,0,0,0,0,0,0,0,0,0,0,0,0,0,0,0,0,0,0,0,0,0,0,0,0,0,0,0,0,0,0,0,0,0],"split_type":[0,0,0,0,0,0,0,0,0,0,0,0,0,0,0,0,0,0,0,0,0,0,0,0,0,0,0,0,0,0,0,0,0,0,0,0,0,0,0,0,0,0,0,0,0,0,0,0,0,0,0,0,0,0,0,0,0,0,0,0,0,0,0,0,0,0,0,0,0,0,0,0,0,0,0,0,0,0,0,0,0,0,0,0,0,0,0,0,0,0,0,0,0,0,0,0,0,0,0,0,0,0,0,0,0,0,0,0,0,0,0,0,0,0,0,0,0,0,0,0,0,0,0,0,0,0,0],"sum_hessian":[5.20703E5,2.2383E4,4.9832E5,1.1312E4,1.1071E4,1.97691E5,3.00629E5,3.287E3,8.025E3,2.563E3,8.508E3,1.25791E5,7.19E4,2.49617E5,5.1012E4,2.569E3,7.18E2,9E2,7.125E3,1.356E3,1.207E3,3.614E3,4.894E3,6.7297E4,5.8494E4,4.5358E4,2.6542E4,1.702E3,2.47915E5,3.6187E4,1.4825E4,1.241E3,1.328E3,6.52E2,6.6E1,2.26E2,6.74E2,6.838E3,2.87E2,9.28E2,4.28E2,2.07E2,1E3,7.55E2,2.859E3,2.907E3,1.987E3,3.9163E4,2.8134E4,2.4151E4,3.4343E4,3.5843E4,9.515E3,7.001E3,1.9541E4,1.157E3,5.45E2,6.1536E4,1.86379E5,3.0341E4,5.846E3,6.52E3,8.305E3,3.71E2,8.7E2,1.211E3,1.17E2,5.49E2,1.03E2,4.1E1,2.5E1,1.54E2,7.2E1,4.48E2,2.26E2,3.3E1,6.805E3,2.67E2,2E1,7.7E2,1.58E2,1.98E2,2.3E2,1.29E2,7.8E1,2.96E2,7.04E2,1.14E2,6.41E2,2.643E3,2.16E2,1.294E3,1.613E3,6.96E2,1.291E3,2.5762E4,1.3401E4,1.6635E4,1.1499E4,1.2595E4,1.1556E4,1.073E3,3.327E4,3.1287E4,4.556E3,6.601E3,2.914E3,9E1,6.911E3,1.4364E4,5.177E3,6.33E2,5.24E2,3.94E2,1.51E2,1.6927E4,4.4609E4,3.4E2,1.86039E5,9.209E3,2.1132E4,2.147E3,3.699E3,2.703E3,3.817E3,7.699E3,6.06E2],"tree_param":{"num_deleted":"0","num_feature":"92","num_nodes":"127","size_leaf_vector":"1"}},{"base_weights":[-2.218793E-2,-2.6672833E0,9.619981E-2,-4.848801E0,-1.3313317E0,-5.83386E-1,5.431455E-1,-7.5895777E0,-3.6121814E0,-4.3142753E0,-1.9066942E-1,1.9464602E0,-8.8280994E-1,8.8343215E-1,-1.1107112E0,-9.096268E0,-4.77571E0,-8.423603E0,-2.696382E0,-2.4657288E0,-7.6889443E0,-1.9923927E0,1.1620715E0,1.4931974E0,7.301475E0,-7.117997E-1,-1.0388005E1,9.581773E-1,-9.780159E0,-2.3136683E0,1.8397667E0,-7.818954E0,-1.4109339E1,-3.786207E0,-1.5886689E1,-2.1805744E0,-1.1447345E1,-1.4555624E1,-2.4443345E0,-2.6287321E1,-2.3098485E0,-9.7537565E0,-2.0827603E0,-3.0902727E0,4.7975215E-1,-2.7453876E-1,2.900652E0,-1.9224466E0,2.30054E0,3.6072998E0,1.2325025E1,-5.281808E-1,-9.768085E0,-1.7897606E1,-4.5753675E0,-1.6290962E1,1.0008098E0,-1.393002E1,1.8046833E0,-3.1939452E0,2.1549668E0,5.1385813E0,-1.2890093E0,4.200099E-2,-8.617886E-2,-2.1367979E-1,-1.0871589E-1,2.7088344E-2,-5.279582E-2,-2.336803E-1,-7.1325116E-2,5.5928966E-3,-1.6919203E-1,-6.6229604E-2,-1.5450671E-1,-1.9392683E-1,-2.8513068E-2,-3.5868786E-2,-4.4266214E-3,-1.1953417E-1,-3.1715146E-1,1.9474895E-1,-2.4693517E-2,-7.270299E-2,-1.7570059E-1,-1.3424848E-1,-9.930898E-3,-1.7421363E-2,-5.488822E-2,1.8341083E-2,-3.6468793E-2,-1.0778425E-2,3.719533E-2,1.9720666E-1,2.7156902E-2,1.6030783E-2,-4.37939E-2,7.729034E-2,1.5022615E-2,-2.2693347E-2,9.353193E-2,2.1261029E-2,1.6794538E-1,-3.8407515E-3,-1.0383788E-1,-1.366925E-1,5.289442E-3,-5.8377303E-2,-2.4673723E-1,-1.0816494E-1,5.3184316E-2,-3.798699E-3,-2.4323928E-1,-7.751013E-2,1.0569625E-2,-1.07700795E-1,-3.0626157E-1,4.388647E-2,-1.0679935E-1,-4.5966692E-2,-1.4756324E-3,5.13069E-2,-3.7901226E-2,1.0348661E-1,2.3098528E-2,-2.3149678E-2,1.0158672E-1],"categories":[],"categories_nodes":[],"categories_segments":[],"categories_sizes":[],"default_left":[0,0,0,0,0,0,0,0,0,0,0,0,0,0,0,0,0,0,0,0,0,0,0,0,0,0,0,0,0,0,0,0,0,0,0,0,0,0,0,0,0,0,0,0,0,0,0,0,0,0,0,0,0,0,0,0,0,0,0,0,0,0,0,0,0,0,0,0,0,0,0,0,0,0,0,0,0,0,0,0,0,0,0,0,0,0,0,0,0,0,0,0,0,0,0,0,0,0,0,0,0,0,0,0,0,0,0,0,0,0,0,0,0,0,0,0,0,0,0,0,0,0,0,0,0,0,0],"id":7,"left_children":[1,3,5,7,9,11,13,15,17,19,21,23,25,27,29,31,33,35,37,39,41,43,45,47,49,51,53,55,57,59,61,63,65,67,69,71,73,75,77,79,81,83,85,87,89,91,93,95,97,99,101,103,105,107,109,111,113,115,117,119,121,123,125,-1,-1,-1,-1,-1,-1,-1,-1,-1,-1,-1,-1,-1,-1,-1,-1,-1,-1,-1,-1,-1,-1,-1,-1,-1,-1,-1,-1,-1,-1,-1,-1,-1,-1,-1,-1,-1,-1,-1,-1,-1,-1,-1,-1,-1,-1,-1,-1,-1,-1,-1,-1,-1,-1,-1,-1,-1,-1,-1,-1,-1,-1,-1,-1],"loss_changes":[1.631739E5,6.505167E4,1.5149116E5,2.8706938E4,4.711058E4,1.4989434E5,1.6933016E5,1.1127844E4,2.5727578E4,2.3873367E4,2.4416404E4,5.0820047E4,2.8760275E5,1.9890169E5,1.8223589E5,1.08710625E4,1.0065447E4,1.7606297E4,1.4643691E4,9.133163E3,1.5664664E4,1.1661361E4,1.4292447E4,5.3250824E4,3.0278938E4,2.8902756E5,1.3641325E5,1.8224092E5,8.3532375E4,1.434784E5,1.53494E5,1.31819375E4,7.9224453E3,8.22983E3,4.744994E3,1.2366469E4,1.2045703E4,5.719158E3,1.0998836E4,8.6529004E2,8.599239E3,1.9089352E4,4.5099683E3,9.61024E3,7.3952344E3,1.0059275E4,8.00074E3,3.1987207E4,6.766811E4,3.1863123E4,3.150839E4,2.4194798E5,1.3875594E5,1.11320625E5,1.08981875E5,7.808441E4,1.214863E5,6.7148234E4,1.4854058E4,1.3020894E5,1.0621818E5,1.0666364E5,8.967185E4,0E0,0E0,0E0,0E0,0E0,0E0,0E0,0E0,0E0,0E0,0E0,0E0,0E0,0E0,0E0,0E0,0E0,0E0,0E0,0E0,0E0,0E0,0E0,0E0,0E0,0E0,0E0,0E0,0E0,0E0,0E0,0E0,0E0,0E0,0E0,0E0,0E0,0E0,0E0,0E0,0E0,0E0,0E0,0E0,0E0,0E0,0E0,0E0,0E0,0E0,0E0,0E0,0E0,0E0,0E0,0E0,0E0,0E0,0E0,0E0,0E0,0E0,0E0,0E0],"parents":[2147483647,0,0,1,1,2,2,3,3,4,4,5,5,6,6,7,7,8,8,9,9,10,10,11,11,12,12,13,13,14,14,15,15,16,16,17,17,18,18,19,19,20,20,21,21,22,22,23,23,24,24,25,25,26,26,27,27,28,28,29,29,30,30,31,31,32,32,33,33,34,34,35,35,36,36,37,37,38,38,39,39,40,40,41,41,42,42,43,43,44,44,45,45,46,46,47,47,48,48,49,49,50,50,51,51,52,52,53,53,54,54,55,55,56,56,57,57,58,58,59,59,60,60,61,61,62,62],"right_children":[2,4,6,8,10,12,14,16,18,20,22,24,26,28,30,32,34,36,38,40,42,44,46,48,50,52,54,56,58,60,62,64,66,68,70,72,74,76,78,80,82,84,86,88,90,92,94,96,98,100,102,104,106,108,110,112,114,116,118,120,122,124,126,-1,-1,-1,-1,-1,-1,-1,-1,-1,-1,-1,-1,-1,-1,-1,-1,-1,-1,-1,-1,-1,-1,-1,-1,-1,-1,-1,-1,-1,-1,-1,-1,-1,-1,-1,-1,-1,-1,-1,-1,-1,-1,-1,-1,-1,-1,-1,-1,-1,-1,-1,-1,-1,-1,-1,-1,-1,-1,-1,-1,-1,-1,-1,-1],"split_conditions":[-1.0718167E0,5.2370816E-3,-4.0594283E-2,-1.7320508E-1,-3.6046952E-1,-1.3363062E0,1.1206251E0,5.744563E-1,-7.211103E-1,5.809294E-1,1.1862631E-1,2.085144E0,1.6012815E0,1.5075567E0,1.0261027E0,1.0049375E0,1.6313084E0,-9.9414724E-1,-1.4907119E0,-2.4253561E0,4.6984022E-3,1.0177796E0,4.5500976E-1,-1.5652047E0,-1.0176499E0,1.5961837E0,-5.2915025E-1,-1.5914551E0,9.8488575E-1,1.2906281E0,3.4641016E-1,-1.2658525E0,-1.0581561E0,-1.1043153E0,2.4494897E-1,1.5617377E0,-7.313688E-1,4.5303175E-1,4.0306E-1,-3.2797477E-1,-2E0,1.1402509E0,-1.118034E0,6.406031E-3,8.0013025E-1,1.4752585E0,-2.3570225E0,-1.5927352E0,-1.4433757E0,-9.1104335E-1,-2.085144E0,1.4907119E0,8.3666E-1,-4.2426407E-1,1.7320508E-1,1.7320508E-1,-1.4433757E0,1.3394111E0,8.1240386E-1,9.327379E-1,6.244998E-1,-6.855655E-1,1.5811388E0,4.200099E-2,-8.617886E-2,-2.1367979E-1,-1.0871589E-1,2.7088344E-2,-5.279582E-2,-2.336803E-1,-7.1325116E-2,5.5928966E-3,-1.6919203E-1,-6.6229604E-2,-1.5450671E-1,-1.9392683E-1,-2.8513068E-2,-3.5868786E-2,-4.4266214E-3,-1.1953417E-1,-3.1715146E-1,1.9474895E-1,-2.4693517E-2,-7.270299E-2,-1.7570059E-1,-1.3424848E-1,-9.930898E-3,-1.7421363E-2,-5.488822E-2,1.8341083E-2,-3.6468793E-2,-1.0778425E-2,3.719533E-2,1.9720666E-1,2.7156902E-2,1.6030783E-2,-4.37939E-2,7.729034E-2,1.5022615E-2,-2.2693347E-2,9.353193E-2,2.1261029E-2,1.6794538E-1,-3.8407515E-3,-1.0383788E-1,-1.366925E-1,5.289442E-3,-5.8377303E-2,-2.4673723E-1,-1.0816494E-1,5.3184316E-2,-3.798699E-3,-2.4323928E-1,-7.751013E-2,1.0569625E-2,-1.07700795E-1,-3.0626157E-1,4.388647E-2,-1.0679935E-1,-4.5966692E-2,-1.4756324E-3,5.13069E-2,-3.7901226E-2,1.0348661E-1,2.3098528E-2,-2.3149678E-2,1.0158672E-1],"split_indices":[22,11,90,75,13,90,90,69,68,12,14,31,66,51,40,61,72,49,37,89,0,4,6,74,49,42,77,48,32,38,64,73,38,76,57,65,89,61,13,79,31,2,57,38,12,4,42,34,74,87,74,46,32,60,60,82,44,43,91,32,63,87,49,0,0,0,0,0,0,0,0,0,0,0,0,0,0,0,0,0,0,0,0,0,0,0,0,0,0,0,0,0,0,0,0,0,0,0,0,0,0,0,0,0,0,0,0,0,0,0,0,0,0,0,0,0,0,0,0,0,0,0,0,0,0,0,0],"split_type":[0,0,0,0,0,0,0,0,0,0,0,0,0,0,0,0,0,0,0,0,0,0,0,0,0,0,0,0,0,0,0,0,0,0,0,0,0,0,0,0,0,0,0,0,0,0,0,0,0,0,0,0,0,0,0,0,0,0,0,0,0,0,0,0,0,0,0,0,0,0,0,0,0,0,0,0,0,0,0,0,0,0,0,0,0,0,0,0,0,0,0,0,0,0,0,0,0,0,0,0,0,0,0,0,0,0,0,0,0,0,0,0,0,0,0,0,0,0,0,0,0,0,0,0,0,0,0],"sum_hessian":[5.21076E5,2.2322E4,4.98754E5,8.477E3,1.3845E4,1.97878E5,3.00876E5,2.634E3,5.843E3,3.829E3,1.0016E4,2.0941E4,1.76937E5,2.49534E5,5.1342E4,1.714E3,9.2E2,9.33E2,4.91E3,2.475E3,1.354E3,4.295E3,5.721E3,1.9308E4,1.633E3,1.73811E5,3.126E3,2.47798E5,1.736E3,3.6472E4,1.487E4,1.368E3,3.46E2,8.46E2,7.4E1,3.05E2,6.28E2,1.01E2,4.809E3,1.5E1,2.46E3,9.89E2,3.65E2,2.974E3,1.321E3,3.133E3,2.588E3,3.691E3,1.5617E4,9.42E2,6.91E2,1.70358E5,3.453E3,1.363E3,1.763E3,6.1E2,2.47188E5,1.278E3,4.58E2,3.047E4,6.002E3,7.238E3,7.632E3,8.5E1,1.283E3,1.05E2,2.41E2,1.58E2,6.88E2,3.9E1,3.5E1,2.58E2,4.7E1,2.86E2,3.42E2,7.1E1,3E1,3.061E3,1.748E3,5E0,1E1,1.7E1,2.443E3,7.52E2,2.37E2,3.1E1,3.34E2,1.905E3,1.069E3,9.95E2,3.26E2,2.609E3,5.24E2,2.7E1,2.561E3,1.516E3,2.175E3,2.001E3,1.3616E4,4.66E2,4.76E2,2.11E2,4.8E2,1.67904E5,2.454E3,2.504E3,9.49E2,4.91E2,8.72E2,1.081E3,6.82E2,2.05E2,4.05E2,1.575E3,2.45613E5,1.076E3,2.02E2,3.8E2,7.8E1,2.0863E4,9.607E3,4E3,2.002E3,2.546E3,4.692E3,7.005E3,6.27E2],"tree_param":{"num_deleted":"0","num_feature":"92","num_nodes":"127","size_leaf_vector":"1"}},{"base_weights":[6.3154586E-3,-2.6802924E0,1.2612735E-1,-1.8866996E0,-8.232474E0,-5.823836E-1,5.913749E-1,-3.5069754E0,-1.8893796E-1,-3.7869127E0,-1.3265363E1,-1.2969977E0,6.6264594E-1,9.2484385E-1,-1.0941232E0,-7.5538836E0,-2.9038086E0,-2.3447998E0,1.214483E0,-2.021022E1,-2.9677165E0,-1.861795E1,-1.9678319E0,1.6012557E-1,-2.7431118E0,1.699886E0,-1.0550714E0,9.950691E-1,-9.158365E0,-2.0471916E0,2.919794E0,1.0159063E0,-9.749483E0,-9.351868E0,-2.609231E0,-3.004993E0,2.9455328E0,3.87214E0,3.6367878E-1,-9.136969E0,-3.102213E1,-1.2068651E1,-1.5725833E0,-2.1301872E1,-1.9962342E0,7.0633926E0,-8.0767975E0,2.4550512E0,-1.3837274E0,-1.028724E0,-4.979663E0,2.5899243E0,-1.5996454E0,9.8820716E-1,-2.9069748E0,-1.5531556E1,1.0361202E0,-1.7244818E1,-3.4164755E0,-3.4782312E0,9.048784E-1,1.765152E1,1.9548013E0,-1.5116936E-2,1.7066307E-1,-1.1281432E-1,-4.733484E-2,1.0671089E-1,-1.0382684E-1,-3.7379954E-2,-1.0645362E-2,-2.014972E-2,-5.863972E-2,-1.4545748E-2,5.786173E-2,1.1188303E-1,2.5222762E-2,-1.470461E-2,1.829785E-2,3.000786E-2,-1.4598012E-1,-3.3335403E-1,-1.9046648E-1,-6.787793E-2,-2.4619113E-1,-2.8017811E-2,1.18086234E-1,-2.3959655E-1,-5.5223297E-2,-2.7941585E-1,3.3889984E-4,-4.284351E-2,1.0703329E-1,-1.4106113E-1,5.9919704E-2,3.6407497E-2,-1.3589619E-2,-3.5191465E-2,7.82265E-3,-3.638437E-2,1.3130457E-2,-8.515868E-3,-6.343121E-2,1.8525671E-2,7.622464E-2,-4.4787563E-2,4.2886157E-2,3.2652777E-2,-3.308727E-2,-4.644341E-2,1.5501317E-2,-8.2602054E-2,-3.2375392E-1,9.98151E-3,1.3200669E-1,-8.639408E-3,-2.3021048E-1,7.330324E-2,-6.548908E-2,-5.1657256E-2,-1.8915952E-3,6.303443E-2,-4.6213493E-3,2.4979205E-1,-9.5727384E-2,5.814738E-2,-4.1019493E-3],"categories":[],"categories_nodes":[],"categories_segments":[],"categories_sizes":[],"default_left":[0,0,0,0,0,0,0,0,0,0,0,0,0,0,0,0,0,0,0,0,0,0,0,0,0,0,0,0,0,0,0,0,0,0,0,0,0,0,0,0,0,0,0,0,0,0,0,0,0,0,0,0,0,0,0,0,0,0,0,0,0,0,0,0,0,0,0,0,0,0,0,0,0,0,0,0,0,0,0,0,0,0,0,0,0,0,0,0,0,0,0,0,0,0,0,0,0,0,0,0,0,0,0,0,0,0,0,0,0,0,0,0,0,0,0,0,0,0,0,0,0,0,0,0,0,0,0],"id":8,"left_children":[1,3,5,7,9,11,13,15,17,19,21,23,25,27,29,31,33,35,37,39,41,43,45,47,49,51,53,55,57,59,61,63,65,67,69,71,73,75,77,79,81,83,85,87,89,91,93,95,97,99,101,103,105,107,109,111,113,115,117,119,121,123,125,-1,-1,-1,-1,-1,-1,-1,-1,-1,-1,-1,-1,-1,-1,-1,-1,-1,-1,-1,-1,-1,-1,-1,-1,-1,-1,-1,-1,-1,-1,-1,-1,-1,-1,-1,-1,-1,-1,-1,-1,-1,-1,-1,-1,-1,-1,-1,-1,-1,-1,-1,-1,-1,-1,-1,-1,-1,-1,-1,-1,-1,-1,-1,-1],"loss_changes":[1.6756338E5,9.790714E4,1.6426997E5,5.3492188E4,6.2126953E4,1.757464E5,1.6907578E5,2.4265516E4,2.873681E4,1.981122E4,7.875694E4,2.6444566E5,1.2834193E5,1.7783178E5,1.9007781E5,2.4282414E4,1.642664E4,1.3088793E4,1.3006922E4,8.09676E3,1.7858285E4,3.9393688E4,2.3229064E4,2.2148516E5,2.4150681E5,1.3190058E5,1.0262753E5,1.6921217E5,8.059242E4,1.6962644E5,1.3550073E5,1.0736168E4,7.838172E3,7.9127188E3,1.443993E4,9.413498E3,5.2080957E3,1.374842E4,1.1724234E4,2.4301746E3,3.3413672E2,1.2226408E4,2.0132637E4,3.1782688E4,6.53259E3,7.067782E3,2.1375691E4,1.1369934E5,1.7285953E5,2.179171E5,1.5382606E5,1.3124345E5,1.6178434E5,1.2618092E5,1.1017579E5,7.5423234E4,1.1489006E5,6.820072E4,3.428391E4,1.500955E5,9.67536E4,1.17140875E5,8.16955E4,0E0,0E0,0E0,0E0,0E0,0E0,0E0,0E0,0E0,0E0,0E0,0E0,0E0,0E0,0E0,0E0,0E0,0E0,0E0,0E0,0E0,0E0,0E0,0E0,0E0,0E0,0E0,0E0,0E0,0E0,0E0,0E0,0E0,0E0,0E0,0E0,0E0,0E0,0E0,0E0,0E0,0E0,0E0,0E0,0E0,0E0,0E0,0E0,0E0,0E0,0E0,0E0,0E0,0E0,0E0,0E0,0E0,0E0,0E0,0E0,0E0,0E0,0E0,0E0],"parents":[2147483647,0,0,1,1,2,2,3,3,4,4,5,5,6,6,7,7,8,8,9,9,10,10,11,11,12,12,13,13,14,14,15,15,16,16,17,17,18,18,19,19,20,20,21,21,22,22,23,23,24,24,25,25,26,26,27,27,28,28,29,29,30,30,31,31,32,32,33,33,34,34,35,35,36,36,37,37,38,38,39,39,40,40,41,41,42,42,43,43,44,44,45,45,46,46,47,47,48,48,49,49,50,50,51,51,52,52,53,53,54,54,55,55,56,56,57,57,58,58,59,59,60,60,61,61,62,62],"right_children":[2,4,6,8,10,12,14,16,18,20,22,24,26,28,30,32,34,36,38,40,42,44,46,48,50,52,54,56,58,60,62,64,66,68,70,72,74,76,78,80,82,84,86,88,90,92,94,96,98,100,102,104,106,108,110,112,114,116,118,120,122,124,126,-1,-1,-1,-1,-1,-1,-1,-1,-1,-1,-1,-1,-1,-1,-1,-1,-1,-1,-1,-1,-1,-1,-1,-1,-1,-1,-1,-1,-1,-1,-1,-1,-1,-1,-1,-1,-1,-1,-1,-1,-1,-1,-1,-1,-1,-1,-1,-1,-1,-1,-1,-1,-1,-1,-1,-1,-1,-1,-1,-1,-1,-1,-1,-1],"split_conditions":[-1.0718167E0,-5.548781E-1,-4.0594283E-2,3.5520354E-1,1.7347099E-1,2.9482278E-1,1.1396058E0,-9.903774E-1,2.5083276E-2,-1.3146557E0,8.4261495E-1,-5.4565657E-2,7.1414286E-1,1.5075567E0,1.2906281E0,-1.230915E0,-1.25E0,9.85113E-1,-2.5388374E0,-1.1952286E0,-7.615773E-1,9.2195445E-1,-5.3851646E-1,-3.6055514E-1,-1.2231646E-1,-2.3003235E-1,-8.5509044E-1,-1.5914551E0,-2.6457512E-1,1.0176568E0,1.25E0,-1.2700013E0,1.1114465E0,-1.6520413E0,2.9584837E-1,8.2689327E-1,-2.1196952E-1,-9.1503525E-1,2.394429E-1,-1.4603679E0,-3.2122615E-1,1.042572E0,1.0444087E0,-3.1149408E-1,5.618629E-1,-8.4852815E-1,6.244998E-1,8.544004E-1,6.8228446E-2,-7.584787E-2,-1.0122213E0,-5.123182E-1,5.6568545E-1,9.374102E-1,9.055385E-1,9.26454E-2,1.2275596E0,-1.3265069E0,-1.1704115E0,7.566369E-1,-1.2827305E0,1.3867505E0,-1.0976425E0,-1.5116936E-2,1.7066307E-1,-1.1281432E-1,-4.733484E-2,1.0671089E-1,-1.0382684E-1,-3.7379954E-2,-1.0645362E-2,-2.014972E-2,-5.863972E-2,-1.4545748E-2,5.786173E-2,1.1188303E-1,2.5222762E-2,-1.470461E-2,1.829785E-2,3.000786E-2,-1.4598012E-1,-3.3335403E-1,-1.9046648E-1,-6.787793E-2,-2.4619113E-1,-2.8017811E-2,1.18086234E-1,-2.3959655E-1,-5.5223297E-2,-2.7941585E-1,3.3889984E-4,-4.284351E-2,1.0703329E-1,-1.4106113E-1,5.9919704E-2,3.6407497E-2,-1.3589619E-2,-3.5191465E-2,7.82265E-3,-3.638437E-2,1.3130457E-2,-8.515868E-3,-6.343121E-2,1.8525671E-2,7.622464E-2,-4.4787563E-2,4.2886157E-2,3.2652777E-2,-3.308727E-2,-4.644341E-2,1.5501317E-2,-8.2602054E-2,-3.2375392E-1,9.98151E-3,1.3200669E-1,-8.639408E-3,-2.3021048E-1,7.330324E-2,-6.548908E-2,-5.1657256E-2,-1.8915952E-3,6.303443E-2,-4.6213493E-3,2.4979205E-1,-9.5727384E-2,5.814738E-2,-4.1019493E-3],"split_indices":[22,21,90,11,85,85,90,87,13,50,56,26,34,51,38,53,63,8,20,78,46,89,70,31,83,91,24,48,58,32,90,53,30,62,16,12,14,83,14,73,21,60,25,21,85,34,35,24,43,64,90,90,91,43,73,89,89,26,75,63,35,38,41,0,0,0,0,0,0,0,0,0,0,0,0,0,0,0,0,0,0,0,0,0,0,0,0,0,0,0,0,0,0,0,0,0,0,0,0,0,0,0,0,0,0,0,0,0,0,0,0,0,0,0,0,0,0,0,0,0,0,0,0,0,0,0,0],"split_type":[0,0,0,0,0,0,0,0,0,0,0,0,0,0,0,0,0,0,0,0,0,0,0,0,0,0,0,0,0,0,0,0,0,0,0,0,0,0,0,0,0,0,0,0,0,0,0,0,0,0,0,0,0,0,0,0,0,0,0,0,0,0,0,0,0,0,0,0,0,0,0,0,0,0,0,0,0,0,0,0,0,0,0,0,0,0,0,0,0,0,0,0,0,0,0,0,0,0,0,0,0,0,0,0,0,0,0,0,0,0,0,0,0,0,0,0,0,0,0,0,0,0,0,0,0,0,0],"sum_hessian":[5.20563E5,2.2223E4,4.9834E5,1.9445E4,2.778E3,1.97529E5,3.00811E5,9.949E3,9.496E3,1.476E3,1.302E3,1.25497E5,7.2032E4,2.51127E5,4.9684E4,1.289E3,8.66E3,3.744E3,5.752E3,6.9E1,1.407E3,8.83E2,4.19E2,6.2511E4,6.2986E4,4.4912E4,2.712E4,2.49391E5,1.736E3,4.0151E4,9.533E3,2.63E2,1.026E3,3.77E2,8.283E3,3.329E3,4.15E2,1.394E3,4.358E3,3.5E1,3.4E1,1.86E2,1.221E3,7.6E2,1.23E2,1.69E2,2.5E2,2.514E4,3.7371E4,3.5656E4,2.733E4,3.5371E4,9.541E3,1.2894E4,1.4226E4,6.17E2,2.48774E5,7.2E2,1.016E3,2.7042E4,1.3109E4,5.85E2,8.948E3,2.28E2,3.5E1,7.85E2,2.41E2,1.8E1,3.59E2,4.785E3,3.498E3,2.474E3,8.55E2,1.63E2,2.52E2,2.16E2,1.178E3,1.936E3,2.422E3,1.1E1,2.4E1,2.7E1,7E0,1.32E2,5.4E1,1.119E3,1.02E2,6.5E2,1.1E2,8E0,1.15E2,4.1E1,1.28E2,1.75E2,7.5E1,1.9178E4,5.962E3,1.8818E4,1.8553E4,1.6863E4,1.8793E4,6.786E3,2.0544E4,3.0852E4,4.519E3,6.408E3,3.133E3,8.428E3,4.466E3,1.0236E4,3.99E3,4.32E2,1.85E2,2.48001E5,7.73E2,1.88E2,5.32E2,2.29E2,7.87E2,1.7872E4,9.17E3,2.648E3,1.0461E4,4.61E2,1.24E2,3.399E3,5.549E3],"tree_param":{"num_deleted":"0","num_feature":"92","num_nodes":"127","size_leaf_vector":"1"}},{"base_weights":[-1.3682676E-2,-2.6641014E0,1.0474792E-1,-1.8923E0,-8.32952E0,2.866649E-1,-1.4429256E0,-3.2727783E0,-1.0558603E-1,-1.374492E1,-4.685837E0,-2.4786644E0,4.3827978E-1,-2.2890759E0,1.8978724E0,-4.221031E0,-1.069822E0,-1.7966068E0,1.5429276E0,-5.0294886E0,-1.8820429E1,-1.9419846E1,-2.9206543E0,4.4426627E0,-3.669655E0,5.730393E-1,-2.8432345E0,1.4577622E0,-3.088075E0,4.134908E0,-1.482077E-1,-2.464553E0,-5.4738884E0,-2.389007E0,1.4915414E0,-1.9565909E0,1.3107398E1,1.0351837E0,7.2838116E0,-9.40447E0,4.3456254E0,-2.2525097E1,-3.8633027E0,-9.32417E0,-2.9524479E1,9.342198E0,-4.185351E0,9.44461E0,8.164736E-3,2.1233368E0,-5.460796E0,7.0364106E-1,-2.7844403E0,2.2517331E-1,-6.7960486E0,3.114439E-1,1.9237827E1,-1.305031E-1,-4.1688128E0,1.0751172E0,9.135925E0,-3.3937848E0,3.3504498E0,-3.8466454E-2,-9.796119E-3,-7.1170315E-2,-3.476244E-2,-7.912394E-3,-4.600432E-2,-4.028084E-2,3.2888472E-2,-1.1379061E-2,-3.940341E-2,3.6181307E-1,9.3183756E-2,-1.812222E-2,1.9599892E-2,-1.4049225E-2,1.1505834E-1,-7.5806744E-2,-2.8739715E-1,-1.0788879E-1,1.22216076E-1,-2.5634217E-1,-8.2907185E-2,-2.3754312E-1,2.7400723E-2,-1.8755008E-1,-3.213379E-2,-3.4056175E-1,-6.105488E-2,4.490063E-2,3.6774364E-1,-1.3977394E-1,-2.3767853E-2,-9.725703E-2,1.1563677E-1,-2.4264056E-2,1.9929631E-1,5.504021E-2,-2.1035347E-2,-9.003252E-2,-2.208585E-2,7.7346787E-3,-4.9234904E-2,-6.314834E-2,2.5661932E-3,4.85906E-2,-2.7212102E-2,-4.048167E-2,-1.4738719E-1,-2.2948436E-2,6.72276E-2,5.7341737E-1,4.3861613E-2,-3.9394133E-2,2.6485128E-2,-4.46032E-2,7.21115E-2,-1.7245375E-2,6.713632E-2,1.3771391E-1,7.693294E-3,-6.1298446E-3,-1.04372576E-1,4.2107725E-3,1.07449E-1],"categories":[],"categories_nodes":[],"categories_segments":[],"categories_sizes":[],"default_left":[0,0,0,0,0,0,0,0,0,0,0,0,0,0,0,0,0,0,0,0,0,0,0,0,0,0,0,0,0,0,0,0,0,0,0,0,0,0,0,0,0,0,0,0,0,0,0,0,0,0,0,0,0,0,0,0,0,0,0,0,0,0,0,0,0,0,0,0,0,0,0,0,0,0,0,0,0,0,0,0,0,0,0,0,0,0,0,0,0,0,0,0,0,0,0,0,0,0,0,0,0,0,0,0,0,0,0,0,0,0,0,0,0,0,0,0,0,0,0,0,0,0,0,0,0,0,0],"id":9,"left_children":[1,3,5,7,9,11,13,15,17,19,21,23,25,27,29,31,33,35,37,39,41,43,45,47,49,51,53,55,57,59,61,63,65,67,69,71,73,75,77,79,81,83,85,87,89,91,93,95,97,99,101,103,105,107,109,111,113,115,117,119,121,123,125,-1,-1,-1,-1,-1,-1,-1,-1,-1,-1,-1,-1,-1,-1,-1,-1,-1,-1,-1,-1,-1,-1,-1,-1,-1,-1,-1,-1,-1,-1,-1,-1,-1,-1,-1,-1,-1,-1,-1,-1,-1,-1,-1,-1,-1,-1,-1,-1,-1,-1,-1,-1,-1,-1,-1,-1,-1,-1,-1,-1,-1,-1,-1,-1],"loss_changes":[1.636877E5,9.75145E4,1.4054217E5,4.8422336E4,5.2698766E4,1.8727542E5,1.4842073E5,2.3130648E4,2.3859662E4,4.7458016E4,4.1556207E4,1.913995E5,1.8726078E5,1.2542047E5,4.856884E4,1.702361E4,1.1268865E4,1.0099641E4,1.2625548E4,1.632425E4,3.753692E4,1.7168562E4,2.221662E4,7.561529E4,2.055511E5,1.7836061E5,2.0260186E5,1.5008403E5,1.1036972E5,7.755626E4,6.2953035E4,6.6149336E3,1.4805109E4,7.7731963E3,1.1263039E4,6.7856855E3,3.5966343E3,1.0491973E4,1.2929045E4,9.3381875E3,1.5270158E4,2.3862594E4,1.79286E4,4.9533135E3,8.812531E3,1.767048E4,2.2935906E4,6.5190844E4,8.773693E4,6.687321E4,1.7430144E5,1.5384358E5,1.6351308E5,1.28421664E5,1.592664E5,1.15630125E5,2.5214217E5,9.783722E4,8.392428E4,4.9674047E4,7.4607875E4,5.6324246E4,5.778718E4,0E0,0E0,0E0,0E0,0E0,0E0,0E0,0E0,0E0,0E0,0E0,0E0,0E0,0E0,0E0,0E0,0E0,0E0,0E0,0E0,0E0,0E0,0E0,0E0,0E0,0E0,0E0,0E0,0E0,0E0,0E0,0E0,0E0,0E0,0E0,0E0,0E0,0E0,0E0,0E0,0E0,0E0,0E0,0E0,0E0,0E0,0E0,0E0,0E0,0E0,0E0,0E0,0E0,0E0,0E0,0E0,0E0,0E0,0E0,0E0,0E0,0E0,0E0,0E0],"parents":[2147483647,0,0,1,1,2,2,3,3,4,4,5,5,6,6,7,7,8,8,9,9,10,10,11,11,12,12,13,13,14,14,15,15,16,16,17,17,18,18,19,19,20,20,21,21,22,22,23,23,24,24,25,25,26,26,27,27,28,28,29,29,30,30,31,31,32,32,33,33,34,34,35,35,36,36,37,37,38,38,39,39,40,40,41,41,42,42,43,43,44,44,45,45,46,46,47,47,48,48,49,49,50,50,51,51,52,52,53,53,54,54,55,55,56,56,57,57,58,58,59,59,60,60,61,61,62,62],"right_children":[2,4,6,8,10,12,14,16,18,20,22,24,26,28,30,32,34,36,38,40,42,44,46,48,50,52,54,56,58,60,62,64,66,68,70,72,74,76,78,80,82,84,86,88,90,92,94,96,98,100,102,104,106,108,110,112,114,116,118,120,122,124,126,-1,-1,-1,-1,-1,-1,-1,-1,-1,-1,-1,-1,-1,-1,-1,-1,-1,-1,-1,-1,-1,-1,-1,-1,-1,-1,-1,-1,-1,-1,-1,-1,-1,-1,-1,-1,-1,-1,-1,-1,-1,-1,-1,-1,-1,-1,-1,-1,-1,-1,-1,-1,-1,-1,-1,-1,-1,-1,-1,-1,-1,-1,-1,-1],"split_conditions":[-1.0718167E0,-5.548781E-1,1.1206261E0,3.4022018E-1,0E0,-1.2002288E0,1.2700013E0,3.195158E-1,2.4960397E-1,1.4381841E-1,-1.1547005E0,-1.3363062E0,1.2707251E0,-1.1668284E0,-3.4641016E-1,1.2477526E-2,7.4972075E-1,8.642727E-1,1.2403474E0,-1.1176469E0,8.4261495E-1,-1.0359313E0,-1.1021311E0,-7.5524193E-1,-1.1963552E0,1.2573609E0,-7.615773E-1,-1.1809981E0,-1.1406305E0,1.2544446E0,7.81025E-1,4.9380505E-1,1.542366E-1,4.440892E-8,-6.480741E-1,4.358899E-1,5.101856E-1,-5.3851646E-1,-1.2479155E0,1.1206251E0,-5E-1,8.717798E-1,-9.949874E-1,-1.4768332E0,1.0676715E0,-1.118034E0,-4.1231057E-1,-1.7816238E0,1.8569534E0,6.78233E-1,3.6055514E-1,1.4215623E0,-3.8729835E-1,-1.0660323E0,1.436099E0,1.2164656E0,-1.2124672E0,-2.3003235E-1,1.8530301E0,1.4065826E0,1.3867505E0,-9.9292105E-1,-1.3483998E0,-3.8466454E-2,-9.796119E-3,-7.1170315E-2,-3.476244E-2,-7.912394E-3,-4.600432E-2,-4.028084E-2,3.2888472E-2,-1.1379061E-2,-3.940341E-2,3.6181307E-1,9.3183756E-2,-1.812222E-2,1.9599892E-2,-1.4049225E-2,1.1505834E-1,-7.5806744E-2,-2.8739715E-1,-1.0788879E-1,1.22216076E-1,-2.5634217E-1,-8.2907185E-2,-2.3754312E-1,2.7400723E-2,-1.8755008E-1,-3.213379E-2,-3.4056175E-1,-6.105488E-2,4.490063E-2,3.6774364E-1,-1.3977394E-1,-2.3767853E-2,-9.725703E-2,1.1563677E-1,-2.4264056E-2,1.9929631E-1,5.504021E-2,-2.1035347E-2,-9.003252E-2,-2.208585E-2,7.7346787E-3,-4.9234904E-2,-6.314834E-2,2.5661932E-3,4.85906E-2,-2.7212102E-2,-4.048167E-2,-1.4738719E-1,-2.2948436E-2,6.72276E-2,5.7341737E-1,4.3861613E-2,-3.9394133E-2,2.6485128E-2,-4.46032E-2,7.21115E-2,-1.7245375E-2,6.713632E-2,1.3771391E-1,7.693294E-3,-6.1298446E-3,-1.04372576E-1,4.2107725E-3,1.07449E-1],"split_indices":[22,21,81,13,45,83,89,8,14,85,52,27,43,83,28,12,4,20,63,22,56,49,78,47,58,72,81,83,74,52,62,4,18,23,87,55,13,87,61,90,37,33,54,49,36,78,85,56,49,30,58,61,42,64,42,74,80,91,33,37,66,27,80,0,0,0,0,0,0,0,0,0,0,0,0,0,0,0,0,0,0,0,0,0,0,0,0,0,0,0,0,0,0,0,0,0,0,0,0,0,0,0,0,0,0,0,0,0,0,0,0,0,0,0,0,0,0,0,0,0,0,0,0,0,0,0,0],"split_type":[0,0,0,0,0,0,0,0,0,0,0,0,0,0,0,0,0,0,0,0,0,0,0,0,0,0,0,0,0,0,0,0,0,0,0,0,0,0,0,0,0,0,0,0,0,0,0,0,0,0,0,0,0,0,0,0,0,0,0,0,0,0,0,0,0,0,0,0,0,0,0,0,0,0,0,0,0,0,0,0,0,0,0,0,0,0,0,0,0,0,0,0,0,0,0,0,0,0,0,0,0,0,0,0,0,0,0,0,0,0,0,0,0,0,0,0,0,0,0,0,0,0,0,0,0,0,0],"sum_hessian":[5.21478E5,2.2304E4,4.99174E5,1.9631E4,2.673E3,4.46672E5,5.2502E4,1.1074E4,8.557E3,1.074E3,1.599E3,2.3216E4,4.23456E5,4.1892E4,1.061E4,7.741E3,3.333E3,4.224E3,4.333E3,3.96E2,6.78E2,1.7E2,1.429E3,3.408E3,1.9808E4,4.06753E5,1.6703E4,7.363E3,3.4529E4,5.068E3,5.542E3,3.224E3,4.517E3,2.2E3,1.133E3,4.18E3,4.4E1,3.982E3,3.51E2,2.7E2,1.26E2,5.43E2,1.35E2,8.6E1,8.4E1,1.33E2,1.296E3,1.601E3,1.807E3,4.678E3,1.513E4,3.91524E5,1.5229E4,9.404E3,7.299E3,6.918E3,4.45E2,9.241E3,2.5288E4,3.145E3,1.923E3,2.875E3,2.667E3,1.669E3,1.555E3,2.477E3,2.04E3,1.278E3,9.22E2,2.78E2,8.55E2,2.96E3,1.22E3,5E0,3.9E1,9.76E2,3.006E3,1.15E2,2.36E2,2.48E2,2.2E1,4.3E1,8.3E1,4.45E2,9.8E1,3.3E1,1.02E2,3.3E1,5.3E1,7E1,1.4E1,1.14E2,1.9E1,2.01E2,1.095E3,1.59E2,1.442E3,1.611E3,1.96E2,2.599E3,2.079E3,7.241E3,7.889E3,3.86726E5,4.798E3,7.047E3,8.182E3,3.655E3,5.749E3,5.424E3,1.875E3,4.919E3,1.999E3,1.24E2,3.21E2,3.898E3,5.343E3,2.4657E4,6.31E2,2.102E3,1.043E3,1.237E3,6.86E2,2.062E3,8.13E2,1.911E3,7.56E2],"tree_param":{"num_deleted":"0","num_feature":"92","num_nodes":"127","size_leaf_vector":"1"}},{"base_weights":[2.2987349E-2,-6.168095E-1,4.4117147E-1,-1.2347599E0,4.3266886E-1,7.625058E-1,-1.1542785E0,-3.747144E0,-2.4750419E-1,-6.7787254E-1,1.9037715E0,-9.566635E0,8.33367E-1,-1.828076E0,3.069746E0,2.6880944E-1,-5.620408E0,-1.5670826E0,1.1537126E0,1.4139966E0,-2.1284633E0,4.8751345E0,-3.3393437E-1,-1.6083364E1,4.7779427E0,8.79588E-1,-9.737859E0,-3.5507102E0,1.2215657E-1,-2.1752585E-1,6.7128E0,1.8532367E0,-9.702814E0,-2.0009518E1,-5.149397E0,-3.9593155E0,5.459232E-1,3.0197058E0,-5.3804237E-1,1.1969993E0,2.7841915E1,-4.008126E0,1.2149264E-1,8.66101E0,-2.1314134E-1,-1.3997422E0,3.7176394E0,-2.0396147E1,1.14553E0,1.3390773E1,-8.0908877E-1,-1.527938E1,9.1492796E-1,-2.2769575E1,-2.9559937E0,-5.7256484E0,9.5311415E-1,-1.537043E0,3.399418E0,-3.8028708E0,4.3345375E0,5.316964E0,1.8667294E1,4.0388063E-2,-7.342301E-2,1.39326975E-2,-1.458115E-1,-1.1198619E-1,-2.9829723E-1,-4.0553022E-2,-1.1274199E-1,-2.3066355E-2,-7.676733E-2,1.6450785E-2,-5.8203444E-2,-1.04908105E-2,4.5145568E-2,-7.685545E-3,2.585311E-1,5.5089597E-2,-1.9830654E-3,1.2415569E-1,3.0354235E-1,-6.5652505E-2,-1.1485068E-2,5.572687E-2,-2.438308E-2,2.2836229E-2,1.251812E-1,7.2334096E-2,-2.6454942E-2,1.2203438E-2,-3.3772763E-2,-2.4778495E-2,6.7407206E-2,-2.5617552E-1,-5.3890422E-2,-9.8873764E-2,4.896544E-2,-5.455341E-3,1.6490816E-1,4.207151E-2,-7.04113E-2,9.101395E-2,-2.0852248E-1,2.1229502E-2,5.2285963E-3,1.0175435E-2,-2.995705E-1,-1.1363957E-1,7.362403E-3,-8.049324E-2,-2.1733386E-2,6.427118E-2,-2.197281E-2,-3.4738243E-2,2.9644707E-2,4.8844352E-2,-6.879918E-2,-8.1176765E-2,6.750541E-2,-3.5510406E-2,7.949284E-2,8.991434E-2,1.3905209E-2,2.878805E-1,9.254697E-2],"categories":[],"categories_nodes":[],"categories_segments":[],"categories_sizes":[],"default_left":[0,0,0,0,0,0,0,0,0,0,0,0,0,0,0,0,0,0,0,0,0,0,0,0,0,0,0,0,0,0,0,0,0,0,0,0,0,0,0,0,0,0,0,0,0,0,0,0,0,0,0,0,0,0,0,0,0,0,0,0,0,0,0,0,0,0,0,0,0,0,0,0,0,0,0,0,0,0,0,0,0,0,0,0,0,0,0,0,0,0,0,0,0,0,0,0,0,0,0,0,0,0,0,0,0,0,0,0,0,0,0,0,0,0,0,0,0,0,0,0,0,0,0,0,0,0,0],"id":10,"left_children":[1,3,5,7,9,11,13,15,17,19,21,23,25,27,29,31,33,35,37,39,41,43,45,47,49,51,53,55,57,59,61,63,65,67,69,71,73,75,77,79,81,83,85,87,89,91,93,95,97,99,101,103,105,107,109,111,113,115,117,119,121,123,125,-1,-1,-1,-1,-1,-1,-1,-1,-1,-1,-1,-1,-1,-1,-1,-1,-1,-1,-1,-1,-1,-1,-1,-1,-1,-1,-1,-1,-1,-1,-1,-1,-1,-1,-1,-1,-1,-1,-1,-1,-1,-1,-1,-1,-1,-1,-1,-1,-1,-1,-1,-1,-1,-1,-1,-1,-1,-1,-1,-1,-1,-1,-1,-1],"loss_changes":[1.3940067E5,1.3355919E5,1.6153336E5,3.21504E5,1.2469175E5,1.9196439E5,1.503414E5,2.750854E5,1.7206195E5,1.3197712E5,2.1830281E5,1.6712528E5,1.2727883E5,1.5304417E5,8.7029E4,1.837955E5,1.6889181E5,2.422485E5,1.424745E5,1.0210289E5,1.0861797E5,2.7169547E5,8.088074E4,9.134372E4,2.6910129E4,1.4811195E5,1.00154586E5,2.3694978E5,1.1619109E5,6.2377934E4,5.7418906E4,2.0176822E5,8.6358484E4,6.802016E4,1.6175925E5,1.3807416E5,1.7808233E5,1.305355E5,1.4402777E5,1.0628871E5,5.2423203E3,1.0231484E5,1.631495E5,1.9889756E5,1.0902095E5,7.683778E4,7.308039E4,7.688772E4,1.0270357E4,9.513852E3,1.0658531E4,7.709281E4,1.225618E5,6.636692E4,2.3198465E4,1.3462844E5,1.3587247E5,1.2369022E5,1.09666766E5,9.7410625E4,4.8029633E4,4.4539812E4,3.4027742E4,0E0,0E0,0E0,0E0,0E0,0E0,0E0,0E0,0E0,0E0,0E0,0E0,0E0,0E0,0E0,0E0,0E0,0E0,0E0,0E0,0E0,0E0,0E0,0E0,0E0,0E0,0E0,0E0,0E0,0E0,0E0,0E0,0E0,0E0,0E0,0E0,0E0,0E0,0E0,0E0,0E0,0E0,0E0,0E0,0E0,0E0,0E0,0E0,0E0,0E0,0E0,0E0,0E0,0E0,0E0,0E0,0E0,0E0,0E0,0E0,0E0,0E0,0E0,0E0],"parents":[2147483647,0,0,1,1,2,2,3,3,4,4,5,5,6,6,7,7,8,8,9,9,10,10,11,11,12,12,13,13,14,14,15,15,16,16,17,17,18,18,19,19,20,20,21,21,22,22,23,23,24,24,25,25,26,26,27,27,28,28,29,29,30,30,31,31,32,32,33,33,34,34,35,35,36,36,37,37,38,38,39,39,40,40,41,41,42,42,43,43,44,44,45,45,46,46,47,47,48,48,49,49,50,50,51,51,52,52,53,53,54,54,55,55,56,56,57,57,58,58,59,59,60,60,61,61,62,62],"right_children":[2,4,6,8,10,12,14,16,18,20,22,24,26,28,30,32,34,36,38,40,42,44,46,48,50,52,54,56,58,60,62,64,66,68,70,72,74,76,78,80,82,84,86,88,90,92,94,96,98,100,102,104,106,108,110,112,114,116,118,120,122,124,126,-1,-1,-1,-1,-1,-1,-1,-1,-1,-1,-1,-1,-1,-1,-1,-1,-1,-1,-1,-1,-1,-1,-1,-1,-1,-1,-1,-1,-1,-1,-1,-1,-1,-1,-1,-1,-1,-1,-1,-1,-1,-1,-1,-1,-1,-1,-1,-1,-1,-1,-1,-1,-1,-1,-1,-1,-1,-1,-1,-1,-1,-1,-1,-1],"split_conditions":[-4.0594283E-2,2.9482278E-1,1.1206251E0,7.735236E-2,2.928258E-1,-1.4768332E0,1.393222E0,-2E-1,1.0624627E-1,-3.8729835E-1,9.768521E-1,1.0124066E0,1.6012815E0,1.741734E-1,5.830952E-1,9.899817E-1,-1.6296164E0,-1.0661291E-1,-2.4494897E-1,-4E-1,1.7320508E-1,3.7416574E-1,1.2216945E0,7E-1,3.7416574E-1,-1.5914551E0,-5.2915025E-1,7.211103E-1,8.46127E-1,4.7958314E-1,1.8011744E0,-2E-1,-5.5677646E-1,-6.00559E-1,1.0599979E0,-5.4320717E-1,9.797959E-1,-7.937254E-1,-1.2194477E-1,-1.000104E0,-2.07336E0,1E-1,-6.4336187E-1,-6.78233E-1,-7.211103E-1,-9.643852E-1,-1.3613043E0,9.4244534E-1,-1.03155E0,-1.0774406E0,-8.921191E-2,-1.3245324E0,-2.6327157E-1,-9.189032E-1,1.6564071E0,6.543281E-1,-4.8412988E-1,7.745967E-1,1.3327094E0,1.4849387E0,-1.5811388E0,5.0990194E-1,-1.8562704E0,4.0388063E-2,-7.342301E-2,1.39326975E-2,-1.458115E-1,-1.1198619E-1,-2.9829723E-1,-4.0553022E-2,-1.1274199E-1,-2.3066355E-2,-7.676733E-2,1.6450785E-2,-5.8203444E-2,-1.04908105E-2,4.5145568E-2,-7.685545E-3,2.585311E-1,5.5089597E-2,-1.9830654E-3,1.2415569E-1,3.0354235E-1,-6.5652505E-2,-1.1485068E-2,5.572687E-2,-2.438308E-2,2.2836229E-2,1.251812E-1,7.2334096E-2,-2.6454942E-2,1.2203438E-2,-3.3772763E-2,-2.4778495E-2,6.7407206E-2,-2.5617552E-1,-5.3890422E-2,-9.8873764E-2,4.896544E-2,-5.455341E-3,1.6490816E-1,4.207151E-2,-7.04113E-2,9.101395E-2,-2.0852248E-1,2.1229502E-2,5.2285963E-3,1.0175435E-2,-2.995705E-1,-1.1363957E-1,7.362403E-3,-8.049324E-2,-2.1733386E-2,6.427118E-2,-2.197281E-2,-3.4738243E-2,2.9644707E-2,4.8844352E-2,-6.879918E-2,-8.1176765E-2,6.750541E-2,-3.5510406E-2,7.949284E-2,8.991434E-2,1.3905209E-2,2.878805E-1,9.254697E-2],"split_indices":[90,85,90,84,61,49,56,23,27,34,61,23,51,43,31,36,64,64,42,34,80,47,68,56,43,48,58,42,59,30,84,84,52,84,29,27,65,66,90,57,23,73,43,86,56,58,35,85,79,28,83,39,74,36,51,31,51,50,35,39,65,52,34,0,0,0,0,0,0,0,0,0,0,0,0,0,0,0,0,0,0,0,0,0,0,0,0,0,0,0,0,0,0,0,0,0,0,0,0,0,0,0,0,0,0,0,0,0,0,0,0,0,0,0,0,0,0,0,0,0,0,0,0,0,0,0,0],"split_type":[0,0,0,0,0,0,0,0,0,0,0,0,0,0,0,0,0,0,0,0,0,0,0,0,0,0,0,0,0,0,0,0,0,0,0,0,0,0,0,0,0,0,0,0,0,0,0,0,0,0,0,0,0,0,0,0,0,0,0,0,0,0,0,0,0,0,0,0,0,0,0,0,0,0,0,0,0,0,0,0,0,0,0,0,0,0,0,0,0,0,0,0,0,0,0,0,0,0,0,0,0,0,0,0,0,0,0,0,0,0,0,0,0,0,0,0,0,0,0,0,0,0,0,0,0,0,0],"sum_hessian":[5.21019E5,2.05941E5,3.15078E5,1.29619E5,7.6322E4,2.62258E5,5.282E4,3.6565E4,9.3054E4,4.3491E4,3.2831E4,1.786E3,2.60472E5,4.5554E4,7.266E3,1.1631E4,2.4934E4,4.7923E4,4.5131E4,1.7809E4,2.5682E4,1.4103E4,1.8728E4,1.228E3,5.58E2,2.59339E5,1.133E3,2.4188E4,2.1366E4,3.82E3,3.446E3,1.0037E4,1.594E3,7.89E2,2.4145E4,2.2476E4,2.5447E4,2.146E4,2.3671E4,1.7665E4,1.44E2,1.3992E4,1.169E4,8.086E3,6.017E3,1.4828E4,3.9E3,9.82E2,2.46E2,2.19E2,3.39E2,5.65E2,2.58774E5,3.87E2,7.46E2,1.6311E4,7.877E3,1.4185E4,7.181E3,2.137E3,1.683E3,3.087E3,3.59E2,8.11E3,1.927E3,4.87E2,1.107E3,4.17E2,3.72E2,2.0487E4,3.658E3,1.556E4,6.916E3,2.1701E4,3.746E3,5.766E3,1.5694E4,2.3467E4,2.04E2,4.318E3,1.3347E4,2.1E1,1.23E2,7.386E3,6.606E3,3.735E3,7.955E3,3.048E3,5.038E3,1.481E3,4.536E3,6.378E3,8.45E3,1.279E3,2.621E3,7.28E2,2.54E2,6.2E1,1.84E2,4E1,1.79E2,1.88E2,1.51E2,1.05E2,4.6E2,6.3406E4,1.95368E5,9E1,2.97E2,2.27E2,5.19E2,9.86E3,6.451E3,2.877E3,5E3,9.918E3,4.267E3,6.275E3,9.06E2,1.517E3,6.2E2,5.29E2,1.154E3,1.594E3,1.493E3,1.72E2,1.87E2],"tree_param":{"num_deleted":"0","num_feature":"92","num_nodes":"127","size_leaf_vector":"1"}},{"base_weights":[-2.777468E-3,1.809122E-1,-1.5624125E0,-5.263474E-1,7.3859274E-1,1.800344E0,-2.5049617E0,5.0693774E-1,-1.3765936E0,8.4120667E-1,-7.184059E0,6.165912E0,-1.1698607E-2,-3.2756715E0,2.0220602E0,-2.3841175E-1,2.5107045E0,-4.4702015E0,-9.755318E-1,-1.011675E1,9.0566427E-1,-9.068673E0,9.048646E0,1.8149272E0,1.1067219E1,3.3229694E0,-2.9296248E0,-1.1662189E0,-4.579953E0,-1.0887609E-1,6.427591E0,-1.517293E0,1.7758824E0,-7.616762E0,3.5651498E0,-3.773953E0,-2.2485178E1,5.375272E-1,-1.7798908E0,-1.937369E1,-3.476516E0,-1.2937236E1,9.5352584E-1,-7.576567E0,-3.1481678E1,1.7395784E1,-2.0944256E1,-2.2268825E0,7.632566E0,3.520436E1,8.083453E0,2.2840486E0,2.5401743E1,-2.7358385E1,-2.1785846E0,-1.4530969E0,2.3648787E1,-5.97723E0,-1.0142365E0,3.878935E0,-3.593724E0,1.2462462E1,-5.6748677E-2,3.3954076E-2,-2.4302606E-2,3.9349884E-2,-4.6324063E-4,-2.3858702E-2,-1.5275733E-1,6.403749E-3,6.359265E-2,1.8751254E-2,-5.534208E-2,-2.9487595E-1,-4.6871565E-2,-6.8907356E-3,4.2988002E-2,1.0075574E-2,-2.5058886E-2,-2.927905E-1,-8.2357645E-2,-8.068527E-3,-2.468928E-1,1.056759E-2,-2.5401986E-1,1.0053259E-2,-1.2873942E-1,-5.4703515E-2,-2.1524638E-1,-3.7006474E-1,-1.8328778E-1,1.0609719E-1,3.3839974E-1,-5.4850936E-2,-2.4975112E-1,1.3852094E-2,-1.69813E-1,3.2381153E-1,6.296251E-2,2.4071074E-1,5.48738E-1,1.1715947E-1,-7.221703E-3,8.535838E-2,-6.3094487E-3,3.9308208E-1,1.6855806E-1,-3.075801E-1,-1.9510988E-2,-3.9964743E-2,3.5947997E-2,6.617575E-2,-2.3962634E-2,2.7042933E-2,5.759617E-1,-1.0541964E-1,-4.8514213E-2,-7.7274576E-2,1.5047057E-2,9.0691514E-2,-2.3769988E-2,-2.1447627E-1,-1.6912859E-2,1.7634714E-2,1.8753311E-1,8.2904644E-2,-7.293027E-2],"categories":[],"categories_nodes":[],"categories_segments":[],"categories_sizes":[],"default_left":[0,0,0,0,0,0,0,0,0,0,0,0,0,0,0,0,0,0,0,0,0,0,0,0,0,0,0,0,0,0,0,0,0,0,0,0,0,0,0,0,0,0,0,0,0,0,0,0,0,0,0,0,0,0,0,0,0,0,0,0,0,0,0,0,0,0,0,0,0,0,0,0,0,0,0,0,0,0,0,0,0,0,0,0,0,0,0,0,0,0,0,0,0,0,0,0,0,0,0,0,0,0,0,0,0,0,0,0,0,0,0,0,0,0,0,0,0,0,0,0,0,0,0,0,0,0,0],"id":11,"left_children":[1,3,5,7,9,11,13,15,17,19,21,23,25,27,29,31,33,35,37,39,41,43,45,47,49,51,53,55,57,59,61,63,65,67,69,71,73,75,77,79,81,83,85,87,89,91,93,95,97,99,101,103,105,107,109,111,113,115,117,119,121,123,125,-1,-1,-1,-1,-1,-1,-1,-1,-1,-1,-1,-1,-1,-1,-1,-1,-1,-1,-1,-1,-1,-1,-1,-1,-1,-1,-1,-1,-1,-1,-1,-1,-1,-1,-1,-1,-1,-1,-1,-1,-1,-1,-1,-1,-1,-1,-1,-1,-1,-1,-1,-1,-1,-1,-1,-1,-1,-1,-1,-1,-1,-1,-1,-1],"loss_changes":[1.4919967E5,1.8376808E5,1.7393116E5,1.8046302E5,2.11789E5,9.503803E4,1.495495E5,1.38486E5,1.3980823E5,1.8165706E5,1.019853E5,7.513089E4,8.262984E4,1.0076447E5,5.8543742E4,1.7410712E5,2.684937E5,1.6211962E5,1.2140704E5,9.238066E4,1.6940525E5,9.958722E4,8.723746E4,4.3940805E4,1.1905141E5,9.0845375E4,8.303358E4,9.9662875E4,1.1275309E5,5.8436566E4,7.955649E4,1.8542381E5,1.03264766E5,9.495334E4,1.8607594E5,1.2383081E5,5.9808062E4,1.5974823E5,1.3180697E5,6.90427E4,4.9645156E4,1.5370136E5,1.8251034E5,8.213939E4,1.2837234E4,2.9993367E4,4.598543E3,5.880731E4,2.5128828E4,3.8533703E4,4.722046E4,6.900124E4,2.0491062E4,1.160032E4,4.6141543E4,1.0533529E5,1.1360535E5,8.3509125E4,1.0778049E5,6.369461E4,7.618308E4,7.083966E4,5.931556E4,0E0,0E0,0E0,0E0,0E0,0E0,0E0,0E0,0E0,0E0,0E0,0E0,0E0,0E0,0E0,0E0,0E0,0E0,0E0,0E0,0E0,0E0,0E0,0E0,0E0,0E0,0E0,0E0,0E0,0E0,0E0,0E0,0E0,0E0,0E0,0E0,0E0,0E0,0E0,0E0,0E0,0E0,0E0,0E0,0E0,0E0,0E0,0E0,0E0,0E0,0E0,0E0,0E0,0E0,0E0,0E0,0E0,0E0,0E0,0E0,0E0,0E0,0E0,0E0],"parents":[2147483647,0,0,1,1,2,2,3,3,4,4,5,5,6,6,7,7,8,8,9,9,10,10,11,11,12,12,13,13,14,14,15,15,16,16,17,17,18,18,19,19,20,20,21,21,22,22,23,23,24,24,25,25,26,26,27,27,28,28,29,29,30,30,31,31,32,32,33,33,34,34,35,35,36,36,37,37,38,38,39,39,40,40,41,41,42,42,43,43,44,44,45,45,46,46,47,47,48,48,49,49,50,50,51,51,52,52,53,53,54,54,55,55,56,56,57,57,58,58,59,59,60,60,61,61,62,62],"right_children":[2,4,6,8,10,12,14,16,18,20,22,24,26,28,30,32,34,36,38,40,42,44,46,48,50,52,54,56,58,60,62,64,66,68,70,72,74,76,78,80,82,84,86,88,90,92,94,96,98,100,102,104,106,108,110,112,114,116,118,120,122,124,126,-1,-1,-1,-1,-1,-1,-1,-1,-1,-1,-1,-1,-1,-1,-1,-1,-1,-1,-1,-1,-1,-1,-1,-1,-1,-1,-1,-1,-1,-1,-1,-1,-1,-1,-1,-1,-1,-1,-1,-1,-1,-1,-1,-1,-1,-1,-1,-1,-1,-1,-1,-1,-1,-1,-1,-1,-1,-1,-1,-1,-1,-1,-1,-1],"split_conditions":[1.1206261E0,0E0,-1.230915E0,-2.236068E-1,1.436099E0,-7.416198E-1,1.2700013E0,-6.244998E-1,2.1205004E-1,-1.5004679E0,1.1181267E0,-3.3704492E-1,1.039862E-1,-6.928203E-1,1.1862328E0,6.758549E-1,-9.1104335E-1,1.4142135E0,-5.837659E-1,3.219799E-2,-1.4907119E0,1.0259783E0,1.0198039E0,1.2538291E0,1.3643448E-1,-1.7320508E-1,-2.6457512E-1,-7.0710677E-1,1E0,-5.1961523E-1,-8.4261495E-1,-1.099949E0,-4.5825756E-1,6.164414E-1,-1.7320508E-1,-4.2426407E-1,9.1659564E-1,9.591663E-1,4.690416E-1,3.8729835E-1,1.25E0,3.046257E-1,1.6222142E0,1.0482849E0,-7.483315E-1,1.2403474E0,-1.1916053E0,1.5430335E0,-2.4408033E0,6.480741E-1,1.288752E0,-1.4995496E0,-1.1714563E0,2.8284273E-1,1.4744196E0,-1.4002801E0,8.490183E-2,1E-1,-6.324555E-1,1.3012248E0,-3.069732E-1,-1.3483998E0,-1.3469836E0,3.3954076E-2,-2.4302606E-2,3.9349884E-2,-4.6324063E-4,-2.3858702E-2,-1.5275733E-1,6.403749E-3,6.359265E-2,1.8751254E-2,-5.534208E-2,-2.9487595E-1,-4.6871565E-2,-6.8907356E-3,4.2988002E-2,1.0075574E-2,-2.5058886E-2,-2.927905E-1,-8.2357645E-2,-8.068527E-3,-2.468928E-1,1.056759E-2,-2.5401986E-1,1.0053259E-2,-1.2873942E-1,-5.4703515E-2,-2.1524638E-1,-3.7006474E-1,-1.8328778E-1,1.0609719E-1,3.3839974E-1,-5.4850936E-2,-2.4975112E-1,1.3852094E-2,-1.69813E-1,3.2381153E-1,6.296251E-2,2.4071074E-1,5.48738E-1,1.1715947E-1,-7.221703E-3,8.535838E-2,-6.3094487E-3,3.9308208E-1,1.6855806E-1,-3.075801E-1,-1.9510988E-2,-3.9964743E-2,3.5947997E-2,6.617575E-2,-2.3962634E-2,2.7042933E-2,5.759617E-1,-1.0541964E-1,-4.8514213E-2,-7.7274576E-2,1.5047057E-2,9.0691514E-2,-2.3769988E-2,-2.1447627E-1,-1.6912859E-2,1.7634714E-2,1.8753311E-1,8.2904644E-2,-7.293027E-2],"split_indices":[81,81,57,52,42,83,89,52,52,56,74,29,41,35,49,82,34,43,60,25,60,74,86,35,29,41,83,35,67,48,82,57,89,32,41,26,26,33,52,77,42,83,70,44,24,39,23,45,58,24,44,53,23,23,74,60,25,35,32,45,48,60,75,0,0,0,0,0,0,0,0,0,0,0,0,0,0,0,0,0,0,0,0,0,0,0,0,0,0,0,0,0,0,0,0,0,0,0,0,0,0,0,0,0,0,0,0,0,0,0,0,0,0,0,0,0,0,0,0,0,0,0,0,0,0,0,0],"split_type":[0,0,0,0,0,0,0,0,0,0,0,0,0,0,0,0,0,0,0,0,0,0,0,0,0,0,0,0,0,0,0,0,0,0,0,0,0,0,0,0,0,0,0,0,0,0,0,0,0,0,0,0,0,0,0,0,0,0,0,0,0,0,0,0,0,0,0,0,0,0,0,0,0,0,0,0,0,0,0,0,0,0,0,0,0,0,0,0,0,0,0,0,0,0,0,0,0,0,0,0,0,0,0,0,0,0,0,0,0,0,0,0,0,0,0,0,0,0,0,0,0,0,0,0,0,0,0],"sum_hessian":[5.20785E5,4.65912E5,5.4873E4,2.05409E5,2.60503E5,1.2013E4,4.286E4,9.2724E4,1.12685E5,2.57173E5,3.33E3,3.523E3,8.49E3,3.6625E4,6.235E3,6.7585E4,2.5139E4,1.2931E4,9.9754E4,1.503E3,2.5567E5,2.984E3,3.46E2,1.867E3,1.656E3,3.962E3,4.528E3,1.3994E4,2.2631E4,4.203E3,2.032E3,4.1339E4,2.6246E4,2.37E3,2.2769E4,1.2451E4,4.8E2,3.4624E4,6.513E4,6.27E2,8.76E2,8.8E2,2.5479E5,2.799E3,1.85E2,2.71E2,7.5E1,1.102E3,7.65E2,1.81E2,1.475E3,3.785E3,1.77E2,1.34E2,4.394E3,1.3835E4,1.59E2,1.6259E4,6.372E3,1.96E3,2.243E3,1.052E3,9.8E2,6.478E3,3.4861E4,1.2012E4,1.4234E4,1.409E3,9.61E2,1.1125E4,1.1644E4,2.958E3,9.493E3,3.44E2,1.36E2,2.611E4,8.514E3,1.3458E4,5.1672E4,3.31E2,2.96E2,7.79E2,9.7E1,4.15E2,4.65E2,2.5384E5,9.5E2,2.433E3,3.66E2,1.29E2,5.6E1,1.93E2,7.8E1,1.6E1,5.9E1,8.86E2,2.16E2,3.8E1,7.27E2,1.17E2,6.4E1,1.044E3,4.31E2,1.203E3,2.582E3,6.6E1,1.11E2,1.18E2,1.6E1,3.342E3,1.052E3,1.447E3,1.2388E4,9.9E1,6E1,3.215E3,1.3044E4,1.738E3,4.634E3,1.071E3,8.89E2,2.15E2,2.028E3,3.9E2,6.62E2,4.55E2,5.25E2],"tree_param":{"num_deleted":"0","num_feature":"92","num_nodes":"127","size_leaf_vector":"1"}},{"base_weights":[-4.056594E-3,-2.5935683E0,1.12513855E-1,-1.8233632E0,-8.151048E0,-5.3270906E-1,5.3562546E-1,-3.3944988E0,-2.5696924E-1,-3.6718798E0,-1.3269719E1,-1.2085596E0,6.4960897E-1,8.6237276E-1,-1.0592921E0,-2.7754862E0,-6.607644E0,-1.5977503E0,1.7478348E0,-1.0377805E0,-9.999871E0,-1.8399725E1,-1.3052015E0,-3.6785853E0,-2.215086E-1,1.7049996E0,-1.1099862E0,-8.701953E0,9.282567E-1,-2.2251863E0,1.8278835E0,-4.024574E0,-1.1416887E0,-8.188557E0,-2.479437E0,-2.1811905E0,2.4239643E0,4.7150817E0,7.777006E-1,-2.4673007E0,1.6976412E1,-1.6581972E1,1.9820364E0,-2.0952332E1,-5.1958914E0,2.1885707E0,-1.7286894E1,-6.035735E0,-6.253062E-1,-1.5829663E0,1.2654487E0,-1.9344933E-1,3.1037757E0,2.6271024E0,-2.4027638E0,-5.3155336E0,-2.794141E1,9.6814907E-1,-1.0520721E1,-3.0416977E0,1.9692906E0,5.1592493E0,-1.3821967E0,-1.0794081E-1,-3.6500383E-2,-3.044933E-2,1.8904342E-3,-1.06787086E-1,-4.6653956E-2,-1.2708126E-1,-6.1799632E-3,-1.2242131E-2,-4.971501E-2,-4.4494448E-4,6.261175E-2,3.8631327E-2,1.5519878E-1,-1.51444245E-2,2.3787672E-2,-1.5147954E-2,-2.1737522E-1,3.6179802E-1,7.4173495E-2,-1.3080727E-1,-2.6748645E-1,-3.4867242E-2,3.6523613E-1,-8.2139365E-2,-2.3795107E-1,1.8136082E-3,-1.7269088E-1,-2.836215E-1,3.912516E-2,-2.4635074E-1,-7.484445E-2,4.3267095E-3,-7.4583046E-2,9.615455E-3,-8.7051E-2,-3.9161973E-2,6.260353E-3,3.3396855E-2,-2.456945E-3,-2.1813922E-2,2.7985422E-2,4.5294594E-2,-2.7494645E-3,-2.77007E-1,2.9808618E-2,-8.062292E-3,-6.800787E-2,-1.06079325E-1,5.3129416E-2,1.9522382E-2,-3.222069E-1,-7.526839E-2,1.0223075E-2,-2.0988657E-1,1.0671507E-1,3.0827415E-3,-4.5106556E-2,4.8868172E-2,-3.766436E-2,1.0126213E-1,2.2789733E-2,-2.3233084E-2,9.722694E-2],"categories":[],"categories_nodes":[],"categories_segments":[],"categories_sizes":[],"default_left":[0,0,0,0,0,0,0,0,0,0,0,0,0,0,0,0,0,0,0,0,0,0,0,0,0,0,0,0,0,0,0,0,0,0,0,0,0,0,0,0,0,0,0,0,0,0,0,0,0,0,0,0,0,0,0,0,0,0,0,0,0,0,0,0,0,0,0,0,0,0,0,0,0,0,0,0,0,0,0,0,0,0,0,0,0,0,0,0,0,0,0,0,0,0,0,0,0,0,0,0,0,0,0,0,0,0,0,0,0,0,0,0,0,0,0,0,0,0,0,0,0,0,0,0,0,0,0],"id":12,"left_children":[1,3,5,7,9,11,13,15,17,19,21,23,25,27,29,31,33,35,37,39,41,43,45,47,49,51,53,55,57,59,61,63,65,67,69,71,73,75,77,79,81,83,85,87,89,91,93,95,97,99,101,103,105,107,109,111,113,115,117,119,121,123,125,-1,-1,-1,-1,-1,-1,-1,-1,-1,-1,-1,-1,-1,-1,-1,-1,-1,-1,-1,-1,-1,-1,-1,-1,-1,-1,-1,-1,-1,-1,-1,-1,-1,-1,-1,-1,-1,-1,-1,-1,-1,-1,-1,-1,-1,-1,-1,-1,-1,-1,-1,-1,-1,-1,-1,-1,-1,-1,-1,-1,-1,-1,-1,-1],"loss_changes":[1.57471E5,9.617419E4,1.3628145E5,4.857465E4,6.265753E4,1.5798178E5,1.5711844E5,1.9580945E4,2.6573703E4,2.4325607E4,7.829414E4,3.0669738E5,1.3354308E5,1.5768545E5,1.7256597E5,1.6860168E4,1.0362992E4,1.3905537E4,1.14014E4,2.6617441E4,3.3866586E4,2.9988719E4,2.147916E4,2.5849212E5,1.8195975E5,1.1936559E5,1.3026097E5,1.1139287E5,1.1351455E5,1.2507422E5,1.5771086E5,1.1833836E4,9.072766E3,1.0039219E4,8.407736E3,1.3809797E4,7.113811E3,8.924061E3,1.0965525E4,1.7532564E4,1.3682252E4,9.509805E3,2.902932E4,2.6891094E4,9.481713E3,1.6753738E4,4.785379E3,1.8651375E5,2.006511E5,2.4183856E5,1.3466078E5,1.1343271E5,1.246698E5,7.4432586E4,1.4065103E5,8.2012875E4,3.2811562E4,1.139475E5,1.9167103E5,1.504256E5,9.9603266E4,1.0351097E5,7.8519555E4,0E0,0E0,0E0,0E0,0E0,0E0,0E0,0E0,0E0,0E0,0E0,0E0,0E0,0E0,0E0,0E0,0E0,0E0,0E0,0E0,0E0,0E0,0E0,0E0,0E0,0E0,0E0,0E0,0E0,0E0,0E0,0E0,0E0,0E0,0E0,0E0,0E0,0E0,0E0,0E0,0E0,0E0,0E0,0E0,0E0,0E0,0E0,0E0,0E0,0E0,0E0,0E0,0E0,0E0,0E0,0E0,0E0,0E0,0E0,0E0,0E0,0E0,0E0,0E0],"parents":[2147483647,0,0,1,1,2,2,3,3,4,4,5,5,6,6,7,7,8,8,9,9,10,10,11,11,12,12,13,13,14,14,15,15,16,16,17,17,18,18,19,19,20,20,21,21,22,22,23,23,24,24,25,25,26,26,27,27,28,28,29,29,30,30,31,31,32,32,33,33,34,34,35,35,36,36,37,37,38,38,39,39,40,40,41,41,42,42,43,43,44,44,45,45,46,46,47,47,48,48,49,49,50,50,51,51,52,52,53,53,54,54,55,55,56,56,57,57,58,58,59,59,60,60,61,61,62,62],"right_children":[2,4,6,8,10,12,14,16,18,20,22,24,26,28,30,32,34,36,38,40,42,44,46,48,50,52,54,56,58,60,62,64,66,68,70,72,74,76,78,80,82,84,86,88,90,92,94,96,98,100,102,104,106,108,110,112,114,116,118,120,122,124,126,-1,-1,-1,-1,-1,-1,-1,-1,-1,-1,-1,-1,-1,-1,-1,-1,-1,-1,-1,-1,-1,-1,-1,-1,-1,-1,-1,-1,-1,-1,-1,-1,-1,-1,-1,-1,-1,-1,-1,-1,-1,-1,-1,-1,-1,-1,-1,-1,-1,-1,-1,-1,-1,-1,-1,-1,-1,-1,-1,-1,-1,-1,-1,-1],"split_conditions":[-1.0718167E0,-5.548781E-1,-4.0594283E-2,3.1268427E-1,2.1435495E-1,2.9482278E-1,1.1206251E0,7.874008E-1,5.5531037E-1,3.0623531E-2,8.4261495E-1,7.735236E-2,7.1414286E-1,-1.4768332E0,1.0491952E0,2.8510806E-1,9.177771E-1,1.001163E0,-2.5388374E0,9.781429E-1,5.830952E-1,-3.2122615E-1,1.1000223E0,2E-1,1.7320508E-1,-4.8989794E-1,-1.1060606E0,1.3245324E0,1.5617377E0,1.2906281E0,3.4641016E-1,-1.1932144E0,-7.077696E-2,6.164414E-1,-1.5686356E0,8.0013025E-1,3.623946E-1,1.285015E0,2.2939435E-1,1.132277E0,-9.6436507E-1,8.1853527E-1,1.4381841E-1,-9.6953595E-1,5.91608E-1,-1.8868309E0,8.4852815E-1,-7.549834E-1,1.0197877E0,0E0,-3.6055514E-1,6.6332495E-1,7.745967E-1,3.4656367E-1,9.925252E-1,3.678616E-1,-2.0412414E0,-1.5004679E0,5.1961523E-1,-1.0783278E0,6.244998E-1,-6.855655E-1,1.5811388E0,-1.0794081E-1,-3.6500383E-2,-3.044933E-2,1.8904342E-3,-1.06787086E-1,-4.6653956E-2,-1.2708126E-1,-6.1799632E-3,-1.2242131E-2,-4.971501E-2,-4.4494448E-4,6.261175E-2,3.8631327E-2,1.5519878E-1,-1.51444245E-2,2.3787672E-2,-1.5147954E-2,-2.1737522E-1,3.6179802E-1,7.4173495E-2,-1.3080727E-1,-2.6748645E-1,-3.4867242E-2,3.6523613E-1,-8.2139365E-2,-2.3795107E-1,1.8136082E-3,-1.7269088E-1,-2.836215E-1,3.912516E-2,-2.4635074E-1,-7.484445E-2,4.3267095E-3,-7.4583046E-2,9.615455E-3,-8.7051E-2,-3.9161973E-2,6.260353E-3,3.3396855E-2,-2.456945E-3,-2.1813922E-2,2.7985422E-2,4.5294594E-2,-2.7494645E-3,-2.77007E-1,2.9808618E-2,-8.062292E-3,-6.800787E-2,-1.06079325E-1,5.3129416E-2,1.9522382E-2,-3.222069E-1,-7.526839E-2,1.0223075E-2,-2.0988657E-1,1.0671507E-1,3.0827415E-3,-4.5106556E-2,4.8868172E-2,-3.766436E-2,1.0126213E-1,2.2789733E-2,-2.3233084E-2,9.722694E-2],"split_indices":[22,21,90,11,85,85,90,86,13,52,56,84,34,49,40,16,35,8,20,32,64,21,26,60,27,59,59,31,34,38,64,63,14,78,66,12,14,86,14,62,77,56,85,61,26,64,63,85,76,64,31,43,78,85,43,41,24,56,31,