{"learner":{"attributes":{"scikit_learn":"{\"_estimator_type\": \"regressor\"}"},"feature_names":["mfcc_1","mfcc_2","mfcc_3","mfcc_4","mfcc_5","mfcc_6","mfcc_7","mfcc_8","mfcc_9","mfcc_10","mfcc_11","mfcc_12","mfcc_13","mfcc_14","mfcc_15","mfcc_16","mfcc_17","mfcc_18","mfcc_19","mfcc_20","pitch","jitter","shimmer","mfcc_1_entropy","mfcc_1_kurtosis","mfcc_1_skewness","mfcc_2_entropy","mfcc_2_kurtosis","mfcc_2_skewness","mfcc_3_entropy","mfcc_3_kurtosis","mfcc_3_skewness","mfcc_4_entropy","mfcc_4_kurtosis","mfcc_4_skewness","mfcc_5_entropy","mfcc_5_kurtosis","mfcc_5_skewness","mfcc_6_entropy","mfcc_6_kurtosis","mfcc_6_skewness","mfcc_7_entropy","mfcc_7_kurtosis","mfcc_7_skewness","mfcc_8_entropy","mfcc_8_kurtosis","mfcc_8_skewness","mfcc_9_entropy","mfcc_9_kurtosis","mfcc_9_skewness","mfcc_10_entropy","mfcc_10_kurtosis","mfcc_10_skewness","mfcc_11_entropy","mfcc_11_kurtosis","mfcc_11_skewness","mfcc_12_entropy","mfcc_12_kurtosis","mfcc_12_skewness","mfcc_13_entropy","mfcc_13_kurtosis","mfcc_13_skewness","mfcc_14_entropy","mfcc_14_kurtosis","mfcc_14_skewness","mfcc_15_entropy","mfcc_15_kurtosis","mfcc_15_skewness","mfcc_16_entropy","mfcc_16_kurtosis","mfcc_16_skewness","mfcc_17_entropy","mfcc_17_kurtosis","mfcc_17_skewness","mfcc_18_entropy","mfcc_18_kurtosis","mfcc_18_skewness","mfcc_19_entropy","mfcc_19_kurtosis","mfcc_19_skewness","mfcc_20_entropy","mfcc_20_kurtosis","mfcc_20_skewness","pitch_entropy","pitch_kurtosis","pitch_skewness","jitter_entropy","jitter_kurtosis","jitter_skewness","shimmer_entropy","shimmer_kurtosis","shimmer_skewness"],"feature_types":["float","float","float","float","float","float","float","float","float","float","float","float","float","float","float","float","float","float","float","float","float","float","float","float","float","float","float","float","float","float","float","float","float","float","float","float","float","float","float","float","float","float","float","float","float","float","float","float","float","float","float","float","float","float","float","float","float","float","float","float","float","float","float","float","float","float","float","float","float","float","float","float","float","float","float","float","float","float","float","float","float","float","float","float","float","float","float","float","float","float","float","float"],"gradient_booster":{"model":{"cats":{"enc":[],"feature_segments":[],"sorted_idx":[]},"gbtree_model_param":{"num_parallel_tree":"1","num_trees":"200"},"iteration_indptr":[0,1,2,3,4,5,6,7,8,9,10,11,12,13,14,15,16,17,18,19,20,21,22,23,24,25,26,27,28,29,30,31,32,33,34,35,36,37,38,39,40,41,42,43,44,45,46,47,48,49,50,51,52,53,54,55,56,57,58,59,60,61,62,63,64,65,66,67,68,69,70,71,72,73,74,75,76,77,78,79,80,81,82,83,84,85,86,87,88,89,90,91,92,93,94,95,96,97,98,99,100,101,102,103,104,105,106,107,108,109,110,111,112,113,114,115,116,117,118,119,120,121,122,123,124,125,126,127,128,129,130,131,132,133,134,135,136,137,138,139,140,141,142,143,144,145,146,147,148,149,150,151,152,153,154,155,156,157,158,159,160,161,162,163,164,165,166,167,168,169,170,171,172,173,174,175,176,177,178,179,180,181,182,183,184,185,186,187,188,189,190,191,192,193,194,195,196,197,198,199,200],"tree_info":[0,0,0,0,0,0,0,0,0,0,0,0,0,0,0,0,0,0,0,0,0,0,0,0,0,0,0,0,0,0,0,0,0,0,0,0,0,0,0,0,0,0,0,0,0,0,0,0,0,0,0,0,0,0,0,0,0,0,0,0,0,0,0,0,0,0,0,0,0,0,0,0,0,0,0,0,0,0,0,0,0,0,0,0,0,0,0,0,0,0,0,0,0,0,0,0,0,0,0,0,0,0,0,0,0,0,0,0,0,0,0,0,0,0,0,0,0,0,0,0,0,0,0,0,0,0,0,0,0,0,0,0,0,0,0,0,0,0,0,0,0,0,0,0,0,0,0,0,0,0,0,0,0,0,0,0,0,0,0,0,0,0,0,0,0,0,0,0,0,0,0,0,0,0,0,0,0,0,0,0,0,0,0,0,0,0,0,0,0,0,0,0,0,0,0,0,0,0,0,0],"trees":[{"base_weights":[5.517367E-3,-3.3671896E0,3.6761286E0,-9.717882E0,-4.8969853E-1,2.645006E0,7.3915324E0,-7.182787E0,-1.7370752E1,2.8233793E0,-2.6108732E0,1.4921088E0,4.5365515E0,4.1865125E0,1.1650293E1,-1.06502E1,-3.9493506E0,-2.0788698E1,-9.43668E0,3.7641475E0,-2.4020197E0,-5.67113E0,-5.5092555E-1,-1.09799944E-1,3.4666348E0,1.0979279E1,3.8061416E0,1.9936749E1,3.6919851E0,5.8618717E0,1.5572811E1,-1.5274857E1,-8.264849E0,2.156589E0,-5.400627E0,-1.49437E1,-2.721666E1,-1.6564293E1,-7.8065243E0,2.4849834E0,6.3037863E0,-3.090885E0,2.9964333E1,-3.102459E0,-8.876305E0,2.1646283E0,-2.0484822E0,-4.0495424E0,7.596098E-1,1.6799759E1,3.1997378E0,9.850509E0,4.5306675E1,6.527811E0,2.6029468E0,3.706016E0,2.9988281E1,4.0975683E-3,5.4173107E0,1.9526104E1,4.7503E0,8.038302E0,1.7804722E1,-2.0303205E1,-1.0453319E1,-1.3354172E1,-5.730245E0,6.763246E0,-2.9288807E0,-3.4555786E0,-9.630234E0,-1.9770054E1,-9.463842E0,-1.9743866E1,-3.0774736E1,-2.8416656E1,-1.1023844E1,-1.8438541E1,-7.1549387E0,1.4861332E0,7.841207E0,9.103067E0,4.548679E0,-2.0480762E-1,-9.17281E0,5.749827E-1,1.5272539E1,-4.5454434E-1,-4.732435E0,-1.26064205E1,-5.452016E0,3.6516557E0,-2.757313E0,2.8249413E-1,-4.48854E0,4.783133E0,-5.367454E0,2.0715933E0,-9.0089417E-1,7.1468344E0,5.1999855E1,4.5274177E0,1.4274884E0,4.5045557E0,1.3699579E1,1.584056E1,5.670567E-1,1.107558E1,3.1702547E0,1.08885154E-1,4.125606E0,-4.9872766E0,1.6425978E1,5.3733616E1,2.0992393E1,5.0366354E0,-2.771132E0,9.419486E0,3.6671443E0,3.0820496E1,8.455047E0,1.2759858E0,7.5604706E0,6.844751E0,2.9623405E1,2.4293802E1,1.364814E1,-2.2209966E-1,-5.8265824E-2,-1.7363971E-1,-7.820122E-2,-1.9817878E-1,-8.989123E-2,-1.4598566E-1,-4.1548364E-2,3.749241E-2,1.6346374E-1,5.1364625E-1,-4.110187E-2,-5.11456E-2,4.2043985E-3,-1.7452385E-1,-7.33219E-2,-2.3540245E-2,-2.181641E-1,-5.8768958E-2,-1.8962386E-1,-2.3004766E-1,-9.3467206E-2,-3.1647283E-1,-7.6624915E-2,-3.2533187E-1,-1.2635887E-1,-2.3328422E-1,-7.9113446E-2,-3.747952E-2,-3.028992E-1,-3.6305357E-2,-8.982285E-2,-5.6842506E-2,2.2630807E-2,-3.215265E-3,1.05690256E-1,5.5334687E-2,1.2697478E-1,4.1757707E-2,2.6384333E-1,-4.1789263E-2,5.4945223E-2,-1.4637104E-1,-4.886289E-2,7.882204E-2,2.6556772E-1,-2.4247155E-2,2.4401069E-2,-2.081954E-2,-6.642058E-2,-1.4384079E-1,-1.9046234E-3,-1.6191417E-2,-9.602197E-2,1.0810239E-2,5.8827393E-2,5.3500986E-1,-3.407104E-2,-4.4852016E-3,7.715148E-2,-2.4169913E-2,-9.047267E-2,1.0110227E-2,4.5064345E-1,-1.9804586E-2,-8.639725E-2,-2.7173452E-2,2.8701358E-2,-3.498306E-2,5.010661E-3,-1.7461485E-1,1.1128688E-1,1.14596365E-2,5.888422E-1,2.1682495E-2,6.114037E-2,3.416573E-2,-8.235052E-3,3.8876724E-1,3.997358E-2,1.781035E-1,7.054622E-2,2.7081588E-1,-4.4824462E-2,9.363426E-2,3.2718724E-1,3.4187087E-1,2.595304E-2,-2.138418E-2,4.399169E-2,9.1697365E-2,3.3003233E-2,-8.681248E-2,1.0004791E-1,1.8832462E-1,-4.285264E-2,5.538676E-1,1.2431571E-2,3.3868003E-1,5.0475437E-2,1.4080513E-1,3.0496856E-2,-3.363835E-2,3.7958494E-1,2.0855297E-1,8.3044276E-2,6.344635E-2,4.0458683E-3,7.771999E-2,3.9060906E-1,2.0420268E-1,-9.560874E-3,-8.45498E-4,1.3228393E-1,4.9235877E-2,1.399798E-1,-2.2188112E-2,9.426035E-2,4.221176E-1,1.1841748E-1,2.811711E-1,5.3476814E-2,2.029428E-1,9.388901E-2],"categories":[],"categories_nodes":[],"categories_segments":[],"categories_sizes":[],"default_left":[0,0,0,0,0,0,0,0,0,0,0,0,0,0,0,0,0,0,0,0,0,0,0,0,0,0,0,0,0,0,0,0,0,0,0,0,0,0,0,0,0,0,0,0,0,0,0,0,0,0,0,0,0,0,0,0,0,0,0,0,0,0,0,0,0,0,0,0,0,0,0,0,0,0,0,0,0,0,0,0,0,0,0,0,0,0,0,0,0,0,0,0,0,0,0,0,0,0,0,0,0,0,0,0,0,0,0,0,0,0,0,0,0,0,0,0,0,0,0,0,0,0,0,0,0,0,0,0,0,0,0,0,0,0,0,0,0,0,0,0,0,0,0,0,0,0,0,0,0,0,0,0,0,0,0,0,0,0,0,0,0,0,0,0,0,0,0,0,0,0,0,0,0,0,0,0,0,0,0,0,0,0,0,0,0,0,0,0,0,0,0,0,0,0,0,0,0,0,0,0,0,0,0,0,0,0,0,0,0,0,0,0,0,0,0,0,0,0,0,0,0,0,0,0,0,0,0,0,0,0,0,0,0,0,0,0,0,0,0,0,0,0,0,0,0,0,0,0,0,0,0],"id":0,"left_children":[1,3,5,7,9,11,13,15,17,19,21,23,25,27,29,31,33,35,37,39,41,43,45,47,49,51,53,55,57,59,61,63,65,67,69,71,73,75,77,79,81,83,85,87,89,91,93,95,97,99,101,103,105,107,109,111,113,115,117,119,121,123,125,127,129,131,133,135,137,139,141,143,145,147,149,151,153,155,157,159,161,163,165,167,169,-1,171,173,175,177,179,181,183,185,187,189,191,193,195,197,199,201,203,205,207,209,-1,211,213,215,217,219,221,223,225,227,229,231,233,235,237,239,241,243,245,247,249,-1,-1,-1,-1,-1,-1,-1,-1,-1,-1,-1,-1,-1,-1,-1,-1,-1,-1,-1,-1,-1,-1,-1,-1,-1,-1,-1,-1,-1,-1,-1,-1,-1,-1,-1,-1,-1,-1,-1,-1,-1,-1,-1,-1,-1,-1,-1,-1,-1,-1,-1,-1,-1,-1,-1,-1,-1,-1,-1,-1,-1,-1,-1,-1,-1,-1,-1,-1,-1,-1,-1,-1,-1,-1,-1,-1,-1,-1,-1,-1,-1,-1,-1,-1,-1,-1,-1,-1,-1,-1,-1,-1,-1,-1,-1,-1,-1,-1,-1,-1,-1,-1,-1,-1,-1,-1,-1,-1,-1,-1,-1,-1,-1,-1,-1,-1,-1,-1,-1,-1,-1,-1,-1,-1],"loss_changes":[6.6044025E6,5.080549E6,9.78567E5,1.6812475E6,1.344666E6,4.3605225E5,7.5718975E5,7.2998275E5,5.83905E5,3.671982E5,7.353614E5,3.930091E5,3.561355E5,2.4631475E5,5.40517E5,3.4602025E5,2.987675E5,5.64168E5,7.491256E4,2.0553956E5,2.5459356E5,3.8624688E5,2.8358066E5,2.3499784E5,1.9777644E5,2.9643606E5,2.2266331E5,1.5655178E5,1.9542081E5,1.4583447E5,2.3806E5,2.5803875E5,2.6717725E5,1.5183583E5,2.2390662E5,2.0810738E5,1.8763E5,7.762859E4,3.6070875E4,2.2518481E5,1.039395E5,1.9596878E5,9.188575E4,1.124652E5,2.663055E5,1.814679E5,2.556408E5,1.4450783E5,1.22454945E5,3.6884597E5,1.28362625E5,1.5338069E5,7.74645E4,3.18176E5,1.791574E5,4.1765906E4,1.2124456E5,1.3685717E5,1.4638888E5,8.910159E4,8.6982875E4,8.2818734E4,2.9368975E5,1.436085E5,9.87865E4,1.9356288E5,1.9326806E5,9.78978E4,1.9872666E5,1.200312E5,1.5353731E5,1.4935738E5,1.2587941E5,7.7819625E4,9.6575E4,2.2695094E4,3.086454E4,5.2185812E4,3.206425E4,1.9777958E5,1.4733197E5,1.0439775E5,1.0562159E5,1.7173245E5,8.380053E4,0E0,1.2463238E4,5.668848E4,8.157153E4,2.20435E5,1.731986E5,1.09156766E5,2.1125548E5,1.2493606E5,2.0726319E5,2.448598E5,1.1955725E5,1.20114125E5,9.035725E4,8.543617E4,8.158519E4,1.16696E5,1.0468711E5,5.3859543E4,1.1792281E5,1.7740824E4,0E0,3.2652825E5,2.1357208E5,1.7252503E5,1.2179059E5,1.2950215E4,8.0292305E3,1.3539594E4,8.92718E4,6.2373867E4,1.5311031E5,8.0272375E4,1.27228016E5,6.609684E4,4.1987164E4,6.4922207E4,8.329097E4,7.239708E4,3.532997E4,3.084815E5,1.8831112E5,0E0,0E0,0E0,0E0,0E0,0E0,0E0,0E0,0E0,0E0,0E0,0E0,0E0,0E0,0E0,0E0,0E0,0E0,0E0,0E0,0E0,0E0,0E0,0E0,0E0,0E0,0E0,0E0,0E0,0E0,0E0,0E0,0E0,0E0,0E0,0E0,0E0,0E0,0E0,0E0,0E0,0E0,0E0,0E0,0E0,0E0,0E0,0E0,0E0,0E0,0E0,0E0,0E0,0E0,0E0,0E0,0E0,0E0,0E0,0E0,0E0,0E0,0E0,0E0,0E0,0E0,0E0,0E0,0E0,0E0,0E0,0E0,0E0,0E0,0E0,0E0,0E0,0E0,0E0,0E0,0E0,0E0,0E0,0E0,0E0,0E0,0E0,0E0,0E0,0E0,0E0,0E0,0E0,0E0,0E0,0E0,0E0,0E0,0E0,0E0,0E0,0E0,0E0,0E0,0E0,0E0,0E0,0E0,0E0,0E0,0E0,0E0,0E0,0E0,0E0,0E0,0E0,0E0,0E0,0E0,0E0,0E0,0E0,0E0],"parents":[2147483647,0,0,1,1,2,2,3,3,4,4,5,5,6,6,7,7,8,8,9,9,10,10,11,11,12,12,13,13,14,14,15,15,16,16,17,17,18,18,19,19,20,20,21,21,22,22,23,23,24,24,25,25,26,26,27,27,28,28,29,29,30,30,31,31,32,32,33,33,34,34,35,35,36,36,37,37,38,38,39,39,40,40,41,41,42,42,43,43,44,44,45,45,46,46,47,47,48,48,49,49,50,50,51,51,52,52,53,53,54,54,55,55,56,56,57,57,58,58,59,59,60,60,61,61,62,62,63,63,64,64,65,65,66,66,67,67,68,68,69,69,70,70,71,71,72,72,73,73,74,74,75,75,76,76,77,77,78,78,79,79,80,80,81,81,82,82,83,83,84,84,86,86,87,87,88,88,89,89,90,90,91,91,92,92,93,93,94,94,95,95,96,96,97,97,98,98,99,99,100,100,101,101,102,102,103,103,104,104,105,105,107,107,108,108,109,109,110,110,111,111,112,112,113,113,114,114,115,115,116,116,117,117,118,118,119,119,120,120,121,121,122,122,123,123,124,124,125,125,126,126],"right_children":[2,4,6,8,10,12,14,16,18,20,22,24,26,28,30,32,34,36,38,40,42,44,46,48,50,52,54,56,58,60,62,64,66,68,70,72,74,76,78,80,82,84,86,88,90,92,94,96,98,100,102,104,106,108,110,112,114,116,118,120,122,124,126,128,130,132,134,136,138,140,142,144,146,148,150,152,154,156,158,160,162,164,166,168,170,-1,172,174,176,178,180,182,184,186,188,190,192,194,196,198,200,202,204,206,208,210,-1,212,214,216,218,220,222,224,226,228,230,232,234,236,238,240,242,244,246,248,250,-1,-1,-1,-1,-1,-1,-1,-1,-1,-1,-1,-1,-1,-1,-1,-1,-1,-1,-1,-1,-1,-1,-1,-1,-1,-1,-1,-1,-1,-1,-1,-1,-1,-1,-1,-1,-1,-1,-1,-1,-1,-1,-1,-1,-1,-1,-1,-1,-1,-1,-1,-1,-1,-1,-1,-1,-1,-1,-1,-1,-1,-1,-1,-1,-1,-1,-1,-1,-1,-1,-1,-1,-1,-1,-1,-1,-1,-1,-1,-1,-1,-1,-1,-1,-1,-1,-1,-1,-1,-1,-1,-1,-1,-1,-1,-1,-1,-1,-1,-1,-1,-1,-1,-1,-1,-1,-1,-1,-1,-1,-1,-1,-1,-1,-1,-1,-1,-1,-1,-1,-1,-1,-1,-1],"split_conditions":[6.3101333E-1,4.7650394E-1,8.652524E-1,4.9736825E-1,4.6666905E-1,5.7120067E-1,3.4609175E-1,2.526804E-1,5.6596905E-1,4.994737E-1,6.395252E-1,2.70408E-1,1.1823297E-1,1.8291342E-1,2.806585E-1,4.534526E-1,2.0951004E-1,5.5044776E-1,3.5095394E-1,3.459744E-1,8.9770234E-1,4.5678625E-1,4.5138174E-1,3.181835E-1,1.9786957E-1,9.550777E-1,1.87727E-1,6.445157E-1,1.7112884E-1,1.2046147E-1,3.0280897E-1,4.975352E-1,4.734713E-1,4.3120512E-1,5.8158225E-1,5.0196743E-1,5.23379E-1,2.6401815E-1,1.7338535E-1,6.7982924E-1,3.0552366E-1,6.3208395E-1,6.311287E-1,5.09414E-1,5.6142247E-1,6.8806624E-1,5.064551E-1,3.1132138E-1,5.1958895E-1,8.6131936E-1,6.707862E-1,6.208598E-1,5.369421E-1,4.5816103E-1,4.538447E-1,5.8985496E-1,4.8566467E-1,2.429866E-1,4.1069692E-1,5.007679E-1,1.7948456E-1,9.2161846E-1,9.077158E-2,6.603437E-1,2.265666E-1,2.0392583E-1,1.5643549E-1,3.4343004E-1,1.8240191E-1,7.039758E-1,1.7789948E-1,1.1767487E-1,5.9600675E-1,3.4505883E-1,8.012922E-1,6.9058865E-1,5.4790723E-1,5.8101183E-1,1.7286967E-1,5.317196E-1,5.7534283E-1,7.046086E-1,9.745439E-1,7.1417373E-1,5.6535923E-1,5.749827E-1,8.372476E-1,6.9895506E-1,3.4320843E-1,8.395959E-1,3.6999935E-1,1.409045E-1,4.2894877E-2,8.927361E-1,1.9538611E-2,5.451072E-1,5.138468E-1,3.8970536E-1,6.355268E-1,2.3915362E-1,2.5657558E-1,2.5580588E-1,5.008098E-1,6.6807516E-2,2.4901973E-1,6.569059E-1,5.670567E-1,6.660802E-1,2.847451E-2,3.3758956E-1,4.1562244E-1,2.891883E-1,6.976567E-1,3.2872042E-1,4.7483513E-1,4.4158906E-1,9.4135433E-1,3.2585874E-2,3.0885404E-1,3.5546854E-1,2.5611454E-1,7.8424335E-1,5.720419E-1,3.5902905E-1,3.2460794E-1,3.8245007E-1,4.7426316E-1,-2.2209966E-1,-5.8265824E-2,-1.7363971E-1,-7.820122E-2,-1.9817878E-1,-8.989123E-2,-1.4598566E-1,-4.1548364E-2,3.749241E-2,1.6346374E-1,5.1364625E-1,-4.110187E-2,-5.11456E-2,4.2043985E-3,-1.7452385E-1,-7.33219E-2,-2.3540245E-2,-2.181641E-1,-5.8768958E-2,-1.8962386E-1,-2.3004766E-1,-9.3467206E-2,-3.1647283E-1,-7.6624915E-2,-3.2533187E-1,-1.2635887E-1,-2.3328422E-1,-7.9113446E-2,-3.747952E-2,-3.028992E-1,-3.6305357E-2,-8.982285E-2,-5.6842506E-2,2.2630807E-2,-3.215265E-3,1.05690256E-1,5.5334687E-2,1.2697478E-1,4.1757707E-2,2.6384333E-1,-4.1789263E-2,5.4945223E-2,-1.4637104E-1,-4.886289E-2,7.882204E-2,2.6556772E-1,-2.4247155E-2,2.4401069E-2,-2.081954E-2,-6.642058E-2,-1.4384079E-1,-1.9046234E-3,-1.6191417E-2,-9.602197E-2,1.0810239E-2,5.8827393E-2,5.3500986E-1,-3.407104E-2,-4.4852016E-3,7.715148E-2,-2.4169913E-2,-9.047267E-2,1.0110227E-2,4.5064345E-1,-1.9804586E-2,-8.639725E-2,-2.7173452E-2,2.8701358E-2,-3.498306E-2,5.010661E-3,-1.7461485E-1,1.1128688E-1,1.14596365E-2,5.888422E-1,2.1682495E-2,6.114037E-2,3.416573E-2,-8.235052E-3,3.8876724E-1,3.997358E-2,1.781035E-1,7.054622E-2,2.7081588E-1,-4.4824462E-2,9.363426E-2,3.2718724E-1,3.4187087E-1,2.595304E-2,-2.138418E-2,4.399169E-2,9.1697365E-2,3.3003233E-2,-8.681248E-2,1.0004791E-1,1.8832462E-1,-4.285264E-2,5.538676E-1,1.2431571E-2,3.3868003E-1,5.0475437E-2,1.4080513E-1,3.0496856E-2,-3.363835E-2,3.7958494E-1,2.0855297E-1,8.3044276E-2,6.344635E-2,4.0458683E-3,7.771999E-2,3.9060906E-1,2.0420268E-1,-9.560874E-3,-8.45498E-4,1.3228393E-1,4.9235877E-2,1.399798E-1,-2.2188112E-2,9.426035E-2,4.221176E-1,1.1841748E-1,2.811711E-1,5.3476814E-2,2.029428E-1,9.388901E-2],"split_indices":[20,85,20,83,64,43,60,81,79,83,85,42,42,28,72,37,83,28,61,81,85,20,70,31,35,80,51,50,60,88,61,79,82,20,28,37,70,60,43,82,83,70,86,12,20,64,17,64,79,29,86,43,44,37,76,82,35,81,64,40,72,60,87,55,51,72,63,72,41,26,60,88,70,72,83,68,35,47,60,85,38,29,35,85,77,0,23,77,83,74,83,87,76,26,22,43,61,86,29,55,88,81,79,38,30,26,0,88,83,75,68,42,38,26,82,65,43,87,81,31,63,85,73,40,83,75,86,0,0,0,0,0,0,0,0,0,0,0,0,0,0,0,0,0,0,0,0,0,0,0,0,0,0,0,0,0,0,0,0,0,0,0,0,0,0,0,0,0,0,0,0,0,0,0,0,0,0,0,0,0,0,0,0,0,0,0,0,0,0,0,0,0,0,0,0,0,0,0,0,0,0,0,0,0,0,0,0,0,0,0,0,0,0,0,0,0,0,0,0,0,0,0,0,0,0,0,0,0,0,0,0,0,0,0,0,0,0,0,0,0,0,0,0,0,0,0,0,0,0,0,0],"split_type":[0,0,0,0,0,0,0,0,0,0,0,0,0,0,0,0,0,0,0,0,0,0,0,0,0,0,0,0,0,0,0,0,0,0,0,0,0,0,0,0,0,0,0,0,0,0,0,0,0,0,0,0,0,0,0,0,0,0,0,0,0,0,0,0,0,0,0,0,0,0,0,0,0,0,0,0,0,0,0,0,0,0,0,0,0,0,0,0,0,0,0,0,0,0,0,0,0,0,0,0,0,0,0,0,0,0,0,0,0,0,0,0,0,0,0,0,0,0,0,0,0,0,0,0,0,0,0,0,0,0,0,0,0,0,0,0,0,0,0,0,0,0,0,0,0,0,0,0,0,0,0,0,0,0,0,0,0,0,0,0,0,0,0,0,0,0,0,0,0,0,0,0,0,0,0,0,0,0,0,0,0,0,0,0,0,0,0,0,0,0,0,0,0,0,0,0,0,0,0,0,0,0,0,0,0,0,0,0,0,0,0,0,0,0,0,0,0,0,0,0,0,0,0,0,0,0,0,0,0,0,0,0,0,0,0,0,0,0,0,0,0,0,0,0,0,0,0,0,0,0,0],"sum_hessian":[5.33468E5,2.78016E5,2.55452E5,8.6686E4,1.9133E5,1.99965E5,5.5487E4,6.5123E4,2.1563E4,7.4682E4,1.16648E5,1.24246E5,7.5719E4,3.1666E4,2.3821E4,3.1419E4,3.3704E4,1.5065E4,6.498E3,6.3289E4,1.1393E4,4.6926E4,6.9722E4,6.8598E4,5.5648E4,7.703E3,6.8016E4,9.58E2,3.0708E4,9.627E3,1.4194E4,1.0682E4,2.0737E4,6.472E3,2.7232E4,7.899E3,7.166E3,1.201E3,5.297E3,4.2096E4,2.1193E4,1.116E4,2.33E2,2.6055E4,2.0871E4,2.4782E4,4.494E4,1.2398E4,5.62E4,1.086E3,5.4562E4,7.464E3,2.39E2,2.0844E4,4.7172E4,3.69E2,5.89E2,9.789E3,2.0919E4,7.18E2,8.909E3,3.249E3,1.0945E4,5.221E3,5.461E3,6.887E3,1.385E4,3.395E3,3.077E3,1.866E4,8.572E3,4.193E3,3.706E3,2.322E3,4.844E3,3.76E2,8.25E2,2.98E2,4.999E3,3.5485E4,6.611E3,8.159E3,1.3034E4,7.572E3,3.588E3,7.6E1,1.57E2,9.93E3,1.6125E4,9.983E3,1.0888E4,1.9033E4,5.749E3,2.2986E4,2.1954E4,1.608E3,1.079E4,3.1394E4,2.4806E4,8.57E2,2.29E2,3.1189E4,2.3373E4,3.129E3,4.335E3,7E1,1.69E2,8.848E3,1.1996E4,1.7884E4,2.9288E4,2.21E2,1.48E2,1.55E2,4.34E2,3.478E3,6.311E3,6.358E3,1.4561E4,3.51E2,3.67E2,3.987E3,4.922E3,3.085E3,1.64E2,4.264E3,6.681E3,4.611E3,6.1E2,1.499E3,3.962E3,2.769E3,4.118E3,2.083E3,1.1767E4,2.588E3,8.07E2,6.1E1,3.016E3,1.3066E4,5.594E3,1.939E3,6.633E3,4.42E2,3.751E3,2.696E3,1.01E3,1.763E3,5.59E2,4.666E3,1.78E2,2.94E2,8.2E1,1.6E2,6.65E2,1.36E2,1.62E2,1.712E3,3.287E3,3.466E3,3.2019E4,1.657E3,4.954E3,4.1E3,4.059E3,1.2821E4,2.13E2,4.462E3,3.11E3,1.572E3,2.016E3,1E2,5.7E1,5.909E3,4.021E3,6.757E3,9.368E3,8.732E3,1.251E3,5.664E3,5.224E3,8.847E3,1.0186E4,6.1E1,5.688E3,2.0932E4,2.054E3,1.51E4,6.854E3,1.475E3,1.33E2,5.306E3,5.484E3,4.485E3,2.6909E4,8.693E3,1.6113E4,1.17E2,7.4E2,2.8E1,2.01E2,1.2546E4,1.8643E4,1.2407E4,1.0966E4,4E1,3.089E3,2.673E3,1.662E3,4.4E1,2.6E1,8.206E3,6.42E2,2.13E2,1.1783E4,1.1738E4,6.146E3,4.111E3,2.5177E4,1.79E2,4.2E1,1.33E2,1.5E1,1.5E2,5E0,2.37E2,1.97E2,6.21E2,2.857E3,6.225E3,8.6E1,5.57E2,5.801E3,7.995E3,6.566E3,9.5E1,2.56E2,1.59E2,2.08E2,3.584E3,4.03E2,3.498E3,1.424E3,6.84E2,2.401E3,9.2E1,7.2E1,3.546E3,7.18E2,2.602E3,4.079E3],"tree_param":{"num_deleted":"0","num_feature":"92","num_nodes":"251","size_leaf_vector":"1"}},{"base_weights":[-4.7723646E-3,-3.3179605E0,3.5697882E0,-9.652717E0,-4.4154397E-1,2.5509214E0,7.1363125E0,-1.856064E1,-6.5417986E0,2.8911436E0,-2.5912275E0,3.7645822E0,1.4126544E-1,3.1375847E0,9.280856E0,-2.390146E1,-1.0835547E1,-2.8337455E0,-9.793442E0,3.8413565E0,-2.4423518E0,-5.6333027E0,-5.482646E-1,2.493476E0,5.7664895E0,-2.7511675E0,1.8004482E0,7.3243175E0,1.260305E0,3.957021E0,1.0987777E1,-2.5902193E1,-2.9906452E0,-1.6147133E1,-7.2794895E0,1.146596E0,-6.226573E0,-6.957577E0,-1.4738555E1,2.1623304E0,5.5279975E0,-3.0883255E0,3.1604158E1,-3.0540407E0,-8.916891E0,2.154561E0,-2.0451167E0,6.100251E-1,4.7442293E0,4.6807284E0,1.0337985E1,-6.6334295E-1,-6.655842E0,3.3875782E0,-6.063994E-1,1.0252223E1,3.0160553E0,-4.7167146E-1,8.3826E0,9.90547E-1,1.0292159E1,1.5905784E1,8.725144E0,-2.6650326E1,-8.6258955E0,5.716418E-1,-6.525228E0,-1.0794086E1,-2.4473373E1,-1.8965137E1,-6.447461E0,5.5777307E0,-1.0210874E0,-1.0745354E0,-8.527704E0,-2.755862E0,-8.985121E0,-1.8690449E1,-8.452897E0,-8.458869E0,2.6989608E0,1.0007779E1,3.9492407E0,-9.413873E0,-3.040341E-1,5.7861245E-1,1.53097725E1,-6.0313435E0,-6.120736E-1,-1.6484444E1,-6.874167E0,3.7088945E0,-3.0451035E0,-5.767263E0,-1.415389E-1,-3.5721068E0,1.5796931E0,3.9916878E0,1.0633122E1,3.0750258E0,8.550566E0,2.3847254E1,7.2687473E0,-9.9803364E-1,2.7655642E1,-3.9178278E0,-1.1084107E1,1.5111733E1,2.7405238E0,-1.565303E0,7.911802E0,9.607252E0,3.7903522E1,-1.4828196E0,6.7815475E0,-1.8870046E0,9.420025E0,1.8681798E0,1.5381667E1,5.2396464E0,-3.2162337E0,7.6797595E0,3.488958E1,2.1744595E1,1.0397231E1,4.4610677E0,1.0894655E1,-1.9685292E-1,-2.826319E-1,-4.6455357E-2,-1.9264333E-1,-2.5294462E-2,-2.1536823E-1,-1.2697072E-1,2.4029917E-1,-2.6439843E-1,-2.2582712E-2,-8.6755484E-2,-3.104975E-1,-5.7396974E-2,-1.8498087E-1,2.6281672E-2,1.4548887E-1,-2.4363307E-2,4.8249915E-2,-1.6192233E-2,5.0952214E-1,-1.6587646E-1,-5.992143E-2,-3.3480175E-2,4.1924953E-1,-8.5059725E-2,-2.959752E-1,-2.151012E-1,-8.671767E-2,-1.09369636E-1,-1.0354517E-2,4.5967773E-2,-1.6401312E-1,3.440649E-2,-1.5776614E-2,2.8262064E-2,1.3469487E-1,5.5038605E-2,-3.205457E-3,5.3264275E-2,-1.0784478E-1,2.759822E-2,-7.499781E-2,7.897978E-2,2.597068E-1,-7.795868E-2,-1.0229848E-2,-2.9663574E-2,1.4054963E-2,-1.9609778E-1,-8.513137E-2,-9.447765E-2,-1.1239618E-2,2.3720395E-2,8.008083E-2,5.279961E-1,-3.666973E-2,8.9005075E-2,-6.761741E-2,-1.7472504E-2,3.360462E-2,-2.320118E-2,-1.2912062E-1,1.2521908E-1,1.3205196E-2,-4.4239527E-3,4.7872405E-2,3.2141876E-1,8.845041E-2,3.905012E-2,-1.9249449E-2,7.584719E-2,2.0950612E-1,1.5988132E-1,5.3646314E-1,3.4271446E-1,5.6077797E-2,3.8068807E-3,-6.175067E-2,1.1488091E-1,5.1895267E-1,2.7960522E-2,-6.402911E-2,-7.8181796E-2,-1.8296464E-1,3.1959236E-1,-6.2524003E-4,1.6635021E-2,6.0699295E-2,7.1334084E-3,-4.534326E-2,-1.6933523E-2,1.7617083E-1,1.427566E-1,6.199808E-2,5.407067E-1,8.4689714E-2,-7.308285E-2,5.0202057E-2,-1.3609129E-1,7.657788E-2,1.9652047E-3,-5.5042103E-2,5.7332456E-2,4.2341754E-1,7.383925E-2,-2.7923247E-2,5.0348586E-1,1.2661712E-1,2.1880945E-2,1.2716858E-1,2.68847E-1,-4.3283146E-2,6.0871284E-2,3.2359347E-1,2.7179059E-2,5.8626896E-1,2.7129537E-1,1.2317723E-1,2.2756734E-1,6.6942714E-2,3.858786E-2,3.3641678E-1,3.5043833E-1,9.996692E-2],"categories":[],"categories_nodes":[],"categories_segments":[],"categories_sizes":[],"default_left":[0,0,0,0,0,0,0,0,0,0,0,0,0,0,0,0,0,0,0,0,0,0,0,0,0,0,0,0,0,0,0,0,0,0,0,0,0,0,0,0,0,0,0,0,0,0,0,0,0,0,0,0,0,0,0,0,0,0,0,0,0,0,0,0,0,0,0,0,0,0,0,0,0,0,0,0,0,0,0,0,0,0,0,0,0,0,0,0,0,0,0,0,0,0,0,0,0,0,0,0,0,0,0,0,0,0,0,0,0,0,0,0,0,0,0,0,0,0,0,0,0,0,0,0,0,0,0,0,0,0,0,0,0,0,0,0,0,0,0,0,0,0,0,0,0,0,0,0,0,0,0,0,0,0,0,0,0,0,0,0,0,0,0,0,0,0,0,0,0,0,0,0,0,0,0,0,0,0,0,0,0,0,0,0,0,0,0,0,0,0,0,0,0,0,0,0,0,0,0,0,0,0,0,0,0,0,0,0,0,0,0,0,0,0,0,0,0,0,0,0,0,0,0,0,0,0,0,0,0,0,0,0,0,0,0,0,0,0,0,0,0,0,0,0,0,0,0,0,0,0,0],"id":1,"left_children":[1,3,5,7,9,11,13,15,17,19,21,23,25,27,29,31,33,35,37,39,41,43,45,47,49,51,53,55,57,59,61,63,65,67,69,71,73,75,77,79,81,83,85,87,89,91,93,95,97,99,101,103,105,107,109,111,113,115,117,119,121,123,125,127,129,-1,131,133,135,137,139,141,143,145,147,149,151,153,155,157,159,161,163,165,167,-1,169,171,173,175,177,179,181,183,185,187,189,191,193,195,197,199,201,203,205,207,209,211,213,215,217,219,221,223,225,227,229,231,233,235,237,239,241,243,245,247,249,-1,-1,-1,-1,-1,-1,-1,-1,-1,-1,-1,-1,-1,-1,-1,-1,-1,-1,-1,-1,-1,-1,-1,-1,-1,-1,-1,-1,-1,-1,-1,-1,-1,-1,-1,-1,-1,-1,-1,-1,-1,-1,-1,-1,-1,-1,-1,-1,-1,-1,-1,-1,-1,-1,-1,-1,-1,-1,-1,-1,-1,-1,-1,-1,-1,-1,-1,-1,-1,-1,-1,-1,-1,-1,-1,-1,-1,-1,-1,-1,-1,-1,-1,-1,-1,-1,-1,-1,-1,-1,-1,-1,-1,-1,-1,-1,-1,-1,-1,-1,-1,-1,-1,-1,-1,-1,-1,-1,-1,-1,-1,-1,-1,-1,-1,-1,-1,-1,-1,-1,-1,-1,-1,-1],"loss_changes":[6.326159E6,5.051224E6,9.3359925E5,2.3983215E6,1.3659181E6,5.8448875E5,4.8942675E5,9.230565E5,7.73552E5,3.789222E5,7.2027906E5,3.381485E5,3.213228E5,1.5665208E5,3.3745075E5,5.536175E5,1.7256138E5,4.049985E5,4.789005E5,1.7964219E5,2.4918662E5,3.9421675E5,2.8055697E5,3.4465238E5,2.5595175E5,1.9895052E5,1.625428E5,7.76875E4,1.6989395E5,1.6963125E5,3.1237125E5,1.55049E5,2.489321E5,1.62343E5,5.2863938E4,1.3261038E5,1.9188312E5,1.8504875E5,3.0859525E5,1.8140894E5,2.2366775E5,1.95516E5,8.584569E4,1.8963917E5,3.1605275E5,1.998196E5,3.1621E5,1.7955544E5,1.6393562E5,2.5909612E5,4.0970138E5,1.5092508E5,1.0287878E5,1.9430981E5,1.3820138E5,6.3666656E4,4.246924E4,1.5523738E5,1.2268889E5,1.1010507E5,1.836599E5,2.83805E5,1.7811562E5,1.273145E5,2.1106043E4,0E0,6.582895E4,1.5023448E5,6.2302562E4,4.3790633E4,4.332525E4,1.1980945E5,7.678009E4,1.4221761E5,2.2818725E5,1.8807736E5,1.4351925E5,2.149775E5,8.869866E4,1.5913208E5,9.6079266E4,2.0478462E5,1.5542188E5,6.883644E4,1.70172E5,0E0,9.799674E3,1.0383459E5,6.8120625E4,1.0753675E5,2.3875388E5,1.09283625E5,1.9860586E5,2.2057584E5,1.6609939E5,9.730399E4,1.01843555E5,1.1589397E5,1.5987728E5,1.2242666E5,1.4569062E5,4.245215E5,3.6125247E5,1.1227332E5,6.991167E4,8.7883625E4,7.574444E4,3.4257878E5,8.7107E4,1.02883266E5,1.5974303E5,5.6744344E4,3.6731953E4,4.3559652E4,2.489186E4,7.310231E4,1.6725492E5,3.6117414E4,1.2026328E5,6.977247E4,1.0421944E5,1.0156311E5,2.0921231E5,2.1640775E5,2.083009E5,1.13763805E5,2.7527525E5,0E0,0E0,0E0,0E0,0E0,0E0,0E0,0E0,0E0,0E0,0E0,0E0,0E0,0E0,0E0,0E0,0E0,0E0,0E0,0E0,0E0,0E0,0E0,0E0,0E0,0E0,0E0,0E0,0E0,0E0,0E0,0E0,0E0,0E0,0E0,0E0,0E0,0E0,0E0,0E0,0E0,0E0,0E0,0E0,0E0,0E0,0E0,0E0,0E0,0E0,0E0,0E0,0E0,0E0,0E0,0E0,0E0,0E0,0E0,0E0,0E0,0E0,0E0,0E0,0E0,0E0,0E0,0E0,0E0,0E0,0E0,0E0,0E0,0E0,0E0,0E0,0E0,0E0,0E0,0E0,0E0,0E0,0E0,0E0,0E0,0E0,0E0,0E0,0E0,0E0,0E0,0E0,0E0,0E0,0E0,0E0,0E0,0E0,0E0,0E0,0E0,0E0,0E0,0E0,0E0,0E0,0E0,0E0,0E0,0E0,0E0,0E0,0E0,0E0,0E0,0E0,0E0,0E0,0E0,0E0,0E0,0E0,0E0,0E0],"parents":[2147483647,0,0,1,1,2,2,3,3,4,4,5,5,6,6,7,7,8,8,9,9,10,10,11,11,12,12,13,13,14,14,15,15,16,16,17,17,18,18,19,19,20,20,21,21,22,22,23,23,24,24,25,25,26,26,27,27,28,28,29,29,30,30,31,31,32,32,33,33,34,34,35,35,36,36,37,37,38,38,39,39,40,40,41,41,42,42,43,43,44,44,45,45,46,46,47,47,48,48,49,49,50,50,51,51,52,52,53,53,54,54,55,55,56,56,57,57,58,58,59,59,60,60,61,61,62,62,63,63,64,64,66,66,67,67,68,68,69,69,70,70,71,71,72,72,73,73,74,74,75,75,76,76,77,77,78,78,79,79,80,80,81,81,82,82,83,83,84,84,86,86,87,87,88,88,89,89,90,90,91,91,92,92,93,93,94,94,95,95,96,96,97,97,98,98,99,99,100,100,101,101,102,102,103,103,104,104,105,105,106,106,107,107,108,108,109,109,110,110,111,111,112,112,113,113,114,114,115,115,116,116,117,117,118,118,119,119,120,120,121,121,122,122,123,123,124,124,125,125,126,126],"right_children":[2,4,6,8,10,12,14,16,18,20,22,24,26,28,30,32,34,36,38,40,42,44,46,48,50,52,54,56,58,60,62,64,66,68,70,72,74,76,78,80,82,84,86,88,90,92,94,96,98,100,102,104,106,108,110,112,114,116,118,120,122,124,126,128,130,-1,132,134,136,138,140,142,144,146,148,150,152,154,156,158,160,162,164,166,168,-1,170,172,174,176,178,180,182,184,186,188,190,192,194,196,198,200,202,204,206,208,210,212,214,216,218,220,222,224,226,228,230,232,234,236,238,240,242,244,246,248,250,-1,-1,-1,-1,-1,-1,-1,-1,-1,-1,-1,-1,-1,-1,-1,-1,-1,-1,-1,-1,-1,-1,-1,-1,-1,-1,-1,-1,-1,-1,-1,-1,-1,-1,-1,-1,-1,-1,-1,-1,-1,-1,-1,-1,-1,-1,-1,-1,-1,-1,-1,-1,-1,-1,-1,-1,-1,-1,-1,-1,-1,-1,-1,-1,-1,-1,-1,-1,-1,-1,-1,-1,-1,-1,-1,-1,-1,-1,-1,-1,-1,-1,-1,-1,-1,-1,-1,-1,-1,-1,-1,-1,-1,-1,-1,-1,-1,-1,-1,-1,-1,-1,-1,-1,-1,-1,-1,-1,-1,-1,-1,-1,-1,-1,-1,-1,-1,-1,-1,-1,-1,-1,-1,-1],"split_conditions":[6.2882346E-1,4.7650394E-1,8.638784E-1,2.82287E-2,4.6666905E-1,5.7509404E-1,2.3329794E-1,5.4599553E-1,3.8405514E-1,4.994737E-1,6.395252E-1,5.7120067E-1,4.4429037E-1,1.9893366E-1,1.861001E-1,6.7007226E-1,4.9403736E-1,4.4050175E-1,5.5905294E-1,4.7548777E-1,8.9770234E-1,4.5678625E-1,4.5138174E-1,2.70408E-1,6.792156E-1,5.899927E-1,2.937851E-1,2.836889E-1,4.3788925E-1,3.2073733E-1,1.9311188E-1,1.6677774E-1,4.2626E-2,4.9736825E-1,2.2013904E-1,2.0951004E-1,4.7688565E-1,1.4968425E-1,5.805142E-1,5.117923E-1,2.0075253E-1,1.7531626E-1,6.311287E-1,4.7117066E-1,4.7790166E-2,6.8806624E-1,2.055807E-1,4.5411295E-1,7.788258E-1,7.0185685E-1,3.650947E-1,7.6620686E-1,7.321238E-1,2.6881704E-1,7.610392E-1,8.971988E-1,2.4072741E-1,7.932549E-1,1.76025E-1,7.098244E-1,6.5799016E-1,2.8209427E-1,4.2721242E-1,4.116033E-1,5.946061E-1,5.716418E-1,4.795824E-1,7.8884226E-1,3.824207E-1,6.404764E-1,5.518934E-1,3.6445886E-1,3.4076136E-1,9.208334E-1,5.5666678E-2,9.8397565E-1,8.3245015E-1,3.1236264E-1,7.196509E-1,2.4227957E-1,6.828016E-1,2.1373989E-1,6.208541E-1,2.1467975E-1,6.3208395E-1,5.7861245E-1,5.1644975E-1,2.3523296E-1,4.9042308E-1,2.8172413E-1,3.1753245E-1,2.8826132E-1,4.2894877E-2,8.098072E-2,3.5416165E-1,5.663139E-1,1.9121973E-1,6.674703E-1,9.9121705E-2,4.791747E-1,7.453569E-1,6.587208E-1,2.4233517E-1,3.9023897E-1,7.283779E-1,1.7380974E-1,5.9851354E-1,7.4351716E-1,6.401721E-1,5.306297E-1,5.602447E-1,4.7242686E-1,5.2885073E-1,4.033812E-1,2.9922077E-1,5.5107546E-1,8.4994084E-1,6.1238503E-1,1.9466296E-2,5.772139E-1,1.4639436E-1,9.247729E-1,3.0788955E-1,8.452075E-1,1.627716E-1,8.865986E-1,1.4863095E-1,-1.9685292E-1,-2.826319E-1,-4.6455357E-2,-1.9264333E-1,-2.5294462E-2,-2.1536823E-1,-1.2697072E-1,2.4029917E-1,-2.6439843E-1,-2.2582712E-2,-8.6755484E-2,-3.104975E-1,-5.7396974E-2,-1.8498087E-1,2.6281672E-2,1.4548887E-1,-2.4363307E-2,4.8249915E-2,-1.6192233E-2,5.0952214E-1,-1.6587646E-1,-5.992143E-2,-3.3480175E-2,4.1924953E-1,-8.5059725E-2,-2.959752E-1,-2.151012E-1,-8.671767E-2,-1.09369636E-1,-1.0354517E-2,4.5967773E-2,-1.6401312E-1,3.440649E-2,-1.5776614E-2,2.8262064E-2,1.3469487E-1,5.5038605E-2,-3.205457E-3,5.3264275E-2,-1.0784478E-1,2.759822E-2,-7.499781E-2,7.897978E-2,2.597068E-1,-7.795868E-2,-1.0229848E-2,-2.9663574E-2,1.4054963E-2,-1.9609778E-1,-8.513137E-2,-9.447765E-2,-1.1239618E-2,2.3720395E-2,8.008083E-2,5.279961E-1,-3.666973E-2,8.9005075E-2,-6.761741E-2,-1.7472504E-2,3.360462E-2,-2.320118E-2,-1.2912062E-1,1.2521908E-1,1.3205196E-2,-4.4239527E-3,4.7872405E-2,3.2141876E-1,8.845041E-2,3.905012E-2,-1.9249449E-2,7.584719E-2,2.0950612E-1,1.5988132E-1,5.3646314E-1,3.4271446E-1,5.6077797E-2,3.8068807E-3,-6.175067E-2,1.1488091E-1,5.1895267E-1,2.7960522E-2,-6.402911E-2,-7.8181796E-2,-1.8296464E-1,3.1959236E-1,-6.2524003E-4,1.6635021E-2,6.0699295E-2,7.1334084E-3,-4.534326E-2,-1.6933523E-2,1.7617083E-1,1.427566E-1,6.199808E-2,5.407067E-1,8.4689714E-2,-7.308285E-2,5.0202057E-2,-1.3609129E-1,7.657788E-2,1.9652047E-3,-5.5042103E-2,5.7332456E-2,4.2341754E-1,7.383925E-2,-2.7923247E-2,5.0348586E-1,1.2661712E-1,2.1880945E-2,1.2716858E-1,2.68847E-1,-4.3283146E-2,6.0871284E-2,3.2359347E-1,2.7179059E-2,5.8626896E-1,2.7129537E-1,1.2317723E-1,2.2756734E-1,6.6942714E-2,3.858786E-2,3.3641678E-1,3.5043833E-1,9.996692E-2],"split_indices":[20,85,20,90,64,58,72,64,83,83,85,43,76,51,66,79,79,20,28,40,85,20,70,42,55,79,63,75,66,63,45,91,61,83,52,83,28,39,79,85,63,36,86,15,90,64,69,85,85,85,70,72,62,56,85,48,78,85,72,44,62,83,40,28,40,0,78,70,45,40,39,72,36,43,90,44,70,91,77,39,61,48,70,86,70,0,36,90,43,54,36,87,76,36,51,83,56,20,63,83,61,52,52,45,70,39,61,62,43,79,89,64,41,91,85,64,64,86,87,76,58,41,36,44,42,43,79,0,0,0,0,0,0,0,0,0,0,0,0,0,0,0,0,0,0,0,0,0,0,0,0,0,0,0,0,0,0,0,0,0,0,0,0,0,0,0,0,0,0,0,0,0,0,0,0,0,0,0,0,0,0,0,0,0,0,0,0,0,0,0,0,0,0,0,0,0,0,0,0,0,0,0,0,0,0,0,0,0,0,0,0,0,0,0,0,0,0,0,0,0,0,0,0,0,0,0,0,0,0,0,0,0,0,0,0,0,0,0,0,0,0,0,0,0,0,0,0,0,0,0,0],"split_type":[0,0,0,0,0,0,0,0,0,0,0,0,0,0,0,0,0,0,0,0,0,0,0,0,0,0,0,0,0,0,0,0,0,0,0,0,0,0,0,0,0,0,0,0,0,0,0,0,0,0,0,0,0,0,0,0,0,0,0,0,0,0,0,0,0,0,0,0,0,0,0,0,0,0,0,0,0,0,0,0,0,0,0,0,0,0,0,0,0,0,0,0,0,0,0,0,0,0,0,0,0,0,0,0,0,0,0,0,0,0,0,0,0,0,0,0,0,0,0,0,0,0,0,0,0,0,0,0,0,0,0,0,0,0,0,0,0,0,0,0,0,0,0,0,0,0,0,0,0,0,0,0,0,0,0,0,0,0,0,0,0,0,0,0,0,0,0,0,0,0,0,0,0,0,0,0,0,0,0,0,0,0,0,0,0,0,0,0,0,0,0,0,0,0,0,0,0,0,0,0,0,0,0,0,0,0,0,0,0,0,0,0,0,0,0,0,0,0,0,0,0,0,0,0,0,0,0,0,0,0,0,0,0,0,0,0,0,0,0,0,0,0,0,0,0,0,0,0,0,0,0],"sum_hessian":[5.3415E5,2.7721E5,2.5694E5,8.6562E4,1.90648E5,1.99855E5,5.7085E4,2.2399E4,6.4163E4,7.4754E4,1.15894E5,1.3291E5,6.6945E4,1.9932E4,3.7153E4,1.3237E4,9.162E3,2.9982E4,3.4181E4,6.3451E4,1.1303E4,4.6558E4,6.9336E4,8.13E4,5.161E4,2.4402E4,4.2543E4,6.166E3,1.3766E4,9.024E3,2.8129E4,1.208E4,1.157E3,3.667E3,5.495E3,1.3798E4,1.6184E4,2.1731E4,1.245E4,3.1803E4,3.1648E4,1.1097E4,2.06E2,2.6081E4,2.0477E4,2.4712E4,4.4624E4,4.4265E4,3.7035E4,4.1713E4,9.897E3,1.5904E4,8.498E3,2.5636E4,1.6907E4,3.667E3,2.499E3,1.1077E4,2.689E3,6.15E3,2.874E3,8.854E3,1.9275E4,1.1576E4,5.04E2,6E1,1.097E3,2.239E3,1.428E3,3.58E2,5.137E3,4.53E3,9.268E3,4.999E3,1.1185E4,7.077E3,1.4654E4,7.638E3,4.812E3,1.526E3,3.0277E4,8.24E3,2.3408E4,3.388E3,7.709E3,7.4E1,1.32E2,1.1749E4,1.4332E4,4.345E3,1.6132E4,1.9026E4,5.686E3,1.5096E4,2.9528E4,8.329E3,3.5936E4,3.2846E4,4.189E3,2.9487E4,1.2226E4,1.826E3,8.071E3,1.5723E4,1.81E2,5.257E3,3.241E3,1.335E3,2.4301E4,1.52E4,1.707E3,3.59E3,7.7E1,1.14E3,1.359E3,9.694E3,1.383E3,1.396E3,1.293E3,3.059E3,3.091E3,2.604E3,2.7E2,4.291E3,4.563E3,6.505E3,1.277E4,2.189E3,9.387E3,3.72E2,1.32E2,8.71E2,2.26E2,2.126E3,1.13E2,1.311E3,1.17E2,1.98E2,1.6E2,4.859E3,2.78E2,3.414E3,1.116E3,7.464E3,1.804E3,4.952E3,4.7E1,2.67E3,8.515E3,6.989E3,8.8E1,1.4328E4,3.26E2,5.956E3,1.682E3,3.603E3,1.209E3,5.78E2,9.48E2,2.5803E4,4.474E3,2.683E3,5.557E3,1.7159E4,6.249E3,2.87E2,3.101E3,5.409E3,2.3E3,8.3E1,4.9E1,8.686E3,3.063E3,6.613E3,7.719E3,3.116E3,1.229E3,1.1142E4,4.99E3,1.4519E4,4.507E3,5.8E1,5.628E3,9.56E2,1.414E4,2.0247E4,9.281E3,7.35E3,9.79E2,8.26E2,3.511E4,4.997E3,2.7849E4,3.15E2,3.874E3,2.529E4,4.197E3,1.135E4,8.76E2,1.451E3,3.75E2,4.62E2,7.609E3,1.242E4,3.303E3,1.13E2,6.8E1,1.42E3,3.837E3,2.238E3,1.003E3,6.3E2,7.05E2,1.8367E4,5.934E3,8.602E3,6.598E3,8.6E2,8.47E2,1.508E3,2.082E3,4.7E1,3E1,6.01E2,5.39E2,5.3E1,1.306E3,6.154E3,3.54E3,1.249E3,1.34E2,6.38E2,7.58E2,8.7E1,1.206E3,2.177E3,8.82E2,1.06E2,2.985E3,2.452E3,1.52E2,1.17E2,1.53E2,2.725E3,1.566E3,1.046E3,3.517E3,6.379E3,1.26E2,4.51E2,1.2319E4],"tree_param":{"num_deleted":"0","num_feature":"92","num_nodes":"251","size_leaf_vector":"1"}},{"base_weights":[1.7002668E-2,-3.2506173E0,3.578178E0,-9.528897E0,-4.0492138E-1,2.5587478E0,7.110326E0,-1.843687E1,-6.4700227E0,1.1595254E0,-3.410147E0,1.3929571E0,4.464105E0,2.9763427E0,9.291289E0,-2.2946238E1,-9.592876E0,-2.7919488E0,-9.713934E0,-2.5363445E-1,4.2469373E0,-6.6617813E0,-7.159006E-1,2.6113532E0,-4.3513623E-1,-1.3078026E0,5.349368E0,2.0947053E0,1.3247542E1,1.5339983E1,7.3766575E0,-1.0362165E1,-2.5555336E1,4.1111805E1,-1.0048573E1,1.0288191E0,-6.1356153E0,-1.312048E1,-6.402657E0,2.1590085E0,-1.557493E0,4.2024046E-1,5.313219E0,-8.559691E0,-1.8224612E0,2.6126368E0,-3.475371E0,-3.49259E-1,3.4931667E0,-3.21536E0,7.976996E-1,-2.6030684E0,2.0152506E1,4.4450564E0,9.190402E0,1.2666414E1,1.3646463E0,4.7702703E0,2.4257854E1,2.5888973E1,1.2345277E1,9.099579E0,3.5715199E0,-5.2689753E0,-1.650071E1,-1.9904387E1,-2.8341265E1,-7.4748E-2,5.55679E-1,-1.6159836E1,-7.095154E0,-3.5082467E0,3.9813247E0,-1.1489884E1,-3.3400126E0,-1.6870466E1,-6.365626E0,-1.1073557E1,-4.4438987E0,3.330093E0,-7.2448933E-1,-3.3892531E0,1.1549217E-1,3.5287337E0,-1.8242041E0,3.647435E0,7.2236824E0,-1.3509181E1,-6.440012E0,3.726094E0,-4.1946926E0,4.7053013E0,-1.5612655E0,6.08706E-1,-5.6861243E0,1.2683895E0,-8.497794E0,1.4669936E0,4.7628846E0,-7.7238016E0,-9.164469E-1,1.3849925E0,-4.196542E0,-5.299317E0,3.2481127E0,4.452818E1,4.170554E0,3.284522E0,8.032442E0,2.0575962E1,5.5147147E0,8.009287E0,3.384202E1,4.6379204E0,-6.0511047E-1,1.954912E1,-2.0562558E0,1.5754332E1,4.2038315E1,3.8055676E1,1.5217338E1,2.315759E1,9.970105E0,2.1388802E1,8.069351E0,2.8156128E0,2.8642563E1,-1.0002577E-1,-1.7579831E-2,-2.899771E-1,-1.0306934E-1,-2.1959655E-1,-3.1529274E-2,-2.9258937E-1,-1.0217973E-1,-6.7660876E-2,-2.0512944E-1,-5.3458236E-2,-1.6115607E-1,-1.547415E-1,-2.7652761E-2,1.7220033E-2,1.0217634E-1,-2.5744686E-2,-1.4245084E-1,-9.38278E-2,-8.3334564E-4,-1.2615882E-1,-2.1830487E-1,-8.891174E-2,-9.041899E-3,-1.6535813E-1,-8.127747E-2,3.7296203E-1,-4.725056E-2,5.4728527E-2,1.9436963E-2,6.231262E-3,-5.1922698E-2,-5.9985965E-2,-1.729882E-2,-1.411692E-2,2.3297276E-2,4.646018E-3,7.981445E-2,-3.80905E-3,-9.4252445E-2,4.8113808E-2,3.5482172E-3,9.132203E-2,5.2673757E-2,-1.9961783E-1,-9.87258E-2,-3.5053782E-2,-1.073634E-1,1.7361434E-1,-1.0900168E-3,-2.0227911E-2,-1.4416623E-1,-1.6332898E-2,6.1311543E-2,-3.9672654E-2,9.1259904E-2,5.9434004E-2,-5.7438888E-2,-8.000875E-2,-2.3401078E-2,3.3955235E-2,-2.2092797E-2,-6.446635E-2,-1.6886234E-1,1.303364E-2,2.3462202E-1,1.3758144E-2,6.364765E-2,-2.2403264E-2,-1.2011564E-1,-1.5531384E-2,4.4509417E-1,8.0497377E-4,3.606529E-2,1.0419255E-2,-8.163746E-2,-1.2046717E-1,-1.570056E-2,4.4395807E-1,2.2004843E-2,7.149355E-2,6.285709E-1,2.7414918E-1,-5.172245E-3,4.1003708E-2,-3.1731084E-2,7.292688E-2,2.607007E-1,4.0786028E-1,1.4409249E-1,3.7851351E-1,4.4532776E-2,-5.4511044E-2,1.2502679E-1,5.7020205E-1,2.0313123E-1,1.1148034E-1,3.0936329E-2,-4.2531222E-2,2.198161E-2,1.2889263E-1,4.3116486E-1,-1.1644852E-1,3.3315267E-2,5.42351E-2,2.413054E-1,1.0148415E-1,5.1037496E-1,4.7275597E-1,2.136632E-1,-1.650607E-2,2.03227E-1,1.516713E-1,3.7006137E-1,2.2372425E-1,8.214021E-2,1.0697492E-1,2.837204E-1,7.62801E-2,3.1978142E-1,2.4417285E-2,4.0333113E-1,4.4231016E-2,4.8303828E-1],"categories":[],"categories_nodes":[],"categories_segments":[],"categories_sizes":[],"default_left":[0,0,0,0,0,0,0,0,0,0,0,0,0,0,0,0,0,0,0,0,0,0,0,0,0,0,0,0,0,0,0,0,0,0,0,0,0,0,0,0,0,0,0,0,0,0,0,0,0,0,0,0,0,0,0,0,0,0,0,0,0,0,0,0,0,0,0,0,0,0,0,0,0,0,0,0,0,0,0,0,0,0,0,0,0,0,0,0,0,0,0,0,0,0,0,0,0,0,0,0,0,0,0,0,0,0,0,0,0,0,0,0,0,0,0,0,0,0,0,0,0,0,0,0,0,0,0,0,0,0,0,0,0,0,0,0,0,0,0,0,0,0,0,0,0,0,0,0,0,0,0,0,0,0,0,0,0,0,0,0,0,0,0,0,0,0,0,0,0,0,0,0,0,0,0,0,0,0,0,0,0,0,0,0,0,0,0,0,0,0,0,0,0,0,0,0,0,0,0,0,0,0,0,0,0,0,0,0,0,0,0,0,0,0,0,0,0,0,0,0,0,0,0,0,0,0,0,0,0,0,0,0,0,0,0,0,0,0,0,0,0,0,0,0,0,0,0,0,0,0,0],"id":2,"left_children":[1,3,5,7,9,11,13,15,17,19,21,23,25,27,29,31,33,35,37,39,41,43,45,47,49,51,53,55,57,59,61,63,65,67,69,71,73,75,77,79,81,83,85,87,89,91,93,95,97,99,101,103,105,107,109,111,113,115,117,119,121,123,125,127,129,131,133,-1,-1,135,137,139,141,143,145,147,149,151,153,155,157,159,161,163,165,167,169,171,173,175,177,179,181,183,185,187,189,191,193,195,197,199,201,203,205,207,209,211,213,215,217,219,221,223,225,227,229,231,233,235,237,239,241,243,245,247,249,-1,-1,-1,-1,-1,-1,-1,-1,-1,-1,-1,-1,-1,-1,-1,-1,-1,-1,-1,-1,-1,-1,-1,-1,-1,-1,-1,-1,-1,-1,-1,-1,-1,-1,-1,-1,-1,-1,-1,-1,-1,-1,-1,-1,-1,-1,-1,-1,-1,-1,-1,-1,-1,-1,-1,-1,-1,-1,-1,-1,-1,-1,-1,-1,-1,-1,-1,-1,-1,-1,-1,-1,-1,-1,-1,-1,-1,-1,-1,-1,-1,-1,-1,-1,-1,-1,-1,-1,-1,-1,-1,-1,-1,-1,-1,-1,-1,-1,-1,-1,-1,-1,-1,-1,-1,-1,-1,-1,-1,-1,-1,-1,-1,-1,-1,-1,-1,-1,-1,-1,-1,-1,-1,-1],"loss_changes":[6.229753E6,4.987956E6,9.22331E5,2.372083E6,9.032561E5,4.4156412E5,5.1714025E5,8.86447E5,7.7332575E5,5.512626E5,5.7619394E5,2.747416E5,3.8562488E5,1.7935886E5,4.3437075E5,4.825045E5,1.7591475E5,3.8823678E5,3.881085E5,2.7269003E5,1.6186806E5,2.7365038E5,3.3047578E5,1.9324281E5,1.6911145E5,2.7931438E5,2.2706288E5,1.4085144E5,1.4558781E5,2.83512E5,1.8691825E5,7.894653E4,1.892775E5,4.983814E4,1.3409125E5,1.901014E5,2.4238619E5,4.293995E5,1.5964475E5,1.02707875E5,1.7245103E5,6.0388832E4,9.860919E4,2.241425E5,1.1066911E5,1.4248894E5,1.7762455E5,2.2402016E5,1.4668694E5,1.5705958E5,1.00290625E5,1.495186E5,2.21906E5,2.2039725E5,5.21048E5,1.14914766E5,1.1018338E5,9.009238E4,9.950222E4,2.5561312E5,1.7961475E5,2.4778038E5,1.6830197E5,2.3096477E4,8.7442375E4,1.389525E5,1.342325E5,0E0,0E0,9.8550875E4,7.908342E4,4.9527344E4,1.2102819E5,1.3631738E5,2.0965988E5,2.28876E5,8.364269E4,8.2356375E4,1.4547467E5,6.420042E4,5.292741E4,1.1625706E5,9.9487984E4,4.9494426E4,5.5131125E4,6.3552203E4,5.3699562E4,1.4952262E5,1.8889625E5,1.3173512E5,1.30573836E5,9.823778E4,1.4031981E5,2.3444639E5,9.875831E4,1.04941016E5,4.7890656E4,7.894735E4,1.9016969E5,1.2019909E5,2.9084084E5,8.864788E4,7.481641E4,1.6311148E5,1.28446055E5,1.5258862E5,3.8317414E4,2.1096638E5,1.7176644E5,3.7593588E5,3.2279166E5,5.9190562E4,6.037308E4,6.4370938E4,1.0918255E5,4.1482688E4,3.1913998E4,3.984314E4,5.9685562E4,1.3759112E5,9.222681E4,1.3706312E5,1.2496675E5,1.11667E5,1.9006575E5,1.2080078E5,1.2273991E5,0E0,0E0,0E0,0E0,0E0,0E0,0E0,0E0,0E0,0E0,0E0,0E0,0E0,0E0,0E0,0E0,0E0,0E0,0E0,0E0,0E0,0E0,0E0,0E0,0E0,0E0,0E0,0E0,0E0,0E0,0E0,0E0,0E0,0E0,0E0,0E0,0E0,0E0,0E0,0E0,0E0,0E0,0E0,0E0,0E0,0E0,0E0,0E0,0E0,0E0,0E0,0E0,0E0,0E0,0E0,0E0,0E0,0E0,0E0,0E0,0E0,0E0,0E0,0E0,0E0,0E0,0E0,0E0,0E0,0E0,0E0,0E0,0E0,0E0,0E0,0E0,0E0,0E0,0E0,0E0,0E0,0E0,0E0,0E0,0E0,0E0,0E0,0E0,0E0,0E0,0E0,0E0,0E0,0E0,0E0,0E0,0E0,0E0,0E0,0E0,0E0,0E0,0E0,0E0,0E0,0E0,0E0,0E0,0E0,0E0,0E0,0E0,0E0,0E0,0E0,0E0,0E0,0E0,0E0,0E0,0E0,0E0,0E0,0E0],"parents":[2147483647,0,0,1,1,2,2,3,3,4,4,5,5,6,6,7,7,8,8,9,9,10,10,11,11,12,12,13,13,14,14,15,15,16,16,17,17,18,18,19,19,20,20,21,21,22,22,23,23,24,24,25,25,26,26,27,27,28,28,29,29,30,30,31,31,32,32,33,33,34,34,35,35,36,36,37,37,38,38,39,39,40,40,41,41,42,42,43,43,44,44,45,45,46,46,47,47,48,48,49,49,50,50,51,51,52,52,53,53,54,54,55,55,56,56,57,57,58,58,59,59,60,60,61,61,62,62,63,63,64,64,65,65,66,66,69,69,70,70,71,71,72,72,73,73,74,74,75,75,76,76,77,77,78,78,79,79,80,80,81,81,82,82,83,83,84,84,85,85,86,86,87,87,88,88,89,89,90,90,91,91,92,92,93,93,94,94,95,95,96,96,97,97,98,98,99,99,100,100,101,101,102,102,103,103,104,104,105,105,106,106,107,107,108,108,109,109,110,110,111,111,112,112,113,113,114,114,115,115,116,116,117,117,118,118,119,119,120,120,121,121,122,122,123,123,124,124,125,125,126,126],"right_children":[2,4,6,8,10,12,14,16,18,20,22,24,26,28,30,32,34,36,38,40,42,44,46,48,50,52,54,56,58,60,62,64,66,68,70,72,74,76,78,80,82,84,86,88,90,92,94,96,98,100,102,104,106,108,110,112,114,116,118,120,122,124,126,128,130,132,134,-1,-1,136,138,140,142,144,146,148,150,152,154,156,158,160,162,164,166,168,170,172,174,176,178,180,182,184,186,188,190,192,194,196,198,200,202,204,206,208,210,212,214,216,218,220,222,224,226,228,230,232,234,236,238,240,242,244,246,248,250,-1,-1,-1,-1,-1,-1,-1,-1,-1,-1,-1,-1,-1,-1,-1,-1,-1,-1,-1,-1,-1,-1,-1,-1,-1,-1,-1,-1,-1,-1,-1,-1,-1,-1,-1,-1,-1,-1,-1,-1,-1,-1,-1,-1,-1,-1,-1,-1,-1,-1,-1,-1,-1,-1,-1,-1,-1,-1,-1,-1,-1,-1,-1,-1,-1,-1,-1,-1,-1,-1,-1,-1,-1,-1,-1,-1,-1,-1,-1,-1,-1,-1,-1,-1,-1,-1,-1,-1,-1,-1,-1,-1,-1,-1,-1,-1,-1,-1,-1,-1,-1,-1,-1,-1,-1,-1,-1,-1,-1,-1,-1,-1,-1,-1,-1,-1,-1,-1,-1,-1,-1,-1,-1,-1],"split_conditions":[6.3101333E-1,4.7650394E-1,8.638784E-1,2.82287E-2,4.4471997E-1,5.7120067E-1,2.3329794E-1,5.481291E-1,3.8405514E-1,5.4579556E-1,2.5240618E-1,5.389922E-1,8.6275674E-2,5.3859097E-1,5.957889E-1,7.639623E-2,4.2626E-2,4.4471997E-1,5.306297E-1,5.055586E-1,4.6134794E-1,4.1323408E-1,4.6543247E-1,4.8797542E-1,3.7648743E-1,8.644295E-1,6.773166E-1,1.2046147E-1,7.5669956E-1,2.6048654E-1,3.20125E-1,3.557233E-1,6.6498554E-1,6.628685E-2,1.9013685E-1,1.2886901E-1,4.5816103E-1,2.6772216E-1,1.7857978E-1,6.015829E-1,4.8019606E-1,4.524555E-1,6.270328E-1,1.6354081E-1,4.524555E-1,5.7341784E-1,4.2674205E-1,4.9736825E-1,5.946745E-1,4.4158232E-1,5.611519E-1,7.450505E-1,3.4557936E-1,7.0185685E-1,3.7495548E-1,6.944789E-1,2.2795871E-1,4.0308425E-1,3.8280764E-1,4.5585543E-1,1.6996919E-1,2.1824458E-1,8.865986E-1,4.8093227E-1,1.3994187E-1,6.909812E-1,7.1998525E-1,-7.4748E-2,5.55679E-1,1.6362149E-1,8.582209E-1,1.0371281E-1,5.682761E-1,5.7406586E-1,5.369278E-1,2.2385989E-1,5.890005E-1,2.2100039E-1,2.9219994E-2,5.259016E-1,6.076185E-1,6.447908E-1,7.246914E-1,2.3121616E-1,4.7758323E-1,5.838156E-1,3.3953592E-1,3.8966483E-1,7.2753924E-1,4.2084983E-1,8.5105103E-1,1.487399E-1,4.769295E-1,2.9421073E-1,5.8662033E-1,7.097666E-1,7.728866E-1,9.8397565E-1,5.494243E-1,4.9568775E-1,9.881039E-1,7.224161E-1,6.4740676E-1,3.740448E-1,3.0293418E-2,4.2287162E-1,9.0828955E-2,4.9736825E-1,8.168987E-1,3.7105542E-1,1.6478735E-1,1.6131993E-1,3.4109783E-1,1.6748454E-1,6.447908E-1,6.539075E-1,2.3062663E-1,7.2223055E-1,4.934421E-1,2.5101045E-1,4.3386015E-1,7.431094E-1,2.6480672E-1,4.4299203E-1,8.638633E-1,8.971988E-1,5.4056334E-1,-1.0002577E-1,-1.7579831E-2,-2.899771E-1,-1.0306934E-1,-2.1959655E-1,-3.1529274E-2,-2.9258937E-1,-1.0217973E-1,-6.7660876E-2,-2.0512944E-1,-5.3458236E-2,-1.6115607E-1,-1.547415E-1,-2.7652761E-2,1.7220033E-2,1.0217634E-1,-2.5744686E-2,-1.4245084E-1,-9.38278E-2,-8.3334564E-4,-1.2615882E-1,-2.1830487E-1,-8.891174E-2,-9.041899E-3,-1.6535813E-1,-8.127747E-2,3.7296203E-1,-4.725056E-2,5.4728527E-2,1.9436963E-2,6.231262E-3,-5.1922698E-2,-5.9985965E-2,-1.729882E-2,-1.411692E-2,2.3297276E-2,4.646018E-3,7.981445E-2,-3.80905E-3,-9.4252445E-2,4.8113808E-2,3.5482172E-3,9.132203E-2,5.2673757E-2,-1.9961783E-1,-9.87258E-2,-3.5053782E-2,-1.073634E-1,1.7361434E-1,-1.0900168E-3,-2.0227911E-2,-1.4416623E-1,-1.6332898E-2,6.1311543E-2,-3.9672654E-2,9.1259904E-2,5.9434004E-2,-5.7438888E-2,-8.000875E-2,-2.3401078E-2,3.3955235E-2,-2.2092797E-2,-6.446635E-2,-1.6886234E-1,1.303364E-2,2.3462202E-1,1.3758144E-2,6.364765E-2,-2.2403264E-2,-1.2011564E-1,-1.5531384E-2,4.4509417E-1,8.0497377E-4,3.606529E-2,1.0419255E-2,-8.163746E-2,-1.2046717E-1,-1.570056E-2,4.4395807E-1,2.2004843E-2,7.149355E-2,6.285709E-1,2.7414918E-1,-5.172245E-3,4.1003708E-2,-3.1731084E-2,7.292688E-2,2.607007E-1,4.0786028E-1,1.4409249E-1,3.7851351E-1,4.4532776E-2,-5.4511044E-2,1.2502679E-1,5.7020205E-1,2.0313123E-1,1.1148034E-1,3.0936329E-2,-4.2531222E-2,2.198161E-2,1.2889263E-1,4.3116486E-1,-1.1644852E-1,3.3315267E-2,5.42351E-2,2.413054E-1,1.0148415E-1,5.1037496E-1,4.7275597E-1,2.136632E-1,-1.650607E-2,2.03227E-1,1.516713E-1,3.7006137E-1,2.2372425E-1,8.214021E-2,1.0697492E-1,2.837204E-1,7.62801E-2,3.1978142E-1,2.4417285E-2,4.0333113E-1,4.4231016E-2,4.8303828E-1],"split_indices":[20,85,20,90,20,43,72,79,83,6,51,79,24,24,32,24,61,20,79,12,13,91,17,85,31,85,55,88,59,91,39,85,26,24,81,24,37,91,81,70,15,52,6,45,52,55,73,83,26,55,83,41,37,85,82,79,51,31,90,55,83,31,43,70,81,37,52,0,0,39,59,81,6,56,20,39,37,45,90,5,17,85,26,24,54,12,83,46,41,73,41,48,39,72,20,53,44,44,74,61,26,26,59,31,54,55,57,83,73,70,52,39,70,81,85,43,81,89,44,45,43,77,76,61,72,48,71,0,0,0,0,0,0,0,0,0,0,0,0,0,0,0,0,0,0,0,0,0,0,0,0,0,0,0,0,0,0,0,0,0,0,0,0,0,0,0,0,0,0,0,0,0,0,0,0,0,0,0,0,0,0,0,0,0,0,0,0,0,0,0,0,0,0,0,0,0,0,0,0,0,0,0,0,0,0,0,0,0,0,0,0,0,0,0,0,0,0,0,0,0,0,0,0,0,0,0,0,0,0,0,0,0,0,0,0,0,0,0,0,0,0,0,0,0,0,0,0,0,0,0,0],"split_type":[0,0,0,0,0,0,0,0,0,0,0,0,0,0,0,0,0,0,0,0,0,0,0,0,0,0,0,0,0,0,0,0,0,0,0,0,0,0,0,0,0,0,0,0,0,0,0,0,0,0,0,0,0,0,0,0,0,0,0,0,0,0,0,0,0,0,0,0,0,0,0,0,0,0,0,0,0,0,0,0,0,0,0,0,0,0,0,0,0,0,0,0,0,0,0,0,0,0,0,0,0,0,0,0,0,0,0,0,0,0,0,0,0,0,0,0,0,0,0,0,0,0,0,0,0,0,0,0,0,0,0,0,0,0,0,0,0,0,0,0,0,0,0,0,0,0,0,0,0,0,0,0,0,0,0,0,0,0,0,0,0,0,0,0,0,0,0,0,0,0,0,0,0,0,0,0,0,0,0,0,0,0,0,0,0,0,0,0,0,0,0,0,0,0,0,0,0,0,0,0,0,0,0,0,0,0,0,0,0,0,0,0,0,0,0,0,0,0,0,0,0,0,0,0,0,0,0,0,0,0,0,0,0,0,0,0,0,0,0,0,0,0,0,0,0,0,0,0,0,0,0],"sum_hessian":[5.3535E5,2.79182E5,2.56168E5,8.7071E4,1.92111E5,1.988E5,5.7368E4,2.225E4,6.4821E4,1.26343E5,6.5768E4,1.23342E5,7.5458E4,1.9817E4,3.7551E4,1.4731E4,7.519E3,3.0382E4,3.4439E4,8.6675E4,3.9668E4,2.9798E4,3.597E4,7.4012E4,4.933E4,1.0034E4,6.5424E4,1.8256E4,1.561E3,9.02E3,2.8531E4,2.534E3,1.2197E4,6.3E1,7.456E3,1.4181E4,1.6201E4,1.6968E4,1.7471E4,3.0407E4,5.6268E4,8.646E3,3.1022E4,2.1401E4,8.397E3,1.6304E4,1.9666E4,1.6986E4,5.7026E4,1.5152E4,3.4178E4,9.467E3,5.67E2,5.2965E4,1.2459E4,1.174E3,1.7082E4,8.86E2,6.75E2,1.986E3,7.034E3,1.9634E4,8.897E3,1.39E3,1.144E3,4.041E3,8.156E3,1.5E1,4.8E1,2.422E3,5.034E3,5.59E3,8.591E3,5.552E3,1.0649E4,1.0906E4,6.062E3,5.155E3,1.2316E4,2.1624E4,8.783E3,2.6857E4,2.9411E4,3.624E3,5.022E3,1.658E4,1.4442E4,6.409E3,1.4992E4,2.514E3,5.883E3,1.0859E4,5.445E3,6.908E3,1.2758E4,1.4176E4,2.81E3,2.1973E4,3.5053E4,5.113E3,1.0039E4,3.0585E4,3.593E3,6.481E3,2.986E3,2.21E2,3.46E2,4.0026E4,1.2939E4,3.035E3,9.424E3,9.68E2,2.06E2,6.415E3,1.0667E4,2.77E2,6.09E2,4.63E2,2.12E2,9.22E2,1.064E3,1.259E3,5.775E3,1.511E3,1.8123E4,8.642E3,2.55E2,5.88E2,8.02E2,3.73E2,7.71E2,3.598E3,4.43E2,7.76E3,3.96E2,7.71E2,1.651E3,4.223E3,8.11E2,3.21E2,5.269E3,6.311E3,2.28E3,1.313E3,4.239E3,3.726E3,6.923E3,5.88E3,5.026E3,4.143E3,1.919E3,1.798E3,3.357E3,7.8E1,1.2238E4,8.489E3,1.3135E4,6.751E3,2.032E3,1.0435E4,1.6422E4,1.7407E4,1.2004E4,2.15E3,1.474E3,4.225E3,7.97E2,1.2248E4,4.332E3,7.301E3,7.141E3,2.302E3,4.107E3,8.913E3,6.079E3,5.48E2,1.966E3,4.857E3,1.026E3,1.994E3,8.865E3,4.447E3,9.98E2,3.755E3,3.153E3,7.537E3,5.221E3,8.796E3,5.38E3,2.265E3,5.45E2,2.1816E4,1.57E2,1.1258E4,2.3795E4,2.247E3,2.866E3,9.905E3,1.34E2,1.9273E4,1.1312E4,1.55E3,2.043E3,2.303E3,4.178E3,6.9E1,2.917E3,7.5E1,1.46E2,5.4E1,2.92E2,3.5538E4,4.488E3,1.2436E4,5.03E2,7.03E2,2.332E3,2.94E2,9.13E3,2.42E2,7.26E2,7E1,1.36E2,1.224E3,5.191E3,4.634E3,6.033E3,2.22E2,5.5E1,2.17E2,3.92E2,2.11E2,2.52E2,4.9E1,1.63E2,5.88E2,3.34E2,2.48E2,8.16E2,8.05E2,4.54E2,7.09E2,5.066E3,6.02E2,9.09E2,1.7801E4,3.22E2,8.562E3,8E1,1.17E2,1.38E2],"tree_param":{"num_deleted":"0","num_feature":"92","num_nodes":"251","size_leaf_vector":"1"}},{"base_weights":[-1.9377354E-3,-4.9668474E0,1.6618294E0,-1.2566334E1,-1.215055E0,3.793692E0,1.9007215E-1,-8.925317E0,-2.088046E1,6.284454E0,-3.08273E0,5.980988E0,2.6879673E0,-1.5558265E0,1.495254E0,-1.310946E1,-5.084521E0,-2.4391987E1,-7.460188E0,2.6328988E0,1.21853E1,-1.5029808E0,-9.392209E0,1.6410608E1,5.456481E0,3.3885255E0,-9.7593933E-1,8.3957744E-1,-3.5033276E0,-2.9731062E-1,2.732305E0,-1.2178973E0,-1.5413601E1,-6.8597717E0,2.4012647E0,-1.762043E1,-2.8037075E1,-1.822201E1,-4.122641E0,6.368852E-1,2.2265885E0,5.971328E-1,1.1256794E1,-2.393E0,5.899303E0,-1.0482665E1,-2.6057208E0,1.4518534E1,5.9027584E1,3.7553372E0,8.258772E0,5.249103E0,1.9135494E0,-3.3361719E0,6.283467E0,2.648135E0,-9.280842E-1,-9.244743E0,-2.3464725E0,-1.937968E0,2.8801436E0,1.7054965E0,6.6430755E0,2.2039452E1,-6.2186756E0,-7.9265842E0,-1.8718882E1,-7.487438E0,1.32234125E1,-1.0331205E1,6.8457246E0,-2.5232105E1,-1.0524874E1,-2.8896736E1,-1.7158798E0,-2.8824831E1,-1.1621486E1,-5.781948E0,6.081947E0,5.3679734E-1,1.3329914E1,1.6945433E1,4.379877E0,-3.4494717E0,1.8262451E0,5.313732E-1,1.2322305E1,1.0765022E-1,-1.1065507E1,-6.0954647E0,1.4767528E1,8.007769E0,2.6656515E1,3.272631E-1,6.561195E-1,2.1541033E0,9.314046E0,5.6491947E0,1.1774585E1,1.7589529E1,4.8301E0,1.0151997E0,6.3478775E0,-3.6269197E0,5.9405214E-1,2.7429345E0,2.3397457E1,-4.7652364E0,3.8752527E0,-1.3439787E1,2.8146452E-1,-1.970263E1,-6.6779447E0,-4.193603E0,8.7604773E-1,-1.345024E0,-1.0851058E1,2.6510813E1,2.214359E0,3.927401E0,3.624865E-1,3.6407855E0,1.4949707E1,4.775345E-3,5.121228E-1,7.796935E-2,-1.3416724E-1,-8.730895E-2,2.9491493E-1,2.6068372E-1,-1.9586144E-1,-8.336984E-2,6.5242834E-2,5.474505E-1,4.5459688E-2,-1.9018179E-1,-2.7286718E-2,3.5897065E-2,2.3389827E-1,-1.0133937E-1,-2.8948233E-1,-2.666726E-1,-7.652595E-2,-3.1666926E-1,-2.3895778E-1,-1.4437701E-1,5.941454E-2,-3.0076906E-1,-1.14906795E-1,-2.1878201E-1,-9.452021E-2,-5.248664E-2,-2.9270288E-1,1.225574E-1,-1.5438169E-2,-1.5971239E-4,2.6522875E-1,5.159056E-1,9.21524E-2,3.799903E-1,1.3829865E-1,8.890004E-2,-6.5761685E-2,-4.753526E-2,4.4420687E-4,-3.6434036E-2,7.413379E-2,-7.922594E-3,3.735543E-1,2.256344E-1,7.133301E-2,-4.338166E-2,1.0337026E-1,-8.91721E-2,-1.4721294E-1,-4.805078E-2,-3.5669285E-1,3.8867316E-1,-6.1630894E-4,7.6646237E-3,1.4369473E-1,6.376562E-2,3.8286644E-1,6.084165E-2,4.097124E-3,2.2532691E-1,6.402969E-2,7.274008E-2,-3.9704368E-2,6.6069156E-2,1.6407411E-1,4.1589913E-1,1.255677E-1,3.7491184E-2,8.862878E-2,-3.4785014E-2,2.1523496E-2,-3.7188124E-2,8.063486E-2,-7.305939E-2,-3.5895423E-3,2.0989656E-1,-4.069503E-3,4.8401785E-1,2.4359891E-2,1.4899857E-1,-6.906346E-2,3.553249E-2,2.5419727E-1,-1.9609453E-2,-1.9154975E-1,4.4276952E-4,6.909243E-1,-2.1655063E-1,7.09351E-2,-8.5531116E-2,3.80697E-2,-5.5628967E-2,1.0674142E-2,1.7088243E-1,-7.400943E-3,-2.874137E-2,1.874991E-2,-1.6077249E-1,-1.922168E-2,7.755342E-2,4.6005526E-1,-4.587676E-2,4.147972E-2,2.7695972E-1,3.5952892E-2,-5.447567E-2,1.1326219E-2,1.2969323E-2,1.10772766E-1,2.2742578E-1,4.9456805E-2],"categories":[],"categories_nodes":[],"categories_segments":[],"categories_sizes":[],"default_left":[0,0,0,0,0,0,0,0,0,0,0,0,0,0,0,0,0,0,0,0,0,0,0,0,0,0,0,0,0,0,0,0,0,0,0,0,0,0,0,0,0,0,0,0,0,0,0,0,0,0,0,0,0,0,0,0,0,0,0,0,0,0,0,0,0,0,0,0,0,0,0,0,0,0,0,0,0,0,0,0,0,0,0,0,0,0,0,0,0,0,0,0,0,0,0,0,0,0,0,0,0,0,0,0,0,0,0,0,0,0,0,0,0,0,0,0,0,0,0,0,0,0,0,0,0,0,0,0,0,0,0,0,0,0,0,0,0,0,0,0,0,0,0,0,0,0,0,0,0,0,0,0,0,0,0,0,0,0,0,0,0,0,0,0,0,0,0,0,0,0,0,0,0,0,0,0,0,0,0,0,0,0,0,0,0,0,0,0,0,0,0,0,0,0,0,0,0,0,0,0,0,0,0,0,0,0,0,0,0,0,0,0,0,0,0,0,0,0,0,0,0,0,0,0,0,0,0,0,0,0,0,0,0,0,0,0,0],"id":3,"left_children":[1,3,5,7,9,11,13,15,17,19,21,23,25,27,29,31,33,35,37,39,41,43,45,47,49,51,53,55,57,59,61,63,65,67,69,71,73,75,77,-1,79,-1,81,83,85,87,89,91,93,95,97,99,101,103,105,107,109,111,113,115,117,119,121,123,125,127,129,131,133,135,137,139,141,143,145,147,149,151,153,155,157,159,161,163,165,167,169,171,173,175,177,179,181,-1,-1,183,185,187,189,191,193,195,197,199,-1,201,203,205,207,209,211,213,215,217,219,221,223,225,227,229,231,233,235,-1,-1,-1,-1,-1,-1,-1,-1,-1,-1,-1,-1,-1,-1,-1,-1,-1,-1,-1,-1,-1,-1,-1,-1,-1,-1,-1,-1,-1,-1,-1,-1,-1,-1,-1,-1,-1,-1,-1,-1,-1,-1,-1,-1,-1,-1,-1,-1,-1,-1,-1,-1,-1,-1,-1,-1,-1,-1,-1,-1,-1,-1,-1,-1,-1,-1,-1,-1,-1,-1,-1,-1,-1,-1,-1,-1,-1,-1,-1,-1,-1,-1,-1,-1,-1,-1,-1,-1,-1,-1,-1,-1,-1,-1,-1,-1,-1,-1,-1,-1,-1,-1,-1,-1,-1,-1,-1,-1,-1,-1,-1,-1,-1,-1],"loss_changes":[4.415047E6,3.8248245E6,1.2560592E6,1.3412935E6,1.2581459E6,3.953475E5,5.3969125E5,4.953435E5,6.352865E5,3.8575112E5,7.167147E5,2.9985062E5,2.7878944E5,4.726544E5,3.0052988E5,4.0430025E5,2.1390466E5,2.61588E5,1.0044645E5,2.7391022E5,2.9870925E5,3.7901575E5,1.0642125E5,2.0746125E5,2.4904025E5,2.5016481E5,2.9886838E5,1.4527062E5,3.7106562E5,2.8853206E5,3.2194725E5,2.799332E5,3.052015E5,1.6445538E5,1.7510031E5,2.0158425E5,1.56921E5,4.4724562E4,3.6563863E4,0E0,2.0638706E5,0E0,2.625173E5,2.2892034E5,2.1287027E5,7.6569375E4,1.2170645E5,1.9816119E5,8.3133125E3,2.8950478E5,1.8079612E5,2.0803112E5,2.0259642E5,2.4117764E5,2.5901562E5,2.0441275E5,3.478173E5,2.5086381E5,2.769128E5,1.9282816E5,2.9622512E5,1.8953616E5,4.1555938E5,2.6784112E5,2.0027547E5,1.1550084E5,3.35549E5,1.5044788E5,1.414351E5,5.2640977E4,1.230454E5,1.0003025E5,8.953134E4,8.9396E4,2.2347332E4,3.7195938E3,8.244934E3,2.2417387E4,1.4359809E4,1.3723853E5,2.2636883E5,2.384955E5,1.5095302E5,1.8711619E5,3.1447172E5,1.6435817E5,1.485754E5,2.9875826E4,9.167975E4,6.283485E4,1.2009152E5,7.586343E4,2.05863E5,0E0,0E0,1.7320706E5,2.7922425E5,1.7740544E5,2.0070538E5,1.5707075E5,1.6984012E5,2.1620634E5,1.481236E5,1.575591E5,0E0,2.0419416E5,3.8359588E5,1.3491406E5,1.3325297E5,1.3272538E5,3.420914E5,9.724194E4,1.4822962E5,2.1304831E5,4.4425238E5,1.685626E5,1.0605297E5,1.8688247E5,2.4125944E5,1.8839338E5,1.7719978E5,2.1351594E5,3.4441112E5,0E0,0E0,0E0,0E0,0E0,0E0,0E0,0E0,0E0,0E0,0E0,0E0,0E0,0E0,0E0,0E0,0E0,0E0,0E0,0E0,0E0,0E0,0E0,0E0,0E0,0E0,0E0,0E0,0E0,0E0,0E0,0E0,0E0,0E0,0E0,0E0,0E0,0E0,0E0,0E0,0E0,0E0,0E0,0E0,0E0,0E0,0E0,0E0,0E0,0E0,0E0,0E0,0E0,0E0,0E0,0E0,0E0,0E0,0E0,0E0,0E0,0E0,0E0,0E0,0E0,0E0,0E0,0E0,0E0,0E0,0E0,0E0,0E0,0E0,0E0,0E0,0E0,0E0,0E0,0E0,0E0,0E0,0E0,0E0,0E0,0E0,0E0,0E0,0E0,0E0,0E0,0E0,0E0,0E0,0E0,0E0,0E0,0E0,0E0,0E0,0E0,0E0,0E0,0E0,0E0,0E0,0E0,0E0,0E0,0E0,0E0,0E0,0E0,0E0],"parents":[2147483647,0,0,1,1,2,2,3,3,4,4,5,5,6,6,7,7,8,8,9,9,10,10,11,11,12,12,13,13,14,14,15,15,16,16,17,17,18,18,19,19,20,20,21,21,22,22,23,23,24,24,25,25,26,26,27,27,28,28,29,29,30,30,31,31,32,32,33,33,34,34,35,35,36,36,37,37,38,38,40,40,42,42,43,43,44,44,45,45,46,46,47,47,48,48,49,49,50,50,51,51,52,52,53,53,54,54,55,55,56,56,57,57,58,58,59,59,60,60,61,61,62,62,63,63,64,64,65,65,66,66,67,67,68,68,69,69,70,70,71,71,72,72,73,73,74,74,75,75,76,76,77,77,78,78,79,79,80,80,81,81,82,82,83,83,84,84,85,85,86,86,87,87,88,88,89,89,90,90,91,91,92,92,95,95,96,96,97,97,98,98,99,99,100,100,101,101,102,102,103,103,105,105,106,106,107,107,108,108,109,109,110,110,111,111,112,112,113,113,114,114,115,115,116,116,117,117,118,118,119,119,120,120,121,121,122,122],"right_children":[2,4,6,8,10,12,14,16,18,20,22,24,26,28,30,32,34,36,38,40,42,44,46,48,50,52,54,56,58,60,62,64,66,68,70,72,74,76,78,-1,80,-1,82,84,86,88,90,92,94,96,98,100,102,104,106,108,110,112,114,116,118,120,122,124,126,128,130,132,134,136,138,140,142,144,146,148,150,152,154,156,158,160,162,164,166,168,170,172,174,176,178,180,182,-1,-1,184,186,188,190,192,194,196,198,200,-1,202,204,206,208,210,212,214,216,218,220,222,224,226,228,230,232,234,236,-1,-1,-1,-1,-1,-1,-1,-1,-1,-1,-1,-1,-1,-1,-1,-1,-1,-1,-1,-1,-1,-1,-1,-1,-1,-1,-1,-1,-1,-1,-1,-1,-1,-1,-1,-1,-1,-1,-1,-1,-1,-1,-1,-1,-1,-1,-1,-1,-1,-1,-1,-1,-1,-1,-1,-1,-1,-1,-1,-1,-1,-1,-1,-1,-1,-1,-1,-1,-1,-1,-1,-1,-1,-1,-1,-1,-1,-1,-1,-1,-1,-1,-1,-1,-1,-1,-1,-1,-1,-1,-1,-1,-1,-1,-1,-1,-1,-1,-1,-1,-1,-1,-1,-1,-1,-1,-1,-1,-1,-1,-1,-1,-1,-1],"split_conditions":[4.6564084E-1,1.8051405E-1,4.6666905E-1,4.913763E-1,1.575494E-1,6.1865234E-1,6.395252E-1,5.3048193E-1,6.039311E-1,3.655164E-1,4.9736825E-1,2.0269428E-1,4.994737E-1,3.4320843E-1,2.3979035E-1,1.8911417E-1,3.6633804E-1,5.007825E-1,1.8839647E-1,8.354193E-2,1.8270232E-1,4.9113426E-1,4.345102E-1,8.9283204E-1,2.5006804E-1,4.6467066E-1,7.872337E-1,6.0123056E-1,3.0766755E-1,5.453075E-1,4.7703737E-1,1.645874E-1,2.1049783E-1,6.3618284E-1,3.9391482E-1,5.0026083E-1,2.6289544E-1,5.935761E-1,8.811113E-1,6.368852E-1,4.7400224E-1,5.971328E-1,3.023998E-1,3.455247E-1,7.449804E-1,7.512901E-2,7.2353363E-1,7.4941933E-1,5.506954E-1,4.3098083E-1,3.0247724E-1,1.4160225E-1,4.5578805E-1,9.7980034E-1,3.939032E-1,2.9482082E-1,2.6932856E-1,1.6875197E-1,7.106933E-1,7.1724105E-1,2.4591818E-1,2.9832432E-1,8.261263E-1,2.1895435E-1,1.920472E-1,9.1720414E-1,6.424323E-2,9.293617E-1,6.1786424E-2,7.294171E-1,5.912174E-1,3.049254E-1,2.7495065E-1,4.963532E-1,2.345918E-1,6.886863E-1,3.036761E-1,6.9002056E-1,5.360152E-1,9.8376405E-1,3.113955E-1,9.34671E-2,7.7492744E-1,3.6686656E-1,2.0032108E-1,5.714319E-1,4.1698995E-1,7.8797793E-1,7.0686305E-1,8.8901204E-1,5.640486E-1,4.8814222E-1,2.4598897E-1,3.272631E-1,6.561195E-1,2.019015E-1,3.2593334E-1,6.956055E-1,5.16598E-1,9.750509E-2,6.773166E-1,3.602906E-1,8.5076615E-2,2.2958861E-1,5.9405214E-1,3.769371E-1,4.4804618E-1,1.0811399E-1,7.366711E-1,2.833118E-1,9.883389E-1,4.889815E-1,6.5580845E-1,4.2144224E-1,3.360155E-1,5.4585767E-1,4.370791E-1,1.2334205E-1,1.4211683E-1,6.683119E-2,2.7033472E-1,3.5960916E-1,7.6053274E-1,4.775345E-3,5.121228E-1,7.796935E-2,-1.3416724E-1,-8.730895E-2,2.9491493E-1,2.6068372E-1,-1.9586144E-1,-8.336984E-2,6.5242834E-2,5.474505E-1,4.5459688E-2,-1.9018179E-1,-2.7286718E-2,3.5897065E-2,2.3389827E-1,-1.0133937E-1,-2.8948233E-1,-2.666726E-1,-7.652595E-2,-3.1666926E-1,-2.3895778E-1,-1.4437701E-1,5.941454E-2,-3.0076906E-1,-1.14906795E-1,-2.1878201E-1,-9.452021E-2,-5.248664E-2,-2.9270288E-1,1.225574E-1,-1.5438169E-2,-1.5971239E-4,2.6522875E-1,5.159056E-1,9.21524E-2,3.799903E-1,1.3829865E-1,8.890004E-2,-6.5761685E-2,-4.753526E-2,4.4420687E-4,-3.6434036E-2,7.413379E-2,-7.922594E-3,3.735543E-1,2.256344E-1,7.133301E-2,-4.338166E-2,1.0337026E-1,-8.91721E-2,-1.4721294E-1,-4.805078E-2,-3.5669285E-1,3.8867316E-1,-6.1630894E-4,7.6646237E-3,1.4369473E-1,6.376562E-2,3.8286644E-1,6.084165E-2,4.097124E-3,2.2532691E-1,6.402969E-2,7.274008E-2,-3.9704368E-2,6.6069156E-2,1.6407411E-1,4.1589913E-1,1.255677E-1,3.7491184E-2,8.862878E-2,-3.4785014E-2,2.1523496E-2,-3.7188124E-2,8.063486E-2,-7.305939E-2,-3.5895423E-3,2.0989656E-1,-4.069503E-3,4.8401785E-1,2.4359891E-2,1.4899857E-1,-6.906346E-2,3.553249E-2,2.5419727E-1,-1.9609453E-2,-1.9154975E-1,4.4276952E-4,6.909243E-1,-2.1655063E-1,7.09351E-2,-8.5531116E-2,3.80697E-2,-5.5628967E-2,1.0674142E-2,1.7088243E-1,-7.400943E-3,-2.874137E-2,1.874991E-2,-1.6077249E-1,-1.922168E-2,7.755342E-2,4.6005526E-1,-4.587676E-2,4.147972E-2,2.7695972E-1,3.5952892E-2,-5.447567E-2,1.1326219E-2,1.2969323E-2,1.10772766E-1,2.2742578E-1,4.9456805E-2],"split_indices":[85,91,64,83,83,32,85,64,79,60,83,82,83,83,69,83,72,70,45,55,91,66,36,77,24,58,85,64,46,37,83,75,66,66,71,37,24,53,80,0,48,0,69,36,38,60,62,74,23,69,36,70,60,80,42,31,37,45,77,70,62,83,85,63,45,59,72,53,45,23,72,85,64,64,30,38,64,70,35,47,71,75,89,42,24,72,79,74,59,47,71,37,57,0,0,63,31,70,82,30,55,31,24,36,0,62,79,57,45,48,38,91,45,60,79,67,91,62,66,76,31,36,32,0,0,0,0,0,0,0,0,0,0,0,0,0,0,0,0,0,0,0,0,0,0,0,0,0,0,0,0,0,0,0,0,0,0,0,0,0,0,0,0,0,0,0,0,0,0,0,0,0,0,0,0,0,0,0,0,0,0,0,0,0,0,0,0,0,0,0,0,0,0,0,0,0,0,0,0,0,0,0,0,0,0,0,0,0,0,0,0,0,0,0,0,0,0,0,0,0,0,0,0,0,0,0,0,0,0,0,0,0,0,0,0,0,0],"split_type":[0,0,0,0,0,0,0,0,0,0,0,0,0,0,0,0,0,0,0,0,0,0,0,0,0,0,0,0,0,0,0,0,0,0,0,0,0,0,0,0,0,0,0,0,0,0,0,0,0,0,0,0,0,0,0,0,0,0,0,0,0,0,0,0,0,0,0,0,0,0,0,0,0,0,0,0,0,0,0,0,0,0,0,0,0,0,0,0,0,0,0,0,0,0,0,0,0,0,0,0,0,0,0,0,0,0,0,0,0,0,0,0,0,0,0,0,0,0,0,0,0,0,0,0,0,0,0,0,0,0,0,0,0,0,0,0,0,0,0,0,0,0,0,0,0,0,0,0,0,0,0,0,0,0,0,0,0,0,0,0,0,0,0,0,0,0,0,0,0,0,0,0,0,0,0,0,0,0,0,0,0,0,0,0,0,0,0,0,0,0,0,0,0,0,0,0,0,0,0,0,0,0,0,0,0,0,0,0,0,0,0,0,0,0,0,0,0,0,0,0,0,0,0,0,0,0,0,0,0,0,0,0,0,0,0,0,0],"sum_hessian":[5.3447E5,1.34147E5,4.00323E5,4.4334E4,8.9813E4,1.63493E5,2.3683E5,3.0839E4,1.3495E4,1.7905E4,7.1908E4,5.489E4,1.08603E5,1.0131E5,1.3552E5,1.4754E4,1.6085E4,1.0693E4,2.802E3,1.1065E4,6.84E3,5.7514E4,1.4394E4,2.621E3,5.2269E4,9.1171E4,1.7432E4,4.5432E4,5.5878E4,5.5337E4,8.0183E4,2.396E3,1.2358E4,1.3002E4,3.083E3,3.752E3,6.941E3,6.58E2,2.144E3,6.8E1,1.0997E4,1.25E2,6.715E3,5.1344E4,6.17E3,1.2399E4,1.995E3,2.516E3,1.05E2,3.2532E4,1.9737E4,4.031E4,5.0861E4,1.3157E4,4.275E3,2.2455E4,2.2977E4,9.365E3,4.6513E4,3.6495E4,1.8842E4,6.3514E4,1.6669E4,4.21E2,1.975E3,3.79E3,8.568E3,1.2611E4,3.91E2,7.96E2,2.287E3,1.804E3,1.948E3,6.721E3,2.2E2,2.46E2,4.12E2,1.846E3,2.98E2,9.549E3,1.448E3,3.671E3,3.044E3,4.1063E4,1.0281E4,3.364E3,2.806E3,6.47E2,1.1752E4,1.664E3,3.31E2,1.643E3,8.73E2,2.7E1,7.8E1,2.5262E4,7.27E3,1.1336E4,8.401E3,1.317E3,3.8993E4,4.2298E4,8.563E3,1.3101E4,5.6E1,3.547E3,7.28E2,3.187E3,1.9268E4,2.021E3,2.0956E4,1.839E3,7.526E3,2.9565E4,1.6948E4,3.4224E4,2.271E3,5.11E2,1.8331E4,2.3924E4,3.959E4,1.2249E4,4.42E3,2.45E2,1.76E2,6.7E2,1.305E3,3.714E3,7.6E1,1.6E2,8.408E3,1.1892E4,7.19E2,6.3E1,3.28E2,3.68E2,4.28E2,1.916E3,3.71E2,3.6E2,1.444E3,2.88E2,1.66E3,4.308E3,2.413E3,8.1E1,1.39E2,2.26E2,2E1,6.4E1,3.48E2,1.811E3,3.5E1,1.63E2,1.35E2,9.355E3,1.94E2,1.35E2,1.313E3,4.66E2,3.205E3,2.157E3,8.87E2,2.9901E4,1.1162E4,5.196E3,5.085E3,3.252E3,1.12E2,9.38E2,1.868E3,4.53E2,1.94E2,7.413E3,4.339E3,1.6E3,6.4E1,1.23E2,2.08E2,7.71E2,8.72E2,3.21E2,5.52E2,7.762E3,1.75E4,1.306E3,5.964E3,9.699E3,1.637E3,3.977E3,4.424E3,2.22E2,1.095E3,3.0758E4,8.235E3,8.54E3,3.3758E4,1.246E3,7.317E3,6.16E3,6.941E3,5.18E2,3.029E3,3.29E2,3.99E2,3.1E2,2.877E3,1.899E4,2.78E2,6.74E2,1.347E3,2.0889E4,6.7E1,1.715E3,1.24E2,6.385E3,1.141E3,2.3459E4,6.106E3,1.532E3,1.5416E4,2.3205E4,1.1019E4,1.43E3,8.41E2,2.64E2,2.47E2,4.056E3,1.4275E4,3.24E2,2.36E4,4.63E3,3.496E4,9.318E3,2.931E3,2.481E3,1.939E3],"tree_param":{"num_deleted":"0","num_feature":"92","num_nodes":"237","size_leaf_vector":"1"}},{"base_weights":[1.6806396E-2,-4.9029255E0,1.655325E0,-1.3998063E1,-1.6525493E0,-2.6037754E-2,3.7283967E0,-1.876673E1,-6.52277E0,-4.6203613E0,1.0735021E0,1.78419E0,-1.5971426E0,6.0219665E0,2.2731307E0,-2.5998148E1,-1.4016329E1,-9.55458E0,-9.998705E-1,-7.044427E0,-2.5457224E-1,-1.1643552E0,7.119839E0,2.8899593E0,-1.5086032E0,-4.0510768E-1,-4.144926E0,7.1171165E0,2.4243724E0,-5.542835E-1,3.6490438E0,-2.7906939E1,-1.347037E1,-1.8479212E1,-8.796917E0,-4.957158E0,-1.4590049E1,-3.4957318E0,1.2799406E1,-1.1368976E1,-5.3582172E0,4.048398E1,-5.571852E-1,-3.2565916E0,3.443254E0,4.7780113E0,1.878927E1,2.6098943E-1,4.0457687E0,-4.228045E0,1.9543202E0,-2.175977E0,1.5947908E0,-6.6038615E-1,-5.774945E0,5.749497E0,1.0991872E1,2.1685612E0,5.748389E-1,-1.4039683E0,1.0052199E1,-1.4392883E0,4.457285E0,-3.1548483E1,-2.319028E1,-1.7702401E0,-2.7197105E1,-2.4687511E1,-1.1776679E1,-2.1993765E1,-7.1026554E0,3.5578865E1,-5.8552713E0,-1.9362488E1,-7.280811E0,-7.553563E0,2.6748173E0,4.7355602E1,7.4460106E0,-2.4178152E1,-8.34711E0,-9.090629E0,-3.6935458E0,1.0889586E-1,5.845875E-1,-6.5877223E0,1.2665898E0,5.239225E-1,-5.8663616E0,5.910489E0,-4.7683644E0,9.5973625E0,-1.2073019E0,7.4960136E0,3.6084316E1,-4.30615E0,3.5349057E0,3.7173605E0,1.45344515E1,-1.0728165E1,-2.623157E0,1.1693151E0,4.0466434E1,-1.1533034E0,-6.3997455E0,-2.9204142E0,2.4505036E0,3.8813272E0,-5.209856E0,-7.2870297E0,-1.493234E0,2.7922482E0,7.142666E0,6.4066706E0,1.6201443E1,7.509013E-1,1.0909449E1,-2.114153E0,8.417106E0,1.8579472E0,2.1302814E1,1.9679568E0,-8.031521E0,1.6046891E0,5.8675385E0,-5.9647325E-2,-3.2154316E-1,-2.6030463E-1,-1.587642E-1,1.8639278E-1,-6.581137E-2,-3.1298685E-1,-7.408922E-2,-2.8787804E-1,-1.6115381E-1,-2.13353E-1,-6.5860145E-2,-8.412117E-2,-2.597207E-1,1.5729424E-1,-8.3373666E-2,4.516291E-2,5.5577576E-1,-6.49773E-2,1.5971513E-1,-1.06931396E-1,-2.51753E-1,7.5637944E-2,-1.0304627E-1,-2.0525573E-1,-5.7255395E-2,-1.7535387E-2,1.19149856E-1,3.0855E-1,5.396882E-1,-3.7005007E-2,1.9842805E-1,-8.0092005E-2,-2.99463E-1,-2.2716329E-1,-7.2456315E-2,-1.4961304E-1,-6.1135452E-2,-1.377577E-1,-3.1280488E-2,2.3737378E-1,-7.233608E-2,2.7070155E-3,1.6106857E-1,-8.079577E-2,3.2152772E-2,-1.0481087E-1,-2.817706E-2,-1.137068E-2,1.0539745E-1,-8.176308E-2,1.609967E-1,1.9792667E-1,6.4830296E-2,1.9507533E-2,-1.4371952E-1,3.0783442E-1,1.2216129E-2,1.3620853E-1,4.7538748E-1,-5.1839527E-2,1.5946694E-1,1.4249106E-1,2.2267625E-2,-3.9755763E-3,4.4130005E-2,5.291962E-1,1.2422564E-1,-3.2374762E-2,-1.7144503E-1,-7.940025E-2,-4.247336E-3,2.4119322E-3,1.9225457E-1,6.1212164E-1,1.2042148E-1,-3.2299135E-2,1.1051438E-2,-8.846071E-2,9.334767E-3,-9.03258E-2,2.755651E-3,-1.9396635E-2,3.659088E-2,-3.945527E-2,8.406397E-2,-6.0431488E-2,1.2095239E-1,-7.723635E-2,2.6024792E-1,-7.188084E-2,6.654727E-3,1.7045526E-1,1.88152E-2,3.6957815E-2,9.089031E-2,1.6088393E-1,2.1960773E-2,1.11387216E-1,2.3585929E-1,2.4615584E-3,2.1687931E-1,8.410716E-2,4.814534E-1,-2.4168553E-2,2.1218194E-1,-4.4748258E-2,1.9462994E-1,-1.1811982E-1,6.8676926E-2,9.847987E-2,4.4575712E-1,-5.958442E-2,5.3817872E-2,-9.735636E-2,7.911925E-2,1.41933905E-2,5.6368375E-1,1.1833462E-1,4.8523333E-2],"categories":[],"categories_nodes":[],"categories_segments":[],"categories_sizes":[],"default_left":[0,0,0,0,0,0,0,0,0,0,0,0,0,0,0,0,0,0,0,0,0,0,0,0,0,0,0,0,0,0,0,0,0,0,0,0,0,0,0,0,0,0,0,0,0,0,0,0,0,0,0,0,0,0,0,0,0,0,0,0,0,0,0,0,0,0,0,0,0,0,0,0,0,0,0,0,0,0,0,0,0,0,0,0,0,0,0,0,0,0,0,0,0,0,0,0,0,0,0,0,0,0,0,0,0,0,0,0,0,0,0,0,0,0,0,0,0,0,0,0,0,0,0,0,0,0,0,0,0,0,0,0,0,0,0,0,0,0,0,0,0,0,0,0,0,0,0,0,0,0,0,0,0,0,0,0,0,0,0,0,0,0,0,0,0,0,0,0,0,0,0,0,0,0,0,0,0,0,0,0,0,0,0,0,0,0,0,0,0,0,0,0,0,0,0,0,0,0,0,0,0,0,0,0,0,0,0,0,0,0,0,0,0,0,0,0,0,0,0,0,0,0,0,0,0,0,0,0,0,0,0,0,0,0,0,0,0,0,0,0,0,0,0,0,0],"id":4,"left_children":[1,3,5,7,9,11,13,15,17,19,21,23,25,27,29,31,33,35,37,39,41,43,45,47,49,51,53,55,57,59,61,63,65,67,69,71,73,75,77,79,81,83,85,87,89,91,93,95,97,99,101,103,105,107,109,111,113,115,-1,117,119,121,123,125,127,129,131,133,135,137,139,141,143,145,147,149,151,153,155,157,159,161,163,-1,-1,165,167,169,171,173,175,177,179,181,183,185,187,189,191,193,195,197,199,201,203,205,207,209,211,213,215,217,219,221,223,225,227,229,231,233,235,237,239,241,243,-1,-1,-1,-1,-1,-1,-1,-1,-1,-1,-1,-1,-1,-1,-1,-1,-1,-1,-1,-1,-1,-1,-1,-1,-1,-1,-1,-1,-1,-1,-1,-1,-1,-1,-1,-1,-1,-1,-1,-1,-1,-1,-1,-1,-1,-1,-1,-1,-1,-1,-1,-1,-1,-1,-1,-1,-1,-1,-1,-1,-1,-1,-1,-1,-1,-1,-1,-1,-1,-1,-1,-1,-1,-1,-1,-1,-1,-1,-1,-1,-1,-1,-1,-1,-1,-1,-1,-1,-1,-1,-1,-1,-1,-1,-1,-1,-1,-1,-1,-1,-1,-1,-1,-1,-1,-1,-1,-1,-1,-1,-1,-1,-1,-1,-1,-1,-1,-1,-1,-1],"loss_changes":[4.3049355E6,3.9442772E6,1.3963781E6,1.2516025E6,7.9532806E5,6.29151E5,5.98755E5,7.34825E5,2.2916612E5,4.98078E5,6.9338875E5,3.7427272E5,3.5966906E5,2.7429625E5,4.270535E5,2.012845E5,3.009095E5,2.0421644E5,1.6750406E5,2.2036875E5,2.0732202E5,3.6063838E5,3.778498E5,2.33808E5,2.4341047E5,2.8577516E5,2.143845E5,2.82592E5,2.2839636E5,3.239408E5,3.0370644E5,1.22894E5,1.817243E5,2.8891025E5,1.3292522E5,1.6949197E5,1.4632656E5,1.03186766E5,1.3605672E5,3.2742512E5,1.3516888E5,6.277917E4,1.8359305E5,2.538351E5,2.368384E5,3.3281762E5,4.5022138E5,3.5151806E5,1.8383875E5,1.5088286E5,3.435338E5,1.8482197E5,1.4645527E5,2.4879361E5,1.6644538E5,1.6251462E5,3.3203488E5,2.005791E5,0E0,2.3218166E5,2.4558166E5,2.275002E5,2.5629112E5,6.327075E4,6.500875E4,6.1195395E4,4.1126406E4,1.2484675E5,1.6625384E5,3.5541312E4,1.5026553E5,6.1487344E4,6.4056266E4,1.27005625E5,7.548627E4,5.8339562E4,6.708847E4,2.4770312E3,9.032297E4,1.4961006E5,1.0795866E5,1.1690406E5,8.571706E4,0E0,0E0,7.6776E4,1.894186E5,2.4351284E5,2.1397816E5,2.9322772E5,1.928166E5,2.0228275E5,2.1424986E5,2.0510305E5,2.3142575E5,1.7492225E5,1.9175839E5,1.4838088E5,1.2811959E5,1.3742234E5,1.3577106E5,1.8681511E5,1.3017234E5,1.6163228E5,1.4967428E5,1.1799997E5,1.6908638E5,2.1358906E5,8.710303E4,2.774015E5,8.2611734E4,1.640216E5,1.7981162E5,3.0202028E5,2.4221625E5,1.4724714E5,2.0815834E5,2.1945605E5,3.2012978E5,1.06417086E5,2.971824E5,1.8088995E5,9.4146984E4,2.1364269E5,2.5795575E5,0E0,0E0,0E0,0E0,0E0,0E0,0E0,0E0,0E0,0E0,0E0,0E0,0E0,0E0,0E0,0E0,0E0,0E0,0E0,0E0,0E0,0E0,0E0,0E0,0E0,0E0,0E0,0E0,0E0,0E0,0E0,0E0,0E0,0E0,0E0,0E0,0E0,0E0,0E0,0E0,0E0,0E0,0E0,0E0,0E0,0E0,0E0,0E0,0E0,0E0,0E0,0E0,0E0,0E0,0E0,0E0,0E0,0E0,0E0,0E0,0E0,0E0,0E0,0E0,0E0,0E0,0E0,0E0,0E0,0E0,0E0,0E0,0E0,0E0,0E0,0E0,0E0,0E0,0E0,0E0,0E0,0E0,0E0,0E0,0E0,0E0,0E0,0E0,0E0,0E0,0E0,0E0,0E0,0E0,0E0,0E0,0E0,0E0,0E0,0E0,0E0,0E0,0E0,0E0,0E0,0E0,0E0,0E0,0E0,0E0,0E0,0E0,0E0,0E0,0E0,0E0,0E0,0E0,0E0,0E0],"parents":[2147483647,0,0,1,1,2,2,3,3,4,4,5,5,6,6,7,7,8,8,9,9,10,10,11,11,12,12,13,13,14,14,15,15,16,16,17,17,18,18,19,19,20,20,21,21,22,22,23,23,24,24,25,25,26,26,27,27,28,28,29,29,30,30,31,31,32,32,33,33,34,34,35,35,36,36,37,37,38,38,39,39,40,40,41,41,42,42,43,43,44,44,45,45,46,46,47,47,48,48,49,49,50,50,51,51,52,52,53,53,54,54,55,55,56,56,57,57,59,59,60,60,61,61,62,62,63,63,64,64,65,65,66,66,67,67,68,68,69,69,70,70,71,71,72,72,73,73,74,74,75,75,76,76,77,77,78,78,79,79,80,80,81,81,82,82,85,85,86,86,87,87,88,88,89,89,90,90,91,91,92,92,93,93,94,94,95,95,96,96,97,97,98,98,99,99,100,100,101,101,102,102,103,103,104,104,105,105,106,106,107,107,108,108,109,109,110,110,111,111,112,112,113,113,114,114,115,115,116,116,117,117,118,118,119,119,120,120,121,121,122,122,123,123,124,124],"right_children":[2,4,6,8,10,12,14,16,18,20,22,24,26,28,30,32,34,36,38,40,42,44,46,48,50,52,54,56,58,60,62,64,66,68,70,72,74,76,78,80,82,84,86,88,90,92,94,96,98,100,102,104,106,108,110,112,114,116,-1,118,120,122,124,126,128,130,132,134,136,138,140,142,144,146,148,150,152,154,156,158,160,162,164,-1,-1,166,168,170,172,174,176,178,180,182,184,186,188,190,192,194,196,198,200,202,204,206,208,210,212,214,216,218,220,222,224,226,228,230,232,234,236,238,240,242,244,-1,-1,-1,-1,-1,-1,-1,-1,-1,-1,-1,-1,-1,-1,-1,-1,-1,-1,-1,-1,-1,-1,-1,-1,-1,-1,-1,-1,-1,-1,-1,-1,-1,-1,-1,-1,-1,-1,-1,-1,-1,-1,-1,-1,-1,-1,-1,-1,-1,-1,-1,-1,-1,-1,-1,-1,-1,-1,-1,-1,-1,-1,-1,-1,-1,-1,-1,-1,-1,-1,-1,-1,-1,-1,-1,-1,-1,-1,-1,-1,-1,-1,-1,-1,-1,-1,-1,-1,-1,-1,-1,-1,-1,-1,-1,-1,-1,-1,-1,-1,-1,-1,-1,-1,-1,-1,-1,-1,-1,-1,-1,-1,-1,-1,-1,-1,-1,-1,-1,-1],"split_conditions":[4.6564084E-1,3.934104E-2,2.638373E-1,5.481291E-1,1.7319047E-1,5.013174E-1,4.5095086E-1,1.2302319E-1,3.152824E-1,4.5287102E-1,3.2619894E-1,3.467095E-1,5.5852216E-1,6.343741E-1,4.2059392E-1,6.6659254E-1,5.4599553E-1,2.0888637E-1,3.2376355E-1,4.4561654E-1,6.6807516E-2,3.471467E-1,4.5723233E-1,1.957496E-1,1.8864153E-1,3.853449E-1,2.1206135E-1,7.4339056E-1,9.6471256E-1,8.959398E-1,2.9020932E-1,3.0352673E-1,2.3238161E-1,8.650443E-1,1.9737744E-1,5.2299924E-2,2.645429E-1,1.3726555E-1,1.4363773E-1,1.8808131E-1,5.0740045E-1,8.030688E-1,8.115109E-2,2.3121361E-1,3.7668198E-1,5.4767114E-1,3.471467E-1,1.367363E-1,7.546535E-1,3.2860982E-1,9.550777E-1,8.333957E-1,4.7244486E-1,5.1809937E-1,5.6395006E-1,1.8839647E-1,7.0055366E-1,4.5827457E-1,5.748389E-1,5.131348E-1,2.9464048E-1,6.7827415E-1,5.636785E-1,6.0087636E-2,2.6497906E-1,2.5084504E-1,9.102966E-1,2.9071492E-1,1.4682861E-2,3.4587887E-1,2.3126955E-1,6.681925E-1,1.9698335E-1,4.8405614E-1,1.4455041E-1,4.0315545E-1,8.7909657E-1,8.798924E-1,2.638373E-1,7.4889004E-2,2.900646E-1,4.9403736E-1,1.0147159E-1,1.0889586E-1,5.845875E-1,4.45045E-2,8.931072E-1,4.509861E-1,1.8345262E-1,2.5071564E-1,7.107577E-1,1.4868939E-1,8.4040743E-1,3.9245084E-1,2.6320714E-1,8.576272E-1,3.9333606E-1,1.3816053E-1,7.6904766E-2,6.234144E-1,1.6056918E-1,9.268838E-1,3.1458482E-1,2.7574423E-1,6.86894E-1,4.6610734E-1,8.686169E-2,6.465627E-1,6.909812E-1,9.5770335E-1,5.577175E-1,3.06548E-1,2.3791906E-1,2.2797982E-1,5.345132E-1,9.9159956E-1,9.158158E-1,9.883389E-1,5.216721E-1,1.6859123E-1,1.07413374E-1,5.6535923E-1,8.4429544E-1,7.998353E-1,3.2638732E-1,-5.9647325E-2,-3.2154316E-1,-2.6030463E-1,-1.587642E-1,1.8639278E-1,-6.581137E-2,-3.1298685E-1,-7.408922E-2,-2.8787804E-1,-1.6115381E-1,-2.13353E-1,-6.5860145E-2,-8.412117E-2,-2.597207E-1,1.5729424E-1,-8.3373666E-2,4.516291E-2,5.5577576E-1,-6.49773E-2,1.5971513E-1,-1.06931396E-1,-2.51753E-1,7.5637944E-2,-1.0304627E-1,-2.0525573E-1,-5.7255395E-2,-1.7535387E-2,1.19149856E-1,3.0855E-1,5.396882E-1,-3.7005007E-2,1.9842805E-1,-8.0092005E-2,-2.99463E-1,-2.2716329E-1,-7.2456315E-2,-1.4961304E-1,-6.1135452E-2,-1.377577E-1,-3.1280488E-2,2.3737378E-1,-7.233608E-2,2.7070155E-3,1.6106857E-1,-8.079577E-2,3.2152772E-2,-1.0481087E-1,-2.817706E-2,-1.137068E-2,1.0539745E-1,-8.176308E-2,1.609967E-1,1.9792667E-1,6.4830296E-2,1.9507533E-2,-1.4371952E-1,3.0783442E-1,1.2216129E-2,1.3620853E-1,4.7538748E-1,-5.1839527E-2,1.5946694E-1,1.4249106E-1,2.2267625E-2,-3.9755763E-3,4.4130005E-2,5.291962E-1,1.2422564E-1,-3.2374762E-2,-1.7144503E-1,-7.940025E-2,-4.247336E-3,2.4119322E-3,1.9225457E-1,6.1212164E-1,1.2042148E-1,-3.2299135E-2,1.1051438E-2,-8.846071E-2,9.334767E-3,-9.03258E-2,2.755651E-3,-1.9396635E-2,3.659088E-2,-3.945527E-2,8.406397E-2,-6.0431488E-2,1.2095239E-1,-7.723635E-2,2.6024792E-1,-7.188084E-2,6.654727E-3,1.7045526E-1,1.88152E-2,3.6957815E-2,9.089031E-2,1.6088393E-1,2.1960773E-2,1.11387216E-1,2.3585929E-1,2.4615584E-3,2.1687931E-1,8.410716E-2,4.814534E-1,-2.4168553E-2,2.1218194E-1,-4.4748258E-2,1.9462994E-1,-1.1811982E-1,6.8676926E-2,9.847987E-2,4.4575712E-1,-5.958442E-2,5.3817872E-2,-9.735636E-2,7.911925E-2,1.41933905E-2,5.6368375E-1,1.1833462E-1,4.8523333E-2],"split_indices":[85,90,33,79,24,64,64,27,81,25,36,39,25,70,46,37,64,39,36,64,38,72,81,69,33,91,48,85,80,26,67,25,36,89,25,72,72,91,39,91,37,23,90,39,39,64,72,90,24,31,80,53,26,79,37,45,26,24,0,63,51,65,26,24,81,49,86,27,90,67,49,23,91,70,30,64,89,23,33,24,79,79,81,0,0,36,59,77,33,48,46,75,89,67,63,85,59,75,63,29,24,59,70,69,85,86,27,85,37,86,71,38,48,63,86,23,53,38,70,30,27,77,86,45,49,0,0,0,0,0,0,0,0,0,0,0,0,0,0,0,0,0,0,0,0,0,0,0,0,0,0,0,0,0,0,0,0,0,0,0,0,0,0,0,0,0,0,0,0,0,0,0,0,0,0,0,0,0,0,0,0,0,0,0,0,0,0,0,0,0,0,0,0,0,0,0,0,0,0,0,0,0,0,0,0,0,0,0,0,0,0,0,0,0,0,0,0,0,0,0,0,0,0,0,0,0,0,0,0,0,0,0,0,0,0,0,0,0,0,0,0,0,0,0,0],"split_type":[0,0,0,0,0,0,0,0,0,0,0,0,0,0,0,0,0,0,0,0,0,0,0,0,0,0,0,0,0,0,0,0,0,0,0,0,0,0,0,0,0,0,0,0,0,0,0,0,0,0,0,0,0,0,0,0,0,0,0,0,0,0,0,0,0,0,0,0,0,0,0,0,0,0,0,0,0,0,0,0,0,0,0,0,0,0,0,0,0,0,0,0,0,0,0,0,0,0,0,0,0,0,0,0,0,0,0,0,0,0,0,0,0,0,0,0,0,0,0,0,0,0,0,0,0,0,0,0,0,0,0,0,0,0,0,0,0,0,0,0,0,0,0,0,0,0,0,0,0,0,0,0,0,0,0,0,0,0,0,0,0,0,0,0,0,0,0,0,0,0,0,0,0,0,0,0,0,0,0,0,0,0,0,0,0,0,0,0,0,0,0,0,0,0,0,0,0,0,0,0,0,0,0,0,0,0,0,0,0,0,0,0,0,0,0,0,0,0,0,0,0,0,0,0,0,0,0,0,0,0,0,0,0,0,0,0,0,0,0,0,0,0,0,0,0],"sum_hessian":[5.3403E5,1.3342E5,4.0061E5,3.5123E4,9.8297E4,2.21206E5,1.79404E5,2.1439E4,1.3684E4,4.706E4,5.1237E4,1.02781E5,1.18425E5,6.9637E4,1.09767E5,8.491E3,1.2948E4,8.832E3,4.852E3,3.0257E4,1.6803E4,3.7399E4,1.3838E4,7.6943E4,2.5838E4,8.0682E4,3.7743E4,5.3382E4,1.6255E4,3.5932E4,7.3835E4,7.363E3,1.128E3,6.973E3,5.975E3,4.622E3,4.21E3,4.112E3,7.4E2,8.48E3,2.1777E4,1.19E2,1.6684E4,2.5721E4,1.1678E4,1.1531E4,2.307E3,2.3499E4,5.3444E4,1.4472E4,1.1366E4,4.2791E4,3.7891E4,1.2031E4,2.5712E4,3.9465E4,1.3917E4,1.6185E4,7E1,3.3271E4,2.661E3,1.012E4,6.3715E4,4.139E3,3.224E3,6.12E2,5.16E2,3.613E3,3.36E3,6.73E2,5.302E3,9.6E1,4.526E3,2.542E3,1.668E3,2.48E3,1.632E3,9.4E1,6.46E2,1.612E3,6.868E3,6.71E3,1.5067E4,4.8E1,7.1E1,3.871E3,1.2813E4,1.0506E4,1.5215E4,8.981E3,2.697E3,6.386E3,5.145E3,1.4E3,9.07E2,9.811E3,1.3688E4,5.1828E4,1.616E3,2.86E3,1.1612E4,1.1144E4,2.22E2,3.4455E4,8.336E3,6.035E3,3.1856E4,6.021E3,6.01E3,1.8999E4,6.713E3,1.2643E4,2.6822E4,7.408E3,6.509E3,1.3931E4,2.254E3,3.1031E4,2.24E3,1.543E3,1.118E3,6.674E3,3.446E3,2.1082E4,4.2633E4,9.7E1,4.042E3,2.313E3,9.11E2,1.14E2,4.98E2,4.25E2,9.1E1,2.436E3,1.177E3,1.177E3,2.183E3,1.56E2,5.17E2,2.69E2,5.033E3,4E1,5.6E1,4.4E3,1.26E2,1.026E3,1.516E3,2.81E2,1.387E3,3E2,2.18E3,1.106E3,5.26E2,3.5E1,5.9E1,3.42E2,3.04E2,4.27E2,1.185E3,4.82E2,6.386E3,2.251E3,4.459E3,7.94E2,1.4273E4,7.7E1,3.794E3,1.2012E4,8.01E2,2.501E3,8.005E3,6.048E3,9.167E3,3.562E3,5.419E3,2.321E3,3.76E2,1.488E3,4.898E3,4.153E3,9.92E2,2.93E2,1.107E3,3.1E2,5.97E2,9.407E3,4.04E2,1.484E3,1.2204E4,7.495E3,4.4333E4,7.8E1,1.538E3,1.323E3,1.537E3,3.393E3,8.219E3,1.0604E4,5.4E2,1.25E2,9.7E1,1.7949E4,1.6506E4,6.25E3,2.086E3,2.069E3,3.966E3,6.876E3,2.498E4,2.206E3,3.815E3,5.737E3,2.73E2,1.8757E4,2.42E2,1.842E3,4.871E3,7.54E2,1.1889E4,9.685E3,1.7137E4,2.241E3,5.167E3,3.869E3,2.64E3,1.3608E4,3.23E2,2.118E3,1.36E2,3.0638E4,3.93E2,1.035E3,1.205E3,4.12E2,1.131E3,7.54E2,3.64E2,2.008E3,4.666E3,3.115E3,3.31E2,2.1016E4,6.6E1,6.192E3,3.6441E4],"tree_param":{"num_deleted":"0","num_feature":"92","num_nodes":"245","size_leaf_vector":"1"}},{"base_weights":[-1.932207E-2,-3.269293E0,3.4543252E0,-1.03453245E1,-1.0031769E0,2.4597104E0,6.9776173E0,-7.6298575E0,-1.8075672E1,-3.2250795E0,1.5679264E0,1.312792E0,4.333285E0,3.8810406E0,1.1122835E1,-4.487189E0,-1.2429874E1,-2.0496151E1,-9.123393E0,-1.2651289E0,-6.2995195E0,3.9099953E0,-1.5013287E0,9.199704E-2,3.0204184E0,3.7382712E0,1.0771709E1,7.815837E0,2.0388858E0,9.391757E0,2.557486E1,-5.975495E0,1.9526322E0,-6.5762343E0,-1.7739565E1,-1.5087759E1,-2.4462158E1,-1.2862069E1,1.4927565E0,-2.5662582E0,3.0041423E0,-7.1420197E0,2.8647623E0,1.7030264E1,3.6085129E0,6.329712E-1,-3.7250495E0,-3.3037045E0,1.1733389E0,1.0049116E1,2.6786804E0,2.9727912E0,8.414737E0,9.107233E0,3.296834E1,3.2130936E1,6.6533284E0,8.481979E0,4.3769652E-1,4.3384137E0,1.3107796E1,3.2470917E1,1.3455635E1,-2.2831242E0,-8.697997E0,-4.630557E0,6.0538697E0,-1.8350675E0,-1.2689552E1,-2.0333652E1,-9.701409E0,-8.276043E0,-1.9464094E1,-2.4731174E1,3.5969356E-1,-2.1882343E1,-9.022951E0,1.8583515E1,-2.0700052E0,-1.8146094E0,-7.164033E0,3.9326515E0,-3.9691398E0,-9.346669E0,-4.262091E0,2.1463726E0,4.2631077E1,3.8522167E1,1.1451045E1,2.1761475E0,5.2191186E0,-6.065706E0,1.902034E0,3.244834E-3,-6.437849E0,1.5607518E-1,-6.716301E0,1.8381044E0,-1.9187572E0,5.3107136E-1,8.169079E0,3.5230236E0,3.9187127E-1,1.2758912E0,4.9686713E0,4.9172144E0,1.7369978E1,1.1561947E1,-2.3286753E0,1.8351976E1,6.328939E-1,2.665099E1,6.0257554E-1,8.412452E0,1.9018523E0,3.0380363E1,6.7612343E0,-1.7564461E0,4.8196893E0,1.546041E0,8.701724E0,1.9091486E1,8.570281E0,1.3833792E1,3.7800007E1,1.8204329E1,-2.4337006E0,-3.2083295E-2,2.5802016E-1,-1.0659678E-1,-1.8238153E-2,-6.437211E-2,5.606127E-2,1.8861862E-1,3.066111E-2,-4.7694094E-2,6.888574E-2,-2.1174145E-1,-6.721413E-2,-6.477237E-2,-2.2137171E-1,-1.0494462E-1,2.2010213E-1,-2.3175502E-1,-5.5764597E-2,-2.6658282E-1,-1.3988914E-1,-1.8002594E-1,-2.735349E-1,8.939258E-2,-2.4654238E-1,-1.0598602E-1,5.0594874E-2,2.821612E-1,1.0078407E-1,3.280774E-2,-1.2973283E-1,1.990604E-3,-3.6500774E-2,-9.691981E-2,-2.7227541E-2,2.4923125E-2,7.712514E-2,-7.817156E-2,1.0838855E-2,-7.6934084E-2,-1.2899241E-1,-7.443059E-2,-1.7031258E-2,1.8289086E-1,2.959198E-3,1.2418015E-1,4.4651216E-1,2.3608667E-1,4.8541254E-1,4.632013E-2,2.0855755E-1,-8.965918E-2,2.7615398E-2,7.646836E-2,3.0006122E-2,-2.3317404E-2,-1.2758923E-1,3.7123659E-3,8.0898985E-2,1.648003E-2,-8.021802E-2,-1.3681602E-1,-5.073717E-2,9.759491E-2,-1.24308355E-2,1.0418185E-2,-9.259698E-2,4.4429358E-2,9.540338E-3,-4.6600822E-2,2.4384191E-2,-1.1747916E-1,1.1671453E-1,5.421452E-2,1.4558958E-2,1.1001946E-3,2.960107E-1,2.8684037E-2,-2.1266095E-2,2.9035714E-1,4.7312435E-2,4.629743E-1,4.387582E-2,1.14126734E-1,3.8249028E-1,3.199446E-1,1.0216027E-1,1.8042478E-1,-3.935997E-2,5.8684933E-1,9.655656E-2,1.5127821E-1,3.5126603E-1,1.8131669E-1,7.311616E-2,-1.1491011E-2,1.0041409E-1,3.738226E-1,-5.477147E-3,5.113472E-2,1.680967E-1,3.9245952E-2,-3.8077943E-2,3.8374152E-2,2.3709853E-1,1.0210387E-2,3.3741954E-1,3.7117842E-1,7.580752E-2,3.1297588E-1,1.3738285E-1,5.764785E-2,1.6524822E-1,4.018187E-1,9.257211E-2,4.2657706E-1,1.11086786E-1,2.3819296E-1,1.01323955E-1,-5.4425314E-2,5.135983E-2],"categories":[],"categories_nodes":[],"categories_segments":[],"categories_sizes":[],"default_left":[0,0,0,0,0,0,0,0,0,0,0,0,0,0,0,0,0,0,0,0,0,0,0,0,0,0,0,0,0,0,0,0,0,0,0,0,0,0,0,0,0,0,0,0,0,0,0,0,0,0,0,0,0,0,0,0,0,0,0,0,0,0,0,0,0,0,0,0,0,0,0,0,0,0,0,0,0,0,0,0,0,0,0,0,0,0,0,0,0,0,0,0,0,0,0,0,0,0,0,0,0,0,0,0,0,0,0,0,0,0,0,0,0,0,0,0,0,0,0,0,0,0,0,0,0,0,0,0,0,0,0,0,0,0,0,0,0,0,0,0,0,0,0,0,0,0,0,0,0,0,0,0,0,0,0,0,0,0,0,0,0,0,0,0,0,0,0,0,0,0,0,0,0,0,0,0,0,0,0,0,0,0,0,0,0,0,0,0,0,0,0,0,0,0,0,0,0,0,0,0,0,0,0,0,0,0,0,0,0,0,0,0,0,0,0,0,0,0,0,0,0,0,0,0,0,0,0,0,0,0,0,0,0,0,0,0,0,0,0,0,0,0,0,0,0,0,0],"id":5,"left_children":[1,3,5,7,9,11,13,15,17,19,21,23,25,27,29,31,33,35,37,39,41,43,45,47,49,51,53,55,57,59,61,63,65,67,69,71,73,75,77,79,81,83,85,87,89,91,93,95,97,99,101,103,105,107,109,111,113,115,117,119,121,123,125,127,129,131,133,135,137,139,141,143,145,147,-1,149,151,153,155,157,159,161,163,165,167,169,171,173,175,177,179,181,183,185,187,189,191,193,195,-1,197,199,201,203,205,207,209,211,213,215,-1,217,-1,219,221,223,225,227,229,231,233,235,237,239,241,243,245,-1,-1,-1,-1,-1,-1,-1,-1,-1,-1,-1,-1,-1,-1,-1,-1,-1,-1,-1,-1,-1,-1,-1,-1,-1,-1,-1,-1,-1,-1,-1,-1,-1,-1,-1,-1,-1,-1,-1,-1,-1,-1,-1,-1,-1,-1,-1,-1,-1,-1,-1,-1,-1,-1,-1,-1,-1,-1,-1,-1,-1,-1,-1,-1,-1,-1,-1,-1,-1,-1,-1,-1,-1,-1,-1,-1,-1,-1,-1,-1,-1,-1,-1,-1,-1,-1,-1,-1,-1,-1,-1,-1,-1,-1,-1,-1,-1,-1,-1,-1,-1,-1,-1,-1,-1,-1,-1,-1,-1,-1,-1,-1,-1,-1,-1,-1,-1,-1,-1,-1],"loss_changes":[6.0289125E6,4.424083E6,9.0450825E5,1.404167E6,1.193891E6,4.3256688E5,7.2920175E5,7.46965E5,3.75972E5,6.754829E5,6.964566E5,2.6033328E5,2.9263662E5,2.357504E5,6.066265E5,2.870543E5,6.085115E5,2.917585E5,1.4738684E5,3.8036966E5,3.3706588E5,2.17057E5,1.9903897E5,2.674302E5,1.24912125E5,2.5038875E5,2.3731606E5,2.921395E5,2.286698E5,4.073015E5,2.1477575E5,2.4441744E5,1.520108E5,2.702777E5,2.1322275E5,1.7221388E5,1.327E5,9.407178E4,5.931682E4,1.8129431E5,1.0364178E5,2.5357988E5,1.0461455E5,1.4564103E5,1.2388319E5,1.8199698E5,2.0772384E5,2.0769923E5,1.1356451E5,1.9308394E5,9.586566E4,2.0366794E5,3.078045E5,1.6912738E5,1.931819E5,6.4720875E4,8.271866E4,1.6522394E5,1.7079972E5,1.1208639E5,3.3870625E5,1.61361E5,7.190242E4,2.688341E5,1.8867862E5,4.0164777E4,1.3242144E5,1.3481055E5,2.055845E5,1.93258E5,6.4429812E4,9.1020484E4,1.3718012E5,1.3617E5,0E0,7.081634E4,4.318167E4,1.2341758E4,4.735237E4,1.6673511E5,8.263594E4,7.676628E4,3.6636207E4,1.324465E5,1.4108397E5,1.0804741E5,1.1948594E3,3.1923781E4,6.2750156E4,1.8564931E5,1.3606794E5,8.5074805E4,1.7045919E5,1.1430571E5,1.1712341E5,1.17497445E5,1.747946E5,1.04685E5,1.16837586E5,0E0,1.6231203E5,1.4226722E5,1.1026027E5,1.7620842E5,1.5723044E5,1.5423936E5,3.413627E5,1.3468581E5,3.5324598E4,1.0589879E5,0E0,3.6800094E4,0E0,7.667141E4,6.668573E4,6.940003E4,6.7406016E4,1.3803234E5,1.0952247E5,9.480529E4,1.12979625E5,3.4997625E5,1.5843897E5,4.335917E4,1.63723E5,3.1970156E4,5.218789E3,0E0,0E0,0E0,0E0,0E0,0E0,0E0,0E0,0E0,0E0,0E0,0E0,0E0,0E0,0E0,0E0,0E0,0E0,0E0,0E0,0E0,0E0,0E0,0E0,0E0,0E0,0E0,0E0,0E0,0E0,0E0,0E0,0E0,0E0,0E0,0E0,0E0,0E0,0E0,0E0,0E0,0E0,0E0,0E0,0E0,0E0,0E0,0E0,0E0,0E0,0E0,0E0,0E0,0E0,0E0,0E0,0E0,0E0,0E0,0E0,0E0,0E0,0E0,0E0,0E0,0E0,0E0,0E0,0E0,0E0,0E0,0E0,0E0,0E0,0E0,0E0,0E0,0E0,0E0,0E0,0E0,0E0,0E0,0E0,0E0,0E0,0E0,0E0,0E0,0E0,0E0,0E0,0E0,0E0,0E0,0E0,0E0,0E0,0E0,0E0,0E0,0E0,0E0,0E0,0E0,0E0,0E0,0E0,0E0,0E0,0E0,0E0,0E0,0E0,0E0,0E0,0E0,0E0,0E0,0E0],"parents":[2147483647,0,0,1,1,2,2,3,3,4,4,5,5,6,6,7,7,8,8,9,9,10,10,11,11,12,12,13,13,14,14,15,15,16,16,17,17,18,18,19,19,20,20,21,21,22,22,23,23,24,24,25,25,26,26,27,27,28,28,29,29,30,30,31,31,32,32,33,33,34,34,35,35,36,36,37,37,38,38,39,39,40,40,41,41,42,42,43,43,44,44,45,45,46,46,47,47,48,48,49,49,50,50,51,51,52,52,53,53,54,54,55,55,56,56,57,57,58,58,59,59,60,60,61,61,62,62,63,63,64,64,65,65,66,66,67,67,68,68,69,69,70,70,71,71,72,72,73,73,75,75,76,76,77,77,78,78,79,79,80,80,81,81,82,82,83,83,84,84,85,85,86,86,87,87,88,88,89,89,90,90,91,91,92,92,93,93,94,94,95,95,96,96,97,97,98,98,100,100,101,101,102,102,103,103,104,104,105,105,106,106,107,107,108,108,109,109,111,111,113,113,114,114,115,115,116,116,117,117,118,118,119,119,120,120,121,121,122,122,123,123,124,124,125,125,126,126],"right_children":[2,4,6,8,10,12,14,16,18,20,22,24,26,28,30,32,34,36,38,40,42,44,46,48,50,52,54,56,58,60,62,64,66,68,70,72,74,76,78,80,82,84,86,88,90,92,94,96,98,100,102,104,106,108,110,112,114,116,118,120,122,124,126,128,130,132,134,136,138,140,142,144,146,148,-1,150,152,154,156,158,160,162,164,166,168,170,172,174,176,178,180,182,184,186,188,190,192,194,196,-1,198,200,202,204,206,208,210,212,214,216,-1,218,-1,220,222,224,226,228,230,232,234,236,238,240,242,244,246,-1,-1,-1,-1,-1,-1,-1,-1,-1,-1,-1,-1,-1,-1,-1,-1,-1,-1,-1,-1,-1,-1,-1,-1,-1,-1,-1,-1,-1,-1,-1,-1,-1,-1,-1,-1,-1,-1,-1,-1,-1,-1,-1,-1,-1,-1,-1,-1,-1,-1,-1,-1,-1,-1,-1,-1,-1,-1,-1,-1,-1,-1,-1,-1,-1,-1,-1,-1,-1,-1,-1,-1,-1,-1,-1,-1,-1,-1,-1,-1,-1,-1,-1,-1,-1,-1,-1,-1,-1,-1,-1,-1,-1,-1,-1,-1,-1,-1,-1,-1,-1,-1,-1,-1,-1,-1,-1,-1,-1,-1,-1,-1,-1,-1,-1,-1,-1,-1,-1,-1],"split_conditions":[6.2660104E-1,2.0532295E-1,8.638784E-1,5.019831E-1,2.4174325E-1,5.7120067E-1,3.4609175E-1,5.5507666E-1,2.067398E-1,4.358283E-1,5.3390956E-1,2.653981E-1,5.8959764E-1,2.250612E-1,6.969997E-1,3.054332E-1,4.4050175E-1,5.309314E-1,5.747607E-1,5.6658983E-1,5.940686E-1,1.1276189E-1,5.643101E-1,3.5546854E-1,2.6881704E-1,1.7989725E-1,5.685715E-1,1.8291342E-1,5.718739E-1,2.806585E-1,2.9833588E-1,1.687262E-1,4.4658658E-1,3.9825183E-1,5.7009864E-1,1.7780566E-1,9.5573014E-1,2.702208E-1,1.752652E-1,5.019831E-1,5.019831E-1,5.6142247E-1,9.899756E-1,1.6169411E-1,4.200812E-1,1.3349043E-1,4.9036145E-1,6.544909E-1,4.8486683E-1,7.040468E-2,7.771868E-1,7.410203E-1,6.412318E-1,6.3126147E-1,2.90891E-1,5.950657E-1,3.394908E-1,2.9882118E-2,3.3562285E-1,5.2206945E-1,2.4341524E-1,2.3893611E-1,1.9106959E-1,6.741712E-1,3.8384187E-1,7.4547285E-1,3.350711E-1,3.6275333E-1,2.1407859E-1,1.3125739E-1,9.6186095E-1,3.6042905E-1,8.2182765E-1,4.8853442E-1,3.5969356E-1,7.7955776E-1,6.593833E-1,3.719734E-1,7.301502E-1,5.2117366E-1,5.150006E-1,4.0140983E-1,4.8529178E-1,5.98868E-1,2.509816E-1,2.544996E-1,3.7920886E-1,2.5213188E-1,5.7524616E-1,4.4943842E-1,7.736415E-1,4.5291916E-1,4.6166435E-1,8.3342934E-1,1.2650272E-1,3.0027544E-1,1.7823707E-1,3.1007007E-1,3.7856624E-1,5.3107136E-1,3.4414437E-1,5.166075E-1,9.899756E-1,5.473614E-1,7.280866E-2,5.730817E-1,3.6296764E-1,2.9506192E-1,8.670127E-2,4.7320735E-1,6.328939E-1,6.029253E-1,6.0257554E-1,2.2064947E-1,4.1293705E-1,8.3833754E-1,5.120414E-1,4.1069692E-1,6.470992E-1,9.8648065E-1,1.4192024E-2,6.114885E-1,7.72775E-1,1.9127002E-1,7.6432544E-1,4.8077017E-1,4.170522E-1,-3.2083295E-2,2.5802016E-1,-1.0659678E-1,-1.8238153E-2,-6.437211E-2,5.606127E-2,1.8861862E-1,3.066111E-2,-4.7694094E-2,6.888574E-2,-2.1174145E-1,-6.721413E-2,-6.477237E-2,-2.2137171E-1,-1.0494462E-1,2.2010213E-1,-2.3175502E-1,-5.5764597E-2,-2.6658282E-1,-1.3988914E-1,-1.8002594E-1,-2.735349E-1,8.939258E-2,-2.4654238E-1,-1.0598602E-1,5.0594874E-2,2.821612E-1,1.0078407E-1,3.280774E-2,-1.2973283E-1,1.990604E-3,-3.6500774E-2,-9.691981E-2,-2.7227541E-2,2.4923125E-2,7.712514E-2,-7.817156E-2,1.0838855E-2,-7.6934084E-2,-1.2899241E-1,-7.443059E-2,-1.7031258E-2,1.8289086E-1,2.959198E-3,1.2418015E-1,4.4651216E-1,2.3608667E-1,4.8541254E-1,4.632013E-2,2.0855755E-1,-8.965918E-2,2.7615398E-2,7.646836E-2,3.0006122E-2,-2.3317404E-2,-1.2758923E-1,3.7123659E-3,8.0898985E-2,1.648003E-2,-8.021802E-2,-1.3681602E-1,-5.073717E-2,9.759491E-2,-1.24308355E-2,1.0418185E-2,-9.259698E-2,4.4429358E-2,9.540338E-3,-4.6600822E-2,2.4384191E-2,-1.1747916E-1,1.1671453E-1,5.421452E-2,1.4558958E-2,1.1001946E-3,2.960107E-1,2.8684037E-2,-2.1266095E-2,2.9035714E-1,4.7312435E-2,4.629743E-1,4.387582E-2,1.14126734E-1,3.8249028E-1,3.199446E-1,1.0216027E-1,1.8042478E-1,-3.935997E-2,5.8684933E-1,9.655656E-2,1.5127821E-1,3.5126603E-1,1.8131669E-1,7.311616E-2,-1.1491011E-2,1.0041409E-1,3.738226E-1,-5.477147E-3,5.113472E-2,1.680967E-1,3.9245952E-2,-3.8077943E-2,3.8374152E-2,2.3709853E-1,1.0210387E-2,3.3741954E-1,3.7117842E-1,7.580752E-2,3.1297588E-1,1.3738285E-1,5.764785E-2,1.6524822E-1,4.018187E-1,9.257211E-2,4.2657706E-1,1.11086786E-1,2.3819296E-1,1.01323955E-1,-5.4425314E-2,5.135983E-2],"split_indices":[20,91,20,83,33,43,60,28,33,20,64,33,60,81,59,33,20,70,43,6,91,25,34,31,56,84,33,28,32,72,45,39,40,83,20,39,28,25,54,83,83,20,35,34,91,57,55,29,83,30,41,35,55,25,87,57,39,87,66,55,45,81,84,66,81,31,33,81,81,66,71,62,89,28,0,23,25,31,62,64,34,60,34,28,51,73,5,30,55,89,23,20,33,41,66,64,45,25,91,0,32,70,35,25,34,43,83,53,30,53,0,67,0,25,66,53,66,64,48,23,87,32,29,43,86,34,33,0,0,0,0,0,0,0,0,0,0,0,0,0,0,0,0,0,0,0,0,0,0,0,0,0,0,0,0,0,0,0,0,0,0,0,0,0,0,0,0,0,0,0,0,0,0,0,0,0,0,0,0,0,0,0,0,0,0,0,0,0,0,0,0,0,0,0,0,0,0,0,0,0,0,0,0,0,0,0,0,0,0,0,0,0,0,0,0,0,0,0,0,0,0,0,0,0,0,0,0,0,0,0,0,0,0,0,0,0,0,0,0,0,0,0,0,0,0,0,0],"split_type":[0,0,0,0,0,0,0,0,0,0,0,0,0,0,0,0,0,0,0,0,0,0,0,0,0,0,0,0,0,0,0,0,0,0,0,0,0,0,0,0,0,0,0,0,0,0,0,0,0,0,0,0,0,0,0,0,0,0,0,0,0,0,0,0,0,0,0,0,0,0,0,0,0,0,0,0,0,0,0,0,0,0,0,0,0,0,0,0,0,0,0,0,0,0,0,0,0,0,0,0,0,0,0,0,0,0,0,0,0,0,0,0,0,0,0,0,0,0,0,0,0,0,0,0,0,0,0,0,0,0,0,0,0,0,0,0,0,0,0,0,0,0,0,0,0,0,0,0,0,0,0,0,0,0,0,0,0,0,0,0,0,0,0,0,0,0,0,0,0,0,0,0,0,0,0,0,0,0,0,0,0,0,0,0,0,0,0,0,0,0,0,0,0,0,0,0,0,0,0,0,0,0,0,0,0,0,0,0,0,0,0,0,0,0,0,0,0,0,0,0,0,0,0,0,0,0,0,0,0,0,0,0,0,0,0,0,0,0,0,0,0,0,0,0,0,0,0],"sum_hessian":[5.3403E5,2.75898E5,2.58132E5,6.692E4,2.08978E5,2.01311E5,5.6821E4,4.9531E4,1.7389E4,1.12101E5,9.6877E4,1.24876E5,7.6435E4,3.253E4,2.4291E4,2.9939E4,1.9592E4,1.3683E4,3.706E3,6.8463E4,4.3638E4,5.4947E4,4.193E4,7.2821E4,5.2055E4,6.9976E4,6.459E3,1.0368E4,2.2162E4,2.17E4,2.591E3,2.4319E4,5.62E3,9.324E3,1.0268E4,5.799E3,7.884E3,2.74E3,9.66E2,5.2473E4,1.599E4,3.9965E4,3.673E3,1.228E3,5.3719E4,2.1397E4,2.0533E4,1.7586E4,5.5235E4,2.407E3,4.9648E4,6.014E4,9.836E3,6.015E3,4.44E2,4.67E2,9.901E3,4.407E3,1.7755E4,9.2E3,1.25E4,1.646E3,9.45E2,1.0325E4,1.3994E4,2.157E3,3.463E3,5.255E3,4.069E3,7.757E3,2.511E3,2.274E3,3.525E3,7.852E3,3.2E1,8.11E2,1.929E3,1.63E2,8.03E2,4.5106E4,7.367E3,1.4113E4,1.877E3,2.263E4,1.7335E4,3.613E3,6E1,2.47E2,9.81E2,2.8439E4,2.528E4,3.405E3,1.7992E4,8.65E3,1.1883E4,8.735E3,8.851E3,4.5463E4,9.772E3,9.5E1,2.312E3,3.6258E4,1.339E4,3.2509E4,2.7631E4,7.079E3,2.757E3,4.952E3,1.063E3,3.05E2,1.39E2,3.99E2,6.8E1,7.223E3,2.678E3,3.15E2,4.092E3,1.1833E4,5.922E3,5.614E3,3.586E3,5.384E3,7.116E3,3.7E2,1.276E3,7.27E2,2.18E2,1E4,3.25E2,1.0885E4,3.109E3,1.835E3,3.22E2,6.5E2,2.813E3,3.934E3,1.321E3,1.675E3,2.394E3,8.96E2,6.861E3,2.453E3,5.8E1,3.43E2,1.931E3,1.515E3,2.01E3,2.213E3,5.639E3,6.6E1,7.45E2,1.736E3,1.93E2,7.1E1,9.2E1,5.41E2,2.62E2,2.1511E4,2.3595E4,4.691E3,2.676E3,1.0225E4,3.888E3,1.064E3,8.13E2,1.5454E4,7.176E3,7.724E3,9.611E3,3.67E2,3.246E3,6E0,5.4E1,1.06E2,1.41E2,5.73E2,4.08E2,1.416E3,2.7023E4,1.2065E4,1.3215E4,2.19E3,1.215E3,1.4428E4,3.564E3,7.182E3,1.468E3,1.876E3,1.0007E4,1.107E3,7.628E3,2.186E3,6.665E3,1.1515E4,3.3948E4,5.998E3,3.774E3,3.44E2,1.968E3,1.8896E4,1.7362E4,1.3267E4,1.23E2,2.2145E4,1.0364E4,2.64E2,2.7367E4,8.4E1,6.995E3,2.151E3,6.06E2,2.99E2,4.653E3,7.4E1,9.89E2,4.9E1,2.56E2,1.75E2,2.24E2,7.27E2,6.496E3,1.951E3,7.27E2,2.56E2,5.9E1,3.522E3,5.7E2,3.138E3,8.695E3,5.635E3,2.87E2,5.529E3,8.5E1,1.3E2,3.456E3,1.634E3,3.75E3,5.267E3,1.849E3,4.9E1,3.21E2,1.077E3,1.99E2,4.23E2,3.04E2,1.57E2,6.1E1],"tree_param":{"num_deleted":"0","num_feature":"92","num_nodes":"247","size_leaf_vector":"1"}},{"base_weights":[9.887767E-3,-5.6245055E0,1.3668199E0,-9.528416E0,-6.428119E-1,-3.1829947E-1,3.5035834E0,-6.5850773E0,-1.6190252E1,-4.064949E0,4.5259414E0,-1.8882953E0,1.2649208E0,2.659822E0,5.5000963E0,-5.3767633E0,-1.7889103E1,-1.8594069E1,-4.390393E0,-1.5898979E0,-9.608581E0,1.4210054E1,1.4325874E-1,-4.328673E0,-4.5525765E-1,-4.4536862E-1,2.9147701E0,1.5417316E0,5.193208E0,3.9878428E0,8.808558E0,-3.728073E-1,-6.868057E0,-2.6950413E1,-1.0667279E1,-2.320385E1,-1.3455671E1,-5.112031E0,4.3869895E-1,3.1507866E0,-4.1904655E0,-1.2861986E1,-3.8209677E0,4.1945187E1,1.2063463E1,3.2674946E1,-5.180561E-1,-9.919752E-1,-6.0681305E0,2.60497E0,-1.9000975E0,1.3550782E0,-2.7121592E0,5.8958383E0,1.7134621E0,1.003076E1,1.1462188E0,2.4097207E0,9.819894E0,4.853651E-1,6.1864605E0,8.294138E0,4.4643166E1,3.1586542E0,-6.718904E0,-9.554943E0,-2.819787E0,-2.895196E1,-4.520503E0,-2.2374737E1,-6.0890903E0,-9.716321E0,-2.5412912E1,-1.3919987E1,5.528145E-1,-1.0621052E1,-1.5796034E0,2.1206E0,3.4396774E1,-4.620558E0,2.8420511E1,-1.662224E1,-6.7575154E0,-8.0015745E0,2.6752696E0,4.9806953E1,1.6654305E-1,8.9758415E0,2.5313618E1,4.0447254E0,6.279432E-1,-6.2039456E0,2.4523485E0,5.604539E0,-3.220133E0,-6.58602E0,5.4947495E0,-3.2336433E0,4.701141E0,-3.13786E-1,-5.697604E0,2.4873514E0,-3.8616219E0,-9.883406E-1,-6.5917478E0,1.23364935E1,4.1724076E0,1.4206188E0,1.8967688E1,-2.5522313E-1,2.0144026E1,2.5612376E0,-4.4632536E-1,3.35735E-2,7.489416E0,2.3752737E1,8.58492E0,1.8871446E-1,1.9518702E1,3.2093754E0,9.183056E0,3.7454505E0,1.0705015E1,1.098642E0,6.5605146E-1,2.4262223E-2,6.193561E-1,-1.9605216E-1,-3.4334224E-2,-1.4556533E-1,-5.3455345E-2,-3.7639577E-2,1.3921405E-1,-3.069345E-1,-6.684998E-2,6.347082E-2,-1.3767368E-1,-2.7139148E-1,-2.0381365E-2,1.2725355E-1,-8.03499E-2,5.66462E-1,-1.2477347E-1,-2.877634E-1,-1.8794642E-1,-8.553169E-2,-1.9632639E-1,-6.862556E-2,-1.9183059E-1,-9.199653E-2,5.674394E-2,1.5098187E-1,4.4706482E-3,-6.1787616E-2,3.7610477E-1,-7.43783E-3,-8.502495E-2,6.800763E-2,5.869706E-1,-2.3073176E-1,-1.2370785E-1,-1.7796949E-1,-4.2160895E-2,7.942689E-3,-1.12810105E-1,4.7620203E-2,-1.7974357E-1,5.526122E-1,2.9276386E-1,1.5021835E-1,-1.3186482E-1,1.2303016E-3,1.5297E-1,9.156473E-2,3.4195387E-1,-1.6332189E-2,6.487341E-2,-2.4829476E-1,-4.065976E-2,4.1179354E-3,1.1479453E-1,-1.6797263E-2,1.2075641E-1,-7.639493E-2,-1.2988215E-2,-7.053491E-2,6.533734E-2,-4.7385566E-2,1.2960657E-1,3.355437E-1,-3.986966E-2,1.23080716E-1,3.0338854E-2,-4.296824E-2,1.8039776E-2,-1.0621685E-1,-3.3702787E-2,1.627572E-2,8.665881E-2,-7.343128E-2,1.4727956E-2,7.876606E-2,-1.9301454E-2,-2.119106E-2,-8.95408E-2,8.80533E-2,2.5821155E-1,3.4251932E-2,1.5641862E-1,3.719217E-2,-1.4422904E-3,1.4977205E-1,5.70401E-1,1.315048E-1,-7.531646E-2,5.167353E-1,1.4571302E-1,6.032359E-4,4.976878E-2,-1.6474392E-2,4.0293563E-2,-1.5138763E-3,5.8313453E-1,1.1774039E-1,2.1161523E-2,4.0854385E-1,8.0102235E-2,1.0997623E-1,1.03363795E-2,-5.9328917E-3,7.459373E-2,-5.4187463E-3,3.8412204E-1,2.2695601E-2,1.2324003E-1,8.709434E-2,5.8397794E-1,-1.1476411E-1,5.1491093E-2,4.5495942E-2,1.351219E-1,1.3500074E-1,-3.9464414E-2],"categories":[],"categories_nodes":[],"categories_segments":[],"categories_sizes":[],"default_left":[0,0,0,0,0,0,0,0,0,0,0,0,0,0,0,0,0,0,0,0,0,0,0,0,0,0,0,0,0,0,0,0,0,0,0,0,0,0,0,0,0,0,0,0,0,0,0,0,0,0,0,0,0,0,0,0,0,0,0,0,0,0,0,0,0,0,0,0,0,0,0,0,0,0,0,0,0,0,0,0,0,0,0,0,0,0,0,0,0,0,0,0,0,0,0,0,0,0,0,0,0,0,0,0,0,0,0,0,0,0,0,0,0,0,0,0,0,0,0,0,0,0,0,0,0,0,0,0,0,0,0,0,0,0,0,0,0,0,0,0,0,0,0,0,0,0,0,0,0,0,0,0,0,0,0,0,0,0,0,0,0,0,0,0,0,0,0,0,0,0,0,0,0,0,0,0,0,0,0,0,0,0,0,0,0,0,0,0,0,0,0,0,0,0,0,0,0,0,0,0,0,0,0,0,0,0,0,0,0,0,0,0,0,0,0,0,0,0,0,0,0,0,0,0,0,0,0,0,0,0,0,0,0,0,0,0,0,0,0,0,0,0,0],"id":6,"left_children":[1,3,5,7,9,11,13,15,17,19,21,23,25,27,29,31,33,35,37,39,41,43,45,47,49,51,53,55,57,59,61,63,65,67,69,71,73,75,-1,77,79,81,83,85,87,89,91,93,95,97,99,101,103,105,107,109,111,113,115,117,119,121,123,125,127,129,131,133,135,137,139,141,143,145,-1,147,149,151,153,155,157,159,161,163,165,167,169,171,173,175,-1,177,179,181,183,185,187,189,191,193,195,197,199,201,203,205,207,209,211,213,215,217,219,221,223,225,227,229,231,233,235,237,239,241,-1,-1,-1,-1,-1,-1,-1,-1,-1,-1,-1,-1,-1,-1,-1,-1,-1,-1,-1,-1,-1,-1,-1,-1,-1,-1,-1,-1,-1,-1,-1,-1,-1,-1,-1,-1,-1,-1,-1,-1,-1,-1,-1,-1,-1,-1,-1,-1,-1,-1,-1,-1,-1,-1,-1,-1,-1,-1,-1,-1,-1,-1,-1,-1,-1,-1,-1,-1,-1,-1,-1,-1,-1,-1,-1,-1,-1,-1,-1,-1,-1,-1,-1,-1,-1,-1,-1,-1,-1,-1,-1,-1,-1,-1,-1,-1,-1,-1,-1,-1,-1,-1,-1,-1,-1,-1,-1,-1,-1,-1,-1,-1,-1,-1,-1,-1,-1,-1,-1],"loss_changes":[4.0821408E6,2.0153555E6,1.549384E6,1.138674E6,8.0552344E5,5.98007E5,3.19534E5,5.500239E5,5.044835E5,3.7585906E5,7.6993725E5,4.2243234E5,3.380147E5,3.7774638E5,2.817915E5,2.7175912E5,2.53121E5,3.486735E5,1.0626247E5,2.336659E5,1.5897612E5,3.339675E5,2.6887666E5,2.5935269E5,3.3655253E5,2.4008077E5,2.1830125E5,3.1065075E5,5.257936E5,2.9789844E5,3.239705E5,1.876189E5,3.05048E5,7.6654E4,1.1578933E5,2.30777E5,2.2738538E5,5.7888094E4,0E0,2.1578581E5,1.7230345E5,1.2364444E5,8.293959E4,1.32654E5,2.1377188E5,2.1344884E5,2.0697111E5,2.2526473E5,1.7608688E5,2.9884794E5,3.1145744E5,1.9370606E5,1.7411531E5,1.9411512E5,2.1948964E5,4.2850412E5,1.9927416E5,3.078347E5,2.6289675E5,8.425188E4,2.1188081E5,1.9095375E5,2.2692172E5,2.308152E5,1.263803E5,3.54619E5,1.7729533E5,6.0242875E4,1.5209104E4,5.8730594E4,5.7953934E4,2.058184E5,1.461715E5,2.1257588E5,0E0,3.676742E4,1.0091827E5,1.4126647E5,2.9067031E4,1.8181028E5,1.02735484E5,9.031231E4,5.7728617E4,5.3610703E4,5.2050547E4,2.9983688E4,1.467748E4,2.3882803E5,1.405035E5,1.8975583E3,0E0,1.6694172E5,1.4825981E5,1.8252247E5,9.721441E4,1.7268112E5,9.672504E4,1.794748E5,2.2765797E5,3.0771025E5,1.7440172E5,1.4305002E5,1.08680586E5,1.5065112E5,8.453769E4,1.7475875E5,1.1818856E5,1.5375819E5,1.058758E5,2.0017102E5,3.6117506E5,2.8287678E5,2.2370961E5,1.8740284E5,1.8700153E5,3.338155E5,2.5677638E5,8.3607336E4,8.689842E4,1.0205332E5,2.7348494E5,1.2947611E5,1.9650425E5,5.647084E3,0E0,0E0,0E0,0E0,0E0,0E0,0E0,0E0,0E0,0E0,0E0,0E0,0E0,0E0,0E0,0E0,0E0,0E0,0E0,0E0,0E0,0E0,0E0,0E0,0E0,0E0,0E0,0E0,0E0,0E0,0E0,0E0,0E0,0E0,0E0,0E0,0E0,0E0,0E0,0E0,0E0,0E0,0E0,0E0,0E0,0E0,0E0,0E0,0E0,0E0,0E0,0E0,0E0,0E0,0E0,0E0,0E0,0E0,0E0,0E0,0E0,0E0,0E0,0E0,0E0,0E0,0E0,0E0,0E0,0E0,0E0,0E0,0E0,0E0,0E0,0E0,0E0,0E0,0E0,0E0,0E0,0E0,0E0,0E0,0E0,0E0,0E0,0E0,0E0,0E0,0E0,0E0,0E0,0E0,0E0,0E0,0E0,0E0,0E0,0E0,0E0,0E0,0E0,0E0,0E0,0E0,0E0,0E0,0E0,0E0,0E0,0E0,0E0,0E0,0E0,0E0,0E0,0E0,0E0],"parents":[2147483647,0,0,1,1,2,2,3,3,4,4,5,5,6,6,7,7,8,8,9,9,10,10,11,11,12,12,13,13,14,14,15,15,16,16,17,17,18,18,19,19,20,20,21,21,22,22,23,23,24,24,25,25,26,26,27,27,28,28,29,29,30,30,31,31,32,32,33,33,34,34,35,35,36,36,37,37,39,39,40,40,41,41,42,42,43,43,44,44,45,45,46,46,47,47,48,48,49,49,50,50,51,51,52,52,53,53,54,54,55,55,56,56,57,57,58,58,59,59,60,60,61,61,62,62,63,63,64,64,65,65,66,66,67,67,68,68,69,69,70,70,71,71,72,72,73,73,75,75,76,76,77,77,78,78,79,79,80,80,81,81,82,82,83,83,84,84,85,85,86,86,87,87,88,88,89,89,91,91,92,92,93,93,94,94,95,95,96,96,97,97,98,98,99,99,100,100,101,101,102,102,103,103,104,104,105,105,106,106,107,107,108,108,109,109,110,110,111,111,112,112,113,113,114,114,115,115,116,116,117,117,118,118,119,119,120,120,121,121,122,122,123,123],"right_children":[2,4,6,8,10,12,14,16,18,20,22,24,26,28,30,32,34,36,38,40,42,44,46,48,50,52,54,56,58,60,62,64,66,68,70,72,74,76,-1,78,80,82,84,86,88,90,92,94,96,98,100,102,104,106,108,110,112,114,116,118,120,122,124,126,128,130,132,134,136,138,140,142,144,146,-1,148,150,152,154,156,158,160,162,164,166,168,170,172,174,176,-1,178,180,182,184,186,188,190,192,194,196,198,200,202,204,206,208,210,212,214,216,218,220,222,224,226,228,230,232,234,236,238,240,242,-1,-1,-1,-1,-1,-1,-1,-1,-1,-1,-1,-1,-1,-1,-1,-1,-1,-1,-1,-1,-1,-1,-1,-1,-1,-1,-1,-1,-1,-1,-1,-1,-1,-1,-1,-1,-1,-1,-1,-1,-1,-1,-1,-1,-1,-1,-1,-1,-1,-1,-1,-1,-1,-1,-1,-1,-1,-1,-1,-1,-1,-1,-1,-1,-1,-1,-1,-1,-1,-1,-1,-1,-1,-1,-1,-1,-1,-1,-1,-1,-1,-1,-1,-1,-1,-1,-1,-1,-1,-1,-1,-1,-1,-1,-1,-1,-1,-1,-1,-1,-1,-1,-1,-1,-1,-1,-1,-1,-1,-1,-1,-1,-1,-1,-1,-1,-1,-1,-1],"split_conditions":[2.0532295E-1,1.8864153E-1,2.5906527E-1,4.913763E-1,5.553433E-1,3.853449E-1,5.7687736E-1,9.021757E-1,8.012922E-1,4.446319E-1,4.1568208E-1,4.5306718E-1,4.8117974E-1,7.53332E-1,5.878483E-1,6.940856E-1,2.7965733E-1,2.2889331E-1,9.1734946E-1,2.2161141E-1,4.6908763E-1,6.998755E-1,7.960016E-2,5.9143233E-1,3.157847E-1,4.65813E-1,1.8545026E-1,2.0269428E-1,3.1564227E-1,2.1506318E-1,9.7397226E-1,6.052933E-1,4.2071414E-1,7.695917E-2,1.8294372E-1,7.329919E-1,9.7368103E-1,4.3218058E-1,4.3869895E-1,7.839843E-1,9.7985274E-1,2.8858957E-1,2.9833588E-1,7.5066465E-1,8.4329534E-1,7.85977E-1,2.1934429E-1,7.124628E-1,6.470992E-1,1.7948456E-1,6.052933E-1,6.861945E-1,3.7096092E-1,3.432341E-1,9.78246E-1,7.1092385E-1,6.450729E-1,3.4827998E-1,2.7499914E-1,8.669962E-1,5.2924913E-1,4.1286176E-1,6.477616E-1,5.9485805E-1,5.4056334E-1,1.3174772E-1,9.1368294E-1,9.196312E-1,6.319067E-1,7.064654E-1,5.23081E-1,1.5488867E-1,1.7842971E-1,5.5044776E-1,5.528145E-1,3.0368656E-1,2.6457703E-1,4.2285034E-1,5.6045926E-1,4.8870876E-1,6.5045893E-1,2.0887655E-1,4.6396047E-1,2.1546367E-1,5.201104E-1,4.597965E-1,5.506954E-1,6.66091E-1,3.6775005E-1,3.7102962E-1,6.279432E-1,2.3724473E-1,7.980892E-1,2.7641702E-1,1.8668014E-1,6.3618284E-1,